{"learner":{"attributes":{"scikit_learn":"{\"_estimator_type\": \"classifier\"}"},"feature_names":[],"feature_types":[],"gradient_booster":{"model":{"gbtree_model_param":{"num_parallel_tree":"1","num_trees":"200"},"iteration_indptr":[0,1,2,3,4,5,6,7,8,9,10,11,12,13,14,15,16,17,18,19,20,21,22,23,24,25,26,27,28,29,30,31,32,33,34,35,36,37,38,39,40,41,42,43,44,45,46,47,48,49,50,51,52,53,54,55,56,57,58,59,60,61,62,63,64,65,66,67,68,69,70,71,72,73,74,75,76,77,78,79,80,81,82,83,84,85,86,87,88,89,90,91,92,93,94,95,96,97,98,99,100,101,102,103,104,105,106,107,108,109,110,111,112,113,114,115,116,117,118,119,120,121,122,123,124,125,126,127,128,129,130,131,132,133,134,135,136,137,138,139,140,141,142,143,144,145,146,147,148,149,150,151,152,153,154,155,156,157,158,159,160,161,162,163,164,165,166,167,168,169,170,171,172,173,174,175,176,177,178,179,180,181,182,183,184,185,186,187,188,189,190,191,192,193,194,195,196,197,198,199,200],"tree_info":[0,0,0,0,0,0,0,0,0,0,0,0,0,0,0,0,0,0,0,0,0,0,0,0,0,0,0,0,0,0,0,0,0,0,0,0,0,0,0,0,0,0,0,0,0,0,0,0,0,0,0,0,0,0,0,0,0,0,0,0,0,0,0,0,0,0,0,0,0,0,0,0,0,0,0,0,0,0,0,0,0,0,0,0,0,0,0,0,0,0,0,0,0,0,0,0,0,0,0,0,0,0,0,0,0,0,0,0,0,0,0,0,0,0,0,0,0,0,0,0,0,0,0,0,0,0,0,0,0,0,0,0,0,0,0,0,0,0,0,0,0,0,0,0,0,0,0,0,0,0,0,0,0,0,0,0,0,0,0,0,0,0,0,0,0,0,0,0,0,0,0,0,0,0,0,0,0,0,0,0,0,0,0,0,0,0,0,0,0,0,0,0,0,0,0,0,0,0,0,0],"trees":[{"base_weights":[5.518626E-4,-8.086331E-1,1.1663897E-1,1.166419E-1,-1.6832731E0,-1.7059233E0,1.8480474E0,1.1438437E-1,-1.7158972E0,-1.3203015E0,2.1166117E0,-1.7215726E0,4.93119E-1,-9.650968E-4,-7.333904E-2,1.1116705E-1,-6.683501E-1,-8.619812E-2,7.038187E-2,-3.6725234E-2,1.0733926E-1,-5.3441133E-2,1.7016461E-2],"categories":[],"categories_nodes":[],"categories_segments":[],"categories_sizes":[],"default_left":[0,0,0,0,0,0,0,0,0,0,0,0,0,0,0,0,0,0,0,0,0,0,0],"id":0,"left_children":[1,3,-1,-1,5,7,9,-1,11,13,15,17,19,-1,-1,-1,21,-1,-1,-1,-1,-1,-1],"loss_changes":[6.958323E4,7.521683E4,0E0,0E0,1.715832E3,8.5135156E2,1.1937988E2,0E0,2.670703E2,1.9738121E0,3.9281677E1,1.6076953E2,1.1362204E2,0E0,0E0,0E0,2.621237E0,0E0,0E0,0E0,0E0,0E0,0E0],"parents":[2147483647,0,0,1,1,4,4,5,5,6,6,8,8,9,9,10,10,11,11,12,12,16,16],"right_children":[2,4,-1,-1,6,8,10,-1,12,14,16,18,20,-1,-1,-1,22,-1,-1,-1,-1,-1,-1],"split_conditions":[-1.1752159E-1,5.301596E-1,1.1663897E-1,1.166419E-1,1.6802088E0,-2.771096E-1,8.639213E-1,1.1438437E-1,4.370128E0,-3.5686474E-2,4.1241474E0,1.482091E0,8.639213E-1,-9.650968E-4,-7.333904E-2,1.1116705E-1,2.16433E0,-8.619812E-2,7.038187E-2,-3.6725234E-2,1.0733926E-1,-5.3441133E-2,1.7016461E-2],"split_indices":[2,11,0,0,1,3,5,0,26,15,27,6,5,0,0,0,12,0,0,0,0,0,0],"split_type":[0,0,0,0,0,0,0,0,0,0,0,0,0,0,0,0,0,0,0,0,0,0,0],"sum_hessian":[3.6868996E4,2.73725E4,9.496497E3,5.960872E3,2.1411629E4,2.1275709E4,1.3591963E2,5.2408653E1,2.12233E4,1.028581E1,1.2563383E2,2.1169178E4,5.412295E1,1.2245013E0,9.061309E0,1.2122562E2,4.4082046E0,2.1153504E4,1.5673615E1,3.134723E1,2.2775723E1,3.1837032E0,1.2245013E0],"tree_param":{"num_deleted":"0","num_feature":"30","num_nodes":"23","size_leaf_vector":"1"}},{"base_weights":[-3.7579995E-3,-7.769527E-1,1.0929581E-1,1.0930419E-1,-1.621645E0,-1.6382245E0,2.041762E0,1.0753075E-1,-1.6484854E0,3.5379648E-1,2.109189E0,-1.6518033E0,1.11456E-1,-2.4407962E-2,5.5453844E-2,3.258221E-2,1.0643678E-1,-8.286019E-2,2.3047598E-2],"categories":[],"categories_nodes":[],"categories_segments":[],"categories_sizes":[],"default_left":[0,0,0,0,0,0,0,0,0,0,0,0,0,0,0,0,0,0,0],"id":1,"left_children":[1,3,-1,-1,5,7,9,-1,11,13,15,17,-1,-1,-1,-1,-1,-1,-1],"loss_changes":[6.258278E4,6.8377414E4,0E0,0E0,1.2945117E3,8.2627344E2,9.955872E0,0E0,2.751797E2,3.7534947E0,9.6273804E-1,2.4151172E2,0E0,0E0,0E0,0E0,0E0,0E0,0E0],"parents":[2147483647,0,0,1,1,4,4,5,5,6,6,8,8,9,9,10,10,11,11],"right_children":[2,4,-1,-1,6,8,10,-1,12,14,16,18,-1,-1,-1,-1,-1,-1,-1],"split_conditions":[5.9184337E-1,5.301596E-1,1.0929581E-1,1.0930419E-1,1.482091E0,-2.771096E-1,-8.5849756E-1,1.0753075E-1,3.2823484E0,2.7974123E-2,-5.4655486E-1,4.370128E0,1.11456E-1,-2.4407962E-2,5.5453844E-2,3.258221E-2,1.0643678E-1,-8.286019E-2,2.3047598E-2],"split_indices":[19,11,0,0,6,3,24,0,14,15,15,26,0,0,0,0,0,0,0],"split_type":[0,0,0,0,0,0,0,0,0,0,0,0,0,0,0,0,0,0,0],"sum_hessian":[3.6962723E4,2.7317385E4,9.645336E3,6.059608E3,2.1257777E4,2.1162582E4,9.519555E1,5.656796E1,2.1106014E4,3.9535058E0,9.124204E1,2.1088568E4,1.7444925E1,1.9741141E0,1.9793916E0,1.7295152E0,8.951253E1,2.1035064E4,5.350479E1],"tree_param":{"num_deleted":"0","num_feature":"30","num_nodes":"19","size_leaf_vector":"1"}},{"base_weights":[-2.5179123E-3,-7.4429226E-1,1.0315972E-1,1.0316292E-1,-1.5671643E0,-1.5893217E0,1.7053928E0,1.0149944E-1,-1.5990857E0,-1.2653083E0,1.973227E0,-1.6018668E0,1.0723513E-1,-5.8832717E-1,-7.2247185E-2,1.0270696E-1,-8.0076075E-1,-8.0192864E-2,5.5865575E-2,-5.5230677E-2,1.8500434E-2,-6.635102E-3,-5.260689E-2],"categories":[],"categories_nodes":[],"categories_segments":[],"categories_sizes":[],"default_left":[0,0,0,0,0,0,0,0,0,0,0,0,0,0,0,0,0,0,0,0,0,0,0],"id":2,"left_children":[1,3,-1,-1,5,7,9,-1,11,13,15,17,-1,19,-1,-1,21,-1,-1,-1,-1,-1,-1],"loss_changes":[5.6199902E4,6.234904E4,0E0,0E0,1.5160391E3,7.3579297E2,1.1460245E2,0E0,2.1865625E2,4.3308067E-1,3.0855469E1,1.1365625E2,0E0,2.6427982E0,0E0,0E0,4.7360587E-1,0E0,0E0,0E0,0E0,0E0,0E0],"parents":[2147483647,0,0,1,1,4,4,5,5,6,6,8,8,9,9,10,10,11,11,13,13,16,16],"right_children":[2,4,-1,-1,6,8,10,-1,12,14,16,18,-1,20,-1,-1,22,-1,-1,-1,-1,-1,-1],"split_conditions":[5.9184337E-1,5.301596E-1,1.0315972E-1,1.0316292E-1,1.6802088E0,-2.771096E-1,8.639213E-1,1.0149944E-1,3.2823484E0,5.236377E-1,4.1241474E0,1.482091E0,1.0723513E-1,5.0360525E-1,-7.2247185E-2,1.0270696E-1,8.908788E-1,-8.0192864E-2,5.5865575E-2,-5.5230677E-2,1.8500434E-2,-6.635102E-3,-5.260689E-2],"split_indices":[19,11,0,0,1,3,5,0,14,16,27,6,0,16,0,0,24,0,0,0,0,0,0],"split_type":[0,0,0,0,0,0,0,0,0,0,0,0,0,0,0,0,0,0,0,0,0,0,0],"sum_hessian":[3.6675098E4,2.6985568E4,9.68953E3,6.116183E3,2.0869385E4,2.0729576E4,1.3980836E2,5.5188263E1,2.0674389E4,1.1223588E1,1.2858478E2,2.0659639E4,1.47483E1,3.3668694E0,7.8567185E0,1.2522765E2,3.3571143E0,2.0644975E4,1.4665495E1,2.1566975E0,1.2101719E0,1.4443432E0,1.912771E0],"tree_param":{"num_deleted":"0","num_feature":"30","num_nodes":"23","size_leaf_vector":"1"}},{"base_weights":[-8.500147E-3,-7.2103107E-1,9.794223E-2,-8.2917315E-1,9.426557E-2,-9.503097E-1,8.509242E-1,9.745144E-2,-9.707306E-1,1.893012E-1,1.6488056E0,-9.794948E-1,9.709605E-2,1.2874088E0,-2.4828038E-1,1.7549895E0,-1.2374471E0,-4.6846483E-2,-7.358388E-2,8.082513E-2,3.6236193E-2,9.1492966E-2,-1.4890653E-2,4.411192E-2,9.253103E-2,-7.262838E-2,5.2275706E-2],"categories":[],"categories_nodes":[],"categories_segments":[],"categories_sizes":[],"default_left":[0,0,0,0,0,0,0,0,0,0,0,0,0,0,0,0,0,0,0,0,0,0,0,0,0,0,0],"id":3,"left_children":[1,3,-1,5,-1,7,9,-1,11,13,15,17,-1,19,21,23,25,-1,-1,-1,-1,-1,-1,-1,-1,-1,-1],"loss_changes":[5.0718285E4,7.487873E3,0E0,5.191373E3,0E0,1.4102793E3,9.051903E2,0E0,6.048457E2,4.5167664E2,2.4051929E2,4.918164E2,0E0,4.8187927E1,6.9594635E1,6.0723633E1,1.5380928E1,0E0,0E0,0E0,0E0,0E0,0E0,0E0,0E0,0E0,0E0],"parents":[2147483647,0,0,1,1,3,3,5,5,6,6,8,8,9,9,10,10,11,11,13,13,14,14,15,15,16,16],"right_children":[2,4,-1,6,-1,8,10,-1,12,14,16,18,-1,20,22,24,26,-1,-1,-1,-1,-1,-1,-1,-1,-1,-1],"split_conditions":[5.9184337E-1,4.370128E0,9.794223E-2,-2.0308399E-1,9.426557E-2,-2.771096E-1,8.639213E-1,9.745144E-2,3.2823484E0,-1.7155111E0,4.1241474E0,4.1241474E0,9.709605E-2,-2.3291357E0,-2.771096E-1,-1.065918E0,5.623964E-1,-4.6846483E-2,-7.358388E-2,8.082513E-2,3.6236193E-2,9.1492966E-2,-1.4890653E-2,4.411192E-2,9.253103E-2,-7.262838E-2,5.2275706E-2],"split_indices":[19,26,0,21,0,3,5,0,14,22,27,27,0,22,3,24,1,0,0,0,0,0,0,0,0,0,0],"split_type":[0,0,0,0,0,0,0,0,0,0,0,0,0,0,0,0,0,0,0,0,0,0,0,0,0,0,0],"sum_hessian":[3.6179062E4,2.6560201E4,9.618862E3,2.5502764E4,1.0574376E3,2.3788113E4,1.7146508E3,1.6568022E2,2.3622434E4,9.381097E2,7.7654114E2,2.3552262E4,7.017122E1,2.668181E2,6.7129156E2,7.493977E2,2.7143387E1,2.1680395E4,1.8718673E3,1.6706018E2,9.975791E1,1.4744065E1,6.565475E2,7.5118744E1,6.74279E2,2.5178398E1,1.9649888E0],"tree_param":{"num_deleted":"0","num_feature":"30","num_nodes":"27","size_leaf_vector":"1"}},{"base_weights":[-3.8736893E-3,-6.933773E-1,9.346224E-2,-7.975619E-1,1.7953156E0,-9.1356736E-1,8.22966E-1,9.118103E-2,1.6752357E0,9.2990234E-2,-9.329421E-1,2.044545E-1,1.5836959E0,6.3734025E-1,8.4440656E-2,-9.411976E-1,9.3371674E-2,1.2131655E0,-2.0167486E-1,1.6730595E0,-1.15021E0,5.767382E-2,-3.9427313E-3,-4.497541E-2,-7.139032E-2,4.642089E-2,8.826225E-2,5.0775327E-2,-1.4245485E-2,5.4787844E-2,8.8278234E-2,-7.14178E-2,4.657235E-2],"categories":[],"categories_nodes":[],"categories_segments":[],"categories_sizes":[],"default_left":[0,0,0,0,0,0,0,0,0,0,0,0,0,0,0,0,0,0,0,0,0,0,0,0,0,0,0,0,0,0,0,0,0],"id":4,"left_children":[1,3,-1,5,7,9,11,-1,13,-1,15,17,19,21,-1,23,-1,25,27,29,31,-1,-1,-1,-1,-1,-1,-1,-1,-1,-1,-1,-1],"loss_changes":[4.6398773E4,6.809994E3,0E0,4.739075E3,1.821289E-1,1.2655527E3,7.919686E2,0E0,1.7106934E0,0E0,5.4169727E2,3.8140887E2,1.8644849E2,1.850132E0,0E0,4.7098242E2,0E0,4.00997E1,6.748301E1,3.684961E1,1.5540817E1,0E0,0E0,0E0,0E0,0E0,0E0,0E0,0E0,0E0,0E0,0E0,0E0],"parents":[2147483647,0,0,1,1,3,3,4,4,5,5,6,6,8,8,10,10,11,11,12,12,13,13,15,15,17,17,18,18,19,19,20,20],"right_children":[2,4,-1,6,8,10,12,-1,14,-1,16,18,20,22,-1,24,-1,26,28,30,32,-1,-1,-1,-1,-1,-1,-1,-1,-1,-1,-1,-1],"split_conditions":[-1.1752159E-1,4.370128E0,9.346224E-2,-2.0308399E-1,3.0299082E-1,-2.771096E-1,8.639213E-1,9.118103E-2,-1.1932594E0,9.2990234E-2,3.2823484E0,-1.7155111E0,4.1241474E0,-1.4444895E0,8.4440656E-2,4.1241474E0,9.3371674E-2,2.6145644E0,-1.3912455E0,-1.06794626E-1,1.3533216E-2,5.767382E-2,-3.9427313E-3,-4.497541E-2,-7.139032E-2,4.642089E-2,8.826225E-2,5.0775327E-2,-1.4245485E-2,5.4787844E-2,8.8278234E-2,-7.14178E-2,4.657235E-2],"split_indices":[2,26,0,21,22,3,5,0,16,0,14,22,27,16,0,27,0,21,15,16,0,0,0,0,0,0,0,0,0,0,0,0,0],"split_type":[0,0,0,0,0,0,0,0,0,0,0,0,0,0,0,0,0,0,0,0,0,0,0,0,0,0,0,0,0,0,0,0,0],"sum_hessian":[3.5923742E4,2.6258535E4,9.665206E3,2.520413E4,1.0544049E3,2.3520887E4,1.6832446E3,8.411185E2,2.1328638E2,1.6248183E2,2.3358404E4,9.2917725E2,7.540674E2,3.4682667E0,2.0981812E2,2.3290445E4,6.7960205E1,2.662202E2,6.6295703E2,7.306104E2,2.3456972E1,1.7419615E0,1.7263051E0,2.145535E4,1.8350952E3,1.7752196E2,8.869826E1,4.163963E1,6.213174E2,1.02825775E2,6.2778467E2,2.1011362E1,2.4456105E0],"tree_param":{"num_deleted":"0","num_feature":"30","num_nodes":"33","size_leaf_vector":"1"}},{"base_weights":[-6.3560554E-3,-6.6751397E-1,8.9586735E-2,1.9705938E0,-1.4689511E0,1.9980097E0,9.244848E-2,-1.490307E0,1.5649911E0,8.9055106E-2,1.0021275E-1,8.834158E-2,-1.4984335E0,-6.1068486E-2,1.7818569E0,-1.5039346E0,-6.2633264E-1,9.217891E-2,-4.664083E-1,-7.525932E-2,4.8578016E-2,1.1991038E-1,-6.2541045E-2,2.2802278E-2,-5.022782E-2],"categories":[],"categories_nodes":[],"categories_segments":[],"categories_sizes":[],"default_left":[0,0,0,0,0,0,0,0,0,0,0,0,0,0,0,0,0,0,0,0,0,0,0,0,0],"id":5,"left_children":[1,3,-1,5,7,9,-1,11,13,-1,-1,-1,15,-1,17,19,21,-1,23,-1,-1,-1,-1,-1,-1],"loss_changes":[4.223164E4,5.4918227E4,0E0,1.6101562E1,1.2931328E3,2.7246094E0,0E0,5.2627734E2,8.665231E1,0E0,0E0,0E0,9.352344E1,0E0,1.9045258E1,6.228125E1,2.3998833E2,0E0,2.6127536E0,0E0,0E0,0E0,0E0,0E0,0E0],"parents":[2147483647,0,0,1,1,3,3,4,4,5,5,7,7,8,8,12,12,14,14,15,15,16,16,18,18],"right_children":[2,4,-1,6,8,10,-1,12,14,-1,-1,-1,16,-1,18,20,22,-1,24,-1,-1,-1,-1,-1,-1],"split_conditions":[-1.1752159E-1,5.301596E-1,8.9586735E-2,-2.0308399E-1,1.6802088E0,-2.771096E-1,9.244848E-2,-2.771096E-1,8.639213E-1,8.9055106E-2,1.0021275E-1,8.834158E-2,1.1721122E0,-6.1068486E-2,4.1241474E0,2.6145644E0,1.5500894E-1,9.217891E-2,2.3730867E-1,-7.525932E-2,4.8578016E-2,1.1991038E-1,-6.2541045E-2,2.2802278E-2,-5.022782E-2],"split_indices":[2,11,0,21,1,3,0,3,5,0,0,0,1,0,27,21,0,0,24,0,0,0,0,0,0],"split_type":[0,0,0,0,0,0,0,0,0,0,0,0,0,0,0,0,0,0,0,0,0,0,0,0,0],"sum_hessian":[3.552203E4,2.5972594E4,9.5494375E3,6.0514204E3,1.9921174E4,4.925006E3,1.1264144E3,1.9782467E4,1.3870657E2,1.4629395E2,4.778712E3,4.866498E1,1.97338E4,9.648358E0,1.2905821E2,1.960927E4,1.24531876E2,1.2582834E2,3.2298708E0,1.9599791E4,9.478649E0,2.079868E1,1.037332E2,1.177769E0,2.052102E0],"tree_param":{"num_deleted":"0","num_feature":"30","num_nodes":"25","size_leaf_vector":"1"}},{"base_weights":[-4.498271E-3,-6.446042E-1,8.6192355E-2,1.8792723E0,-1.4294665E0,1.909518E0,8.604782E-2,-1.450729E0,1.4774928E0,1.9413282E0,8.8928856E-2,8.521855E-2,-1.459873E0,-6.423928E-2,1.6910188E0,8.553582E-2,9.740349E-2,-1.4624811E0,9.074428E-2,8.824925E-2,-4.6066904E-1,-7.335239E-2,1.35194585E-2,2.2297634E-2,-5.2576005E-2],"categories":[],"categories_nodes":[],"categories_segments":[],"categories_sizes":[],"default_left":[0,0,0,0,0,0,0,0,0,0,0,0,0,0,0,0,0,0,0,0,0,0,0,0,0],"id":6,"left_children":[1,3,-1,5,7,9,-1,11,13,15,-1,-1,17,-1,19,-1,-1,21,-1,-1,23,-1,-1,-1,-1],"loss_changes":[3.8629688E4,5.047672E4,0E0,2.5294922E1,1.2035156E3,1.727539E1,0E0,5.5916016E2,8.57294E1,2.6191406E0,0E0,0E0,1.6696094E2,0E0,2.1935944E1,0E0,0E0,1.5266406E2,0E0,0E0,3.2783928E0,0E0,0E0,0E0,0E0],"parents":[2147483647,0,0,1,1,3,3,4,4,5,5,7,7,8,8,9,9,12,12,14,14,17,17,20,20],"right_children":[2,4,-1,6,8,10,-1,12,14,16,-1,-1,18,-1,20,-1,-1,22,-1,-1,24,-1,-1,-1,-1],"split_conditions":[-1.1752159E-1,5.301596E-1,8.6192355E-2,4.370128E0,1.6802088E0,4.373993E-2,8.604782E-2,-2.771096E-1,8.639213E-1,-2.771096E-1,8.8928856E-2,8.521855E-2,3.2823484E0,-6.423928E-2,4.1241474E0,8.553582E-2,9.740349E-2,4.370128E0,9.074428E-2,8.824925E-2,2.3730867E-1,-7.335239E-2,1.35194585E-2,2.2297634E-2,-5.2576005E-2],"split_indices":[2,11,0,26,1,6,0,3,5,3,0,0,14,0,27,0,0,26,0,0,24,0,0,0,0],"split_type":[0,0,0,0,0,0,0,0,0,0,0,0,0,0,0,0,0,0,0,0,0,0,0,0,0],"sum_hessian":[3.491525E4,2.5479432E4,9.435818E3,6.0435874E3,1.9435846E4,5.064367E3,9.7922034E2,1.9295248E4,1.4059651E2,4.0627844E3,1.00158246E3,5.5191395E1,1.9240057E4,9.694776E0,1.3090175E2,1.23053024E2,3.9397314E3,1.9225328E4,1.4728037E1,1.267701E2,4.1316376E0,1.9175008E4,5.0321583E1,1.6601844E0,2.471453E0],"tree_param":{"num_deleted":"0","num_feature":"30","num_nodes":"25","size_leaf_vector":"1"}},{"base_weights":[-5.715147E-4,-6.2243396E-1,8.3196E-2,-7.1790344E-1,1.5975323E0,-8.2451427E-1,7.291057E-1,8.149073E-2,7.532714E-2,-7.8321654E-1,-1.3220906E0,1.7975584E-1,1.3999304E0,-8.767857E-1,-5.1229842E-2,-1.3258387E0,-4.3981794E-1,-3.5760403E-2,1.4081624E0,1.4814576E0,-1.0140446E0,6.0460236E-2,-4.441175E-2,-2.2016559E-2,4.3902174E-2,-6.775964E-2,-6.065626E-2,-3.8941078E-2,4.647555E-2,3.684894E-2,-1.112229E-2,3.9848614E-2,7.808363E-2,-1.1256247E-2,7.604667E-2,-6.465021E-2,5.332722E-2],"categories":[],"categories_nodes":[],"categories_segments":[],"categories_sizes":[],"default_left":[0,0,0,0,0,0,0,0,0,0,0,0,0,0,0,0,0,0,0,0,0,0,0,0,0,0,0,0,0,0,0,0,0,0,0,0,0],"id":7,"left_children":[1,3,-1,5,7,9,11,-1,-1,13,15,17,19,21,23,25,27,29,31,33,35,-1,-1,-1,-1,-1,-1,-1,-1,-1,-1,-1,-1,-1,-1,-1,-1],"loss_changes":[3.5424516E4,5.2816074E3,0E0,3.6858691E3,2.4951172E-1,4.5596582E2,6.038635E2,0E0,0E0,1.4071943E3,4.873291E0,2.3917564E2,1.4679456E2,4.3615527E2,8.428493E2,3.7097168E0,4.8010798E0,1.1103189E2,1.1169983E1,4.8597168E1,1.5716932E1,0E0,0E0,0E0,0E0,0E0,0E0,0E0,0E0,0E0,0E0,0E0,0E0,0E0,0E0,0E0,0E0],"parents":[2147483647,0,0,1,1,3,3,4,4,5,5,6,6,9,9,10,10,11,11,12,12,13,13,14,14,15,15,16,16,17,17,18,18,19,19,20,20],"right_children":[2,4,-1,6,8,10,12,-1,-1,14,16,18,20,22,24,26,28,30,32,34,36,-1,-1,-1,-1,-1,-1,-1,-1,-1,-1,-1,-1,-1,-1,-1,-1],"split_conditions":[5.9184337E-1,4.370128E0,8.3196E-2,-2.0308399E-1,-1.540507E-1,4.1241474E0,8.639213E-1,8.149073E-2,7.532714E-2,8.639213E-1,4.5973525E0,2.107957E0,4.1241474E0,-4.1089395E-1,2.5753847E-1,-7.577882E-2,1.0666344E0,-1.070092E0,-8.5849756E-1,-1.3281288E0,9.688736E-1,6.0460236E-2,-4.441175E-2,-2.2016559E-2,4.3902174E-2,-6.775964E-2,-6.065626E-2,-3.8941078E-2,4.647555E-2,3.684894E-2,-1.112229E-2,3.9848614E-2,7.808363E-2,-1.1256247E-2,7.604667E-2,-6.465021E-2,5.332722E-2],"split_indices":[19,26,0,21,24,27,5,0,0,5,25,21,27,0,1,24,16,15,24,24,1,0,0,0,0,0,0,0,0,0,0,0,0,0,0,0,0],"split_type":[0,0,0,0,0,0,0,0,0,0,0,0,0,0,0,0,0,0,0,0,0,0,0,0,0,0,0,0,0,0,0,0,0,0,0,0,0],"sum_hessian":[3.4221883E4,2.4914416E4,9.307466E3,2.3887844E4,1.0265735E3,2.2249102E4,1.6387408E3,7.444404E2,2.8213306E2,2.0546559E4,1.7025437E3,9.0172205E2,7.3701874E2,1.8217498E4,2.3290598E3,1.6947283E3,7.8155103E0,7.6789E2,1.3383202E2,7.133543E2,2.3664429E1,9.882508E1,1.8118674E4,1.6421144E3,6.869453E2,1.3351124E3,3.5961584E2,6.6687903E0,1.1467199E0,1.487387E2,6.191513E2,2.8239891E1,1.0559212E2,1.59642935E1,6.9739E2,2.124285E1,2.4215784E0],"tree_param":{"num_deleted":"0","num_feature":"30","num_nodes":"37","size_leaf_vector":"1"}},{"base_weights":[-9.47611E-4,-6.007965E-1,8.0548786E-2,1.8064816E0,-1.3751143E0,1.8432691E0,8.052778E-2,-1.3949641E0,1.3781295E0,1.8824493E0,1.6804677E0,8.270302E-2,-1.4037068E0,-5.7327427E-2,1.5829049E0,8.3911575E-2,9.441366E-2,8.737936E-2,8.113861E-2,-1.4087231E0,2.9180187E-1,8.289921E-2,-3.2678264E-1,-7.073776E-2,-2.577054E-2,-4.2443298E-2,9.224496E-2,3.1023428E-2,-5.1344037E-2],"categories":[],"categories_nodes":[],"categories_segments":[],"categories_sizes":[],"default_left":[0,0,0,0,0,0,0,0,0,0,0,0,0,0,0,0,0,0,0,0,0,0,0,0,0,0,0,0,0],"id":8,"left_children":[1,3,-1,5,7,9,-1,11,13,15,17,-1,19,-1,21,-1,-1,-1,-1,23,25,-1,27,-1,-1,-1,-1,-1,-1],"loss_changes":[3.2681855E4,4.591929E4,0E0,3.9898438E1,1.0205742E3,2.8632812E1,0E0,4.9560547E2,7.1076004E1,1.296875E0,6.513672E-1,0E0,1.5746875E2,0E0,1.849643E1,0E0,0E0,0E0,0E0,9.822656E1,9.946464E1,0E0,4.3165026E0,0E0,0E0,0E0,0E0,0E0,0E0],"parents":[2147483647,0,0,1,1,3,3,4,4,5,5,7,7,8,8,9,9,10,10,12,12,14,14,19,19,20,20,22,22],"right_children":[2,4,-1,6,8,10,-1,12,14,16,18,-1,20,-1,22,-1,-1,-1,-1,24,26,-1,28,-1,-1,-1,-1,-1,-1],"split_conditions":[-1.1752159E-1,5.301596E-1,8.0548786E-2,4.370128E0,1.6802088E0,4.373993E-2,8.052778E-2,-2.771096E-1,8.639213E-1,-2.771096E-1,8.639213E-1,8.270302E-2,4.370128E0,-5.7327427E-2,4.1241474E0,8.3911575E-2,9.441366E-2,8.737936E-2,8.113861E-2,1.1721122E0,8.639213E-1,8.289921E-2,2.3730867E-1,-7.073776E-2,-2.577054E-2,-4.2443298E-2,9.224496E-2,3.1023428E-2,-5.1344037E-2],"split_indices":[2,11,0,26,1,6,0,3,5,3,5,0,26,0,27,0,0,0,0,1,5,0,24,0,0,0,0,0,0],"split_type":[0,0,0,0,0,0,0,0,0,0,0,0,0,0,0,0,0,0,0,0,0,0,0,0,0,0,0,0,0],"sum_hessian":[3.37984E4,2.4632525E4,9.165873E3,5.9945605E3,1.8637965E4,5.0394272E3,9.5513354E2,1.850508E4,1.3288506E2,4.0528738E3,9.865534E2,5.233858E1,1.8452742E4,9.5879345E0,1.2329712E2,1.2086712E2,3.9320066E3,4.4169244E2,5.4486096E2,1.8398537E4,5.4204746E1,1.1881026E2,4.4868603E0,1.8274443E4,1.2409334E2,3.1476194E1,2.2728552E1,1.8944811E0,2.5923793E0],"tree_param":{"num_deleted":"0","num_feature":"30","num_nodes":"29","size_leaf_vector":"1"}},{"base_weights":[-3.2610225E-3,-5.849834E-1,7.817662E-2,1.7369148E0,-1.3452102E0,1.7687083E0,7.815798E-2,-1.3665221E0,1.2129314E0,1.8031377E0,8.129466E-2,-1.3726052E0,3.7483716E-1,1.4166533E0,-6.7277807E-1,9.031569E-2,7.7101626E-2,-1.3750542E0,9.00957E-2,-2.6748037E-1,1.5820199E0,1.4948506E0,-6.678814E-1,-1.1006091E0,5.7026714E-2,-6.884672E-2,4.8146438E-2,-2.183572E-2,6.2081426E-2,2.269892E-2,8.935959E-2,5.1944967E-2,7.906471E-2,4.9693915E-3,-5.187713E-2,-6.4903096E-4,-6.0868908E-2],"categories":[],"categories_nodes":[],"categories_segments":[],"categories_sizes":[],"default_left":[0,0,0,0,0,0,0,0,0,0,0,0,0,0,0,0,0,0,0,0,0,0,0,0,0,0,0,0,0,0,0,0,0,0,0,0,0],"id":9,"left_children":[1,3,-1,5,7,9,-1,11,13,15,-1,17,19,21,23,-1,-1,25,-1,27,29,31,33,35,-1,-1,-1,-1,-1,-1,-1,-1,-1,-1,-1,-1,-1],"loss_changes":[3.0080863E4,4.2486207E4,0E0,2.9699219E1,9.9020703E2,2.1362305E1,0E0,1.9110156E2,5.8766937E1,2.1972656E-1,0E0,1.4176172E2,4.9659805E1,2.325238E1,1.3108955E1,0E0,0E0,8.007422E1,0E0,1.1223173E1,4.100811E0,3.2762756E0,1.7747209E0,1.5020599E0,0E0,0E0,0E0,0E0,0E0,0E0,0E0,0E0,0E0,0E0,0E0,0E0,0E0],"parents":[2147483647,0,0,1,1,3,3,4,4,5,5,7,7,8,8,9,9,11,11,12,12,13,13,14,14,17,17,19,19,20,20,21,21,22,22,23,23],"right_children":[2,4,-1,6,8,10,-1,12,14,16,-1,18,20,22,24,-1,-1,26,-1,28,30,32,34,36,-1,-1,-1,-1,-1,-1,-1,-1,-1,-1,-1,-1,-1],"split_conditions":[5.9184337E-1,5.301596E-1,7.817662E-2,4.370128E0,1.5785894E0,4.373993E-2,7.815798E-2,4.370128E0,3.759543E0,3.2823484E0,8.129466E-2,3.2823484E0,9.576335E-1,4.1241474E0,5.558568E-1,9.031569E-2,7.7101626E-2,1.482091E0,9.00957E-2,-3.3625357E-2,-2.5055808E-1,1.8834474E0,8.237643E-1,-1.2785181E-1,5.7026714E-2,-6.884672E-2,4.8146438E-2,-2.183572E-2,6.2081426E-2,2.269892E-2,8.935959E-2,5.1944967E-2,7.906471E-2,4.9693915E-3,-5.187713E-2,-6.4903096E-4,-6.0868908E-2],"split_indices":[19,11,0,26,1,6,0,26,24,14,0,14,4,27,0,0,0,6,0,0,1,1,22,15,0,0,0,0,0,0,0,0,0,0,0,0,0],"split_type":[0,0,0,0,0,0,0,0,0,0,0,0,0,0,0,0,0,0,0,0,0,0,0,0,0,0,0,0,0,0,0,0,0,0,0,0,0],"sum_hessian":[3.3001816E4,2.4066896E4,8.934918E3,5.935912E3,1.8130984E4,5.009518E3,9.2639386E2,1.7981684E4,1.4930048E2,4.026499E3,9.8301904E2,1.7919355E4,6.2329285E1,1.3501587E2,1.4284611E1,3.9718823E3,5.46166E1,1.7906139E4,1.32154045E1,4.1136806E1,2.1192476E1,1.3045302E2,4.562839E0,1.1920328E1,2.3642821E0,1.7892205E4,1.3933737E1,3.7687363E1,3.449445E0,3.8307827E0,1.7361694E1,2.3049944E1,1.0740308E2,1.6333258E0,2.9295132E0,1.3464622E0,1.0573866E1],"tree_param":{"num_deleted":"0","num_feature":"30","num_nodes":"37","size_leaf_vector":"1"}},{"base_weights":[-4.119292E-3,-5.724576E-1,7.605488E-2,1.6758329E0,-1.3160044E0,1.704045E0,7.6033376E-2,-1.3364881E0,1.1329154E0,8.6704835E-2,7.880965E-2,8.191759E-2,-1.3458468E0,-1.243528E0,1.4599389E0,-1.3485757E0,8.3746E-2,-1.2793003E-3,-6.6704325E-2,1.5330633E0,5.8525103E-1,-6.766881E-2,9.502182E-3,8.104582E-2,4.0417578E-2,6.757947E-2,-3.5705E-2],"categories":[],"categories_nodes":[],"categories_segments":[],"categories_sizes":[],"default_left":[0,0,0,0,0,0,0,0,0,0,0,0,0,0,0,0,0,0,0,0,0,0,0,0,0,0,0],"id":10,"left_children":[1,3,-1,5,7,9,-1,11,13,-1,-1,-1,15,17,19,21,-1,-1,-1,23,25,-1,-1,-1,-1,-1,-1],"loss_changes":[2.7871156E4,3.9160727E4,0E0,2.2572266E1,8.845664E2,1.5830078E1,0E0,4.8821875E2,1.1570569E2,0E0,0E0,0E0,1.4569336E2,1.8402195E0,7.1607056E0,1.2879883E2,0E0,0E0,0E0,5.9975586E0,1.2677183E1,0E0,0E0,0E0,0E0,0E0,0E0],"parents":[2147483647,0,0,1,1,3,3,4,4,5,5,7,7,8,8,12,12,13,13,14,14,15,15,19,19,20,20],"right_children":[2,4,-1,6,8,10,-1,12,14,-1,-1,-1,16,18,20,22,-1,-1,-1,24,26,-1,-1,-1,-1,-1,-1],"split_conditions":[-1.1752159E-1,5.301596E-1,7.605488E-2,4.370128E0,1.5785894E0,-2.0308399E-1,7.6033376E-2,-2.771096E-1,8.639213E-1,8.6704835E-2,7.880965E-2,8.191759E-2,3.2823484E0,-1.2785181E-1,1.8817222E0,4.370128E0,8.3746E-2,-1.2793003E-3,-6.6704325E-2,1.6070664E0,5.721244E-1,-6.766881E-2,9.502182E-3,8.104582E-2,4.0417578E-2,6.757947E-2,-3.5705E-2],"split_indices":[2,11,0,26,1,21,0,3,5,0,0,0,14,15,3,26,0,0,0,24,22,0,0,0,0,0,0],"split_type":[0,0,0,0,0,0,0,0,0,0,0,0,0,0,0,0,0,0,0,0,0,0,0,0,0,0,0],"sum_hessian":[3.2150734E4,2.3423264E4,8.727471E3,5.8209253E3,1.7602338E4,4.9163975E3,9.045274E2,1.7456818E4,1.4552023E2,3.9699224E3,9.464754E2,5.416703E1,1.740265E4,1.7226778E1,1.2829346E2,1.738753E4,1.5121098E1,1.3574122E0,1.5869365E1,1.1759538E2,1.0698068E1,1.7333637E4,5.389413E1,1.0365518E2,1.39402E1,6.7523737E0,3.9456937E0],"tree_param":{"num_deleted":"0","num_feature":"30","num_nodes":"27","size_leaf_vector":"1"}},{"base_weights":[-2.5304125E-3,-5.5762273E-1,7.414963E-2,-6.431859E-1,1.4124213E0,-7.422547E-1,6.5717465E-1,6.930152E-2,7.540605E-2,7.743519E-2,-7.598612E-1,1.7416643E-1,1.2576689E0,-7.736913E-1,5.1214665E-1,-2.1935869E-2,1.2113401E0,1.3327233E0,-1.0110102E0,-3.6887635E-2,-6.0762E-2,4.8936615E-3,6.304573E-2,4.8397344E-2,-7.1574277E-3,4.3371122E-2,7.122395E-2,3.3365704E-2,7.033225E-2,-6.1417293E-2,5.3540733E-2],"categories":[],"categories_nodes":[],"categories_segments":[],"categories_sizes":[],"default_left":[0,0,0,0,0,0,0,0,0,0,0,0,0,0,0,0,0,0,0,0,0,0,0,0,0,0,0,0,0,0,0],"id":11,"left_children":[1,3,-1,5,7,9,11,-1,-1,-1,13,15,17,19,21,23,25,27,29,-1,-1,-1,-1,-1,-1,-1,-1,-1,-1,-1,-1],"loss_changes":[2.5758502E4,3.8340137E3,0E0,2.8081768E3,1.159668E-2,8.179834E2,4.472741E2,0E0,0E0,0E0,3.539961E2,1.7437064E2,1.1848474E2,3.1441992E2,6.695918E1,8.66012E1,8.526688E0,3.1622925E1,1.1533899E1,0E0,0E0,0E0,0E0,0E0,0E0,0E0,0E0,0E0,0E0,0E0,0E0],"parents":[2147483647,0,0,1,1,3,3,4,4,5,5,6,6,10,10,11,11,12,12,13,13,14,14,15,15,16,16,17,17,18,18],"right_children":[2,4,-1,6,8,10,12,-1,-1,-1,14,16,18,20,22,24,26,28,30,-1,-1,-1,-1,-1,-1,-1,-1,-1,-1,-1,-1],"split_conditions":[5.9184337E-1,4.370128E0,7.414963E-2,-2.0308399E-1,8.639213E-1,-2.771096E-1,8.639213E-1,6.930152E-2,7.540605E-2,7.743519E-2,4.5973525E0,1.9784589E0,4.1241474E0,4.1241474E0,3.5915777E-1,-1.3912455E0,2.6145644E0,-1.065918E0,9.688736E-1,-3.6887635E-2,-6.0762E-2,4.8936615E-3,6.304573E-2,4.8397344E-2,-7.1574277E-3,4.3371122E-2,7.122395E-2,3.3365704E-2,7.033225E-2,-6.1417293E-2,5.3540733E-2],"split_indices":[19,26,0,21,5,3,5,0,0,0,25,21,27,27,1,15,21,24,1,0,0,0,0,0,0,0,0,0,0,0,0],"split_type":[0,0,0,0,0,0,0,0,0,0,0,0,0,0,0,0,0,0,0,0,0,0,0,0,0,0,0,0,0,0,0],"sum_hessian":[3.1235588E4,2.2739324E4,8.496265E3,2.179351E4,9.458139E2,2.0251168E4,1.5423412E3,7.543232E2,1.9149069E2,1.5374106E2,2.0097428E4,8.555971E2,6.86744E2,1.988173E4,2.1569765E2,7.202914E2,1.3530574E2,6.651941E2,2.1549913E1,1.8387986E4,1.4937434E3,1.3968044E2,7.6017204E1,7.772665E1,6.425647E2,5.3889465E1,8.1416275E1,6.764704E1,5.9754706E2,1.9927544E1,1.6223683E0],"tree_param":{"num_deleted":"0","num_feature":"30","num_nodes":"31","size_leaf_vector":"1"}},{"base_weights":[-3.2148957E-3,1.5856893E0,-5.2106065E-1,1.629843E0,7.240687E-2,-1.2776427E0,7.241348E-2,1.6563025E0,7.530401E-2,-1.2994077E0,9.602691E-1,7.385542E-2,8.304357E-2,7.721358E-2,-1.3083587E0,-6.1844554E-2,1.4042932E0,-1.3108525E0,7.8956716E-2,1.5026021E0,-4.6523368E-1,-6.563857E-2,4.140344E-2,1.12086415E-1,7.084791E-2,2.441106E-2,-5.370431E-2],"categories":[],"categories_nodes":[],"categories_segments":[],"categories_sizes":[],"default_left":[0,0,0,0,0,0,0,0,0,0,0,0,0,0,0,0,0,0,0,0,0,0,0,0,0,0,0],"id":12,"left_children":[1,3,5,7,-1,9,-1,11,-1,13,15,-1,-1,-1,17,-1,19,21,-1,23,25,-1,-1,-1,-1,-1,-1],"loss_changes":[2.5334936E4,4.329492E1,3.460243E4,1.5923828E1,0E0,8.184883E2,0E0,1.0839844E0,0E0,4.2494727E2,1.5992773E2,0E0,0E0,0E0,1.21328125E2,0E0,2.568454E1,6.906445E1,0E0,4.617584E0,4.9229507E0,0E0,0E0,0E0,0E0,0E0,0E0],"parents":[2147483647,0,0,1,1,2,2,3,3,5,5,7,7,9,9,10,10,14,14,16,16,17,17,19,19,20,20],"right_children":[2,4,6,8,-1,10,-1,12,-1,14,16,-1,-1,-1,18,-1,20,22,-1,24,26,-1,-1,-1,-1,-1,-1],"split_conditions":[5.301596E-1,-1.1752159E-1,-1.1752159E-1,4.373993E-2,7.240687E-2,1.4769702E0,7.241348E-2,-2.771096E-1,7.530401E-2,-2.771096E-1,8.639213E-1,7.385542E-2,8.304357E-2,7.721358E-2,3.2823484E0,-6.1844554E-2,4.1241474E0,1.482091E0,7.8956716E-2,1.7858823E-1,8.237643E-1,-6.563857E-2,4.140344E-2,1.12086415E-1,7.084791E-2,2.441106E-2,-5.370431E-2],"split_indices":[11,2,2,6,0,1,0,3,0,3,5,0,0,0,14,0,27,6,0,0,22,0,0,0,0,0,0],"split_type":[0,0,0,0,0,0,0,0,0,0,0,0,0,0,0,0,0,0,0,0,0,0,0,0,0,0,0],"sum_hessian":[3.0788975E4,7.5674717E3,2.3221502E4,5.719845E3,1.8476267E3,1.6776621E4,6.4448813E3,4.7015107E3,1.0183343E3,1.661549E4,1.6113133E2,1.2549798E2,4.5760127E3,5.156265E1,1.6563928E4,2.6750626E1,1.343807E2,1.6550213E4,1.3713063E1,1.2790461E2,6.4760923E0,1.6535812E4,1.4402067E1,1.0546155E1,1.1735845E2,2.5370274E0,3.9390652E0],"tree_param":{"num_deleted":"0","num_feature":"30","num_nodes":"27","size_leaf_vector":"1"}},{"base_weights":[-2.7308078E-3,-5.28086E-1,7.084643E-2,-6.222594E-1,6.716744E-1,7.3375754E-2,-6.39608E-1,2.7191246E-1,1.2084988E0,-6.004408E-1,-1.1521646E0,9.847337E-1,-1.5788825E-2,1.2762007E0,-1.0614879E0,-6.945157E-1,8.742197E-2,-1.1542029E0,3.3068344E-2,7.882237E-1,1.3580714E0,7.239036E-2,-5.652599E-2,6.581313E-1,1.3494817E0,-1.1517667E0,1.2889899E-2,-2.0473847E-2,-4.0980574E-2,-9.652173E-3,4.584176E-2,-5.2079346E-2,-5.918019E-2,4.8455697E-2,2.3654148E-2,6.8815105E-2,2.5934562E-2,1.0971198E-2,-1.3870179E-2,4.8587095E-2,-1.1486656E-2,6.1620444E-2,7.280644E-2,-6.0483124E-2,-2.3763377E-2],"categories":[],"categories_nodes":[],"categories_segments":[],"categories_sizes":[],"default_left":[0,0,0,0,0,0,0,0,0,0,0,0,0,0,0,0,0,0,0,0,0,0,0,0,0,0,0,0,0,0,0,0,0,0,0,0,0,0,0,0,0,0,0,0,0],"id":13,"left_children":[1,3,-1,5,7,-1,9,11,13,15,17,19,21,23,25,27,29,31,-1,33,35,-1,37,39,41,43,-1,-1,-1,-1,-1,-1,-1,-1,-1,-1,-1,-1,-1,-1,-1,-1,-1,-1,-1],"loss_changes":[2.224529E4,2.4601436E3,0E0,7.327114E2,3.3963812E2,0E0,4.0106445E2,1.8669284E2,1.0527551E2,1.2038662E3,6.0616455E0,1.7916489E1,3.8641865E1,2.8667847E1,2.7782402E0,5.83042E2,5.2103424E2,3.2424316E0,0E0,9.318077E0,4.539032E-1,0E0,3.861943E1,2.0271622E1,5.2562256E0,2.7275085E-3,0E0,0E0,0E0,0E0,0E0,0E0,0E0,0E0,0E0,0E0,0E0,0E0,0E0,0E0,0E0,0E0,0E0,0E0,0E0],"parents":[2147483647,0,0,1,1,3,3,4,4,6,6,7,7,8,8,9,9,10,10,11,11,12,12,13,13,14,14,15,15,16,16,17,17,19,19,20,20,22,22,23,23,24,24,25,25],"right_children":[2,4,-1,6,8,-1,10,12,14,16,18,20,22,24,26,28,30,32,-1,34,36,-1,38,40,42,44,-1,-1,-1,-1,-1,-1,-1,-1,-1,-1,-1,-1,-1,-1,-1,-1,-1,-1,-1],"split_conditions":[-1.1752159E-1,-2.0308399E-1,7.084643E-2,-2.771096E-1,8.639213E-1,7.3375754E-2,4.1241474E0,-1.7155111E0,4.1241474E0,8.639213E-1,2.1883054E0,2.6145644E0,-2.771096E-1,-1.065918E0,1.7109246E0,1.8591772E-1,3.5915777E-1,8.023063E-1,3.3068344E-2,-7.2581804E-1,9.576335E-1,7.239036E-2,-9.202213E-1,1.8817222E0,3.5915777E-1,6.539663E-1,1.2889899E-2,-2.0473847E-2,-4.0980574E-2,-9.652173E-3,4.584176E-2,-5.2079346E-2,-5.918019E-2,4.8455697E-2,2.3654148E-2,6.8815105E-2,2.5934562E-2,1.0971198E-2,-1.3870179E-2,4.8587095E-2,-1.1486656E-2,6.1620444E-2,7.280644E-2,-6.0483124E-2,-2.3763377E-2],"split_indices":[2,21,0,3,5,0,27,22,27,5,1,21,3,24,21,22,1,3,0,15,4,0,22,3,1,16,0,0,0,0,0,0,0,0,0,0,0,0,0,0,0,0,0,0,0],"split_type":[0,0,0,0,0,0,0,0,0,0,0,0,0,0,0,0,0,0,0,0,0,0,0,0,0,0,0,0,0,0,0,0,0,0,0,0,0,0,0,0,0,0,0,0,0],"sum_hessian":[2.9824521E4,2.1769324E4,8.0551973E3,2.018546E4,1.5838628E3,1.6545813E2,2.0020004E4,9.087951E2,6.7506775E2,1.8600967E4,1.4190355E3,2.6072824E2,6.480669E2,6.5598505E2,1.9082727E1,1.6363205E4,2.2377627E3,1.4178607E3,1.1748728E0,1.7303085E2,8.769737E1,1.6547756E1,6.315191E2,7.07351E1,5.8524994E2,1.805032E1,1.0324072E0,4.9925127E3,1.1370692E4,1.6727653E3,5.6499756E2,3.0177603E2,1.1160847E3,1.0841077E2,6.462009E1,8.5090485E1,2.6068916E0,2.8055988E2,3.5095926E2,5.2285152E1,1.844995E1,2.854205E2,2.998294E2,1.5765172E1,2.2851489E0],"tree_param":{"num_deleted":"0","num_feature":"30","num_nodes":"45","size_leaf_vector":"1"}},{"base_weights":[-1.5950962E-3,1.5426592E0,-5.1883566E-1,1.590368E0,6.941005E-2,-1.2432485E0,6.9407225E-2,1.6200477E0,7.101482E-2,-1.2649944E0,9.273354E-1,1.6558814E0,1.4572127E0,7.332007E-2,-1.2734995E0,-1.1586503E0,1.3333876E0,7.06098E-2,1.6622047E0,7.6154485E-2,6.988879E-2,-1.2786762E0,2.609321E-1,-3.771649E-1,-6.058055E-2,1.4108874E0,-5.2626157E-1,8.32536E-2,7.064523E-2,-6.4064614E-2,7.527473E-2,-4.0680747E-2,8.290059E-2,-3.4255277E-2,3.7929944E-3,1.0249629E-1,6.6496834E-2,1.4431126E-2,-4.924333E-2],"categories":[],"categories_nodes":[],"categories_segments":[],"categories_sizes":[],"default_left":[0,0,0,0,0,0,0,0,0,0,0,0,0,0,0,0,0,0,0,0,0,0,0,0,0,0,0,0,0,0,0,0,0,0,0,0,0,0,0],"id":14,"left_children":[1,3,5,7,-1,9,-1,11,-1,13,15,17,19,-1,21,23,25,-1,27,-1,-1,29,31,33,-1,35,37,-1,-1,-1,-1,-1,-1,-1,-1,-1,-1,-1,-1],"loss_changes":[2.3473062E4,5.1828125E1,3.041266E4,2.5793945E1,0E0,7.5425977E2,0E0,2.5180664E1,0E0,3.688164E2,1.3605325E2,3.3730469E0,9.9121094E-1,0E0,1.2552344E2,4.7541046E-1,2.0058975E1,0E0,6.1523438E-2,0E0,0E0,1.162207E2,8.2071815E1,5.6562877E-1,0E0,3.5779877E0,2.6014628E0,0E0,0E0,0E0,0E0,0E0,0E0,0E0,0E0,0E0,0E0,0E0,0E0],"parents":[2147483647,0,0,1,1,2,2,3,3,5,5,7,7,9,9,10,10,11,11,12,12,14,14,15,15,16,16,18,18,21,21,22,22,23,23,25,25,26,26],"right_children":[2,4,6,8,-1,10,-1,12,-1,14,16,18,20,-1,22,24,26,-1,28,-1,-1,30,32,34,-1,36,38,-1,-1,-1,-1,-1,-1,-1,-1,-1,-1,-1,-1],"split_conditions":[5.301596E-1,5.9184337E-1,5.9184337E-1,4.370128E0,6.941005E-2,1.4769702E0,6.9407225E-2,4.373993E-2,7.101482E-2,-2.771096E-1,8.639213E-1,-2.771096E-1,8.639213E-1,7.332007E-2,4.370128E0,-1.2785181E-1,4.1241474E0,7.06098E-2,3.2823484E0,7.6154485E-2,6.988879E-2,3.2823484E0,8.639213E-1,-3.2960206E-1,-6.058055E-2,1.7858823E-1,8.237643E-1,8.32536E-2,7.064523E-2,-6.4064614E-2,7.527473E-2,-4.0680747E-2,8.290059E-2,-3.4255277E-2,3.7929944E-3,1.0249629E-1,6.6496834E-2,1.4431126E-2,-4.924333E-2],"split_indices":[11,19,19,26,0,1,0,6,0,3,5,3,5,0,26,15,27,0,14,0,0,14,5,15,0,0,22,0,0,0,0,0,0,0,0,0,0,0,0],"split_type":[0,0,0,0,0,0,0,0,0,0,0,0,0,0,0,0,0,0,0,0,0,0,0,0,0,0,0,0,0,0,0,0,0,0,0,0,0,0,0],"sum_hessian":[2.9385334E4,7.3723984E3,2.2012936E4,5.6250093E3,1.747389E3,1.59531455E4,6.05979E3,4.781469E3,8.4354016E2,1.5795364E4,1.5778136E2,3.9110205E3,8.7044885E2,4.8463287E1,1.57469E4,2.5366735E1,1.3241461E2,1.0499267E2,3.8060278E3,4.0038016E2,4.700687E2,1.5694186E4,5.2714962E1,2.245281E0,2.3121454E1,1.27400375E2,5.0142446E0,3.7567415E3,4.928625E1,1.5680028E4,1.4157197E1,2.9992582E1,2.272238E1,1.163111E0,1.08217E0,1.1450411E1,1.1594996E2,1.8606678E0,3.1535766E0],"tree_param":{"num_deleted":"0","num_feature":"30","num_nodes":"39","size_leaf_vector":"1"}},{"base_weights":[-1.13232E-3,1.5017112E0,-5.088568E-1,1.545255E0,6.8105586E-2,-1.2245883E0,6.8101704E-2,1.5714564E0,6.956046E-2,-1.2426796E0,1.1706718E0,1.6035174E0,1.4256438E0,7.117732E-2,-1.2504212E0,-9.594426E-1,1.326377E0,6.915795E-2,8.045926E-2,7.423293E-2,6.852722E-2,-1.2561471E0,2.6611057E-1,3.4888627E-3,-5.6768216E-2,6.961345E-2,-4.7317803E-1,-6.294789E-2,7.312877E-2,-3.6123972E-2,8.0284E-2,9.387812E-3,-4.3682396E-2],"categories":[],"categories_nodes":[],"categories_segments":[],"categories_sizes":[],"default_left":[0,0,0,0,0,0,0,0,0,0,0,0,0,0,0,0,0,0,0,0,0,0,0,0,0,0,0,0,0,0,0,0,0],"id":15,"left_children":[1,3,5,7,-1,9,-1,11,-1,13,15,17,19,-1,21,23,25,-1,-1,-1,-1,27,29,-1,-1,-1,31,-1,-1,-1,-1,-1,-1],"loss_changes":[2.169271E4,4.124414E1,2.8457303E4,1.9573242E1,0E0,6.67541E2,0E0,1.9204102E1,0E0,3.1666406E2,3.9683487E1,2.2363281E0,4.4311523E-1,0E0,1.325332E2,1.709919E0,1.3590408E1,0E0,0E0,0E0,0E0,1.1763086E2,7.803256E1,0E0,0E0,0E0,1.4283402E0,0E0,0E0,0E0,0E0,0E0,0E0],"parents":[2147483647,0,0,1,1,2,2,3,3,5,5,7,7,9,9,10,10,11,11,12,12,14,14,15,15,16,16,21,21,22,22,26,26],"right_children":[2,4,6,8,-1,10,-1,12,-1,14,16,18,20,-1,22,24,26,-1,-1,-1,-1,28,30,-1,-1,-1,32,-1,-1,-1,-1,-1,-1],"split_conditions":[5.301596E-1,5.9184337E-1,5.9184337E-1,4.370128E0,6.8105586E-2,1.6802088E0,6.8101704E-2,4.373993E-2,6.956046E-2,-2.771096E-1,8.639213E-1,-2.771096E-1,8.639213E-1,7.117732E-2,4.370128E0,1.3280824E-1,4.1241474E0,6.915795E-2,8.045926E-2,7.423293E-2,6.852722E-2,3.2823484E0,8.639213E-1,3.4888627E-3,-5.6768216E-2,6.961345E-2,2.3730867E-1,-6.294789E-2,7.312877E-2,-3.6123972E-2,8.0284E-2,9.387812E-3,-4.3682396E-2],"split_indices":[11,19,19,26,0,1,0,6,0,3,5,3,5,0,26,15,27,0,0,0,0,14,5,0,0,0,24,0,0,0,0,0,0],"split_type":[0,0,0,0,0,0,0,0,0,0,0,0,0,0,0,0,0,0,0,0,0,0,0,0,0,0,0,0,0,0,0,0,0],"sum_hessian":[2.8427809E4,7.17827E3,2.124954E4,5.4633613E3,1.714909E3,1.5369973E4,5.879566E3,4.660763E3,8.0259796E2,1.5255272E4,1.1470008E2,3.8119226E3,8.488408E2,4.359949E1,1.5211674E4,7.417759E0,1.07282326E2,1.0217159E2,3.709751E3,3.9645416E2,4.5238666E2,1.5154691E4,5.698161E1,1.0879126E0,6.3298464E0,1.037648E2,3.517526E0,1.5139614E4,1.5077489E1,3.300801E1,2.3973598E1,1.4333625E0,2.0841634E0],"tree_param":{"num_deleted":"0","num_feature":"30","num_nodes":"33","size_leaf_vector":"1"}},{"base_weights":[-2.4773674E-3,1.4651914E0,-4.9938926E-1,1.504064E0,6.6909514E-2,-1.2049713E0,6.6914454E-2,1.5279522E0,6.8238474E-2,-1.2256185E0,8.9082533E-1,1.5570883E0,1.3966137E0,6.989376E-2,-1.2339343E0,-1.1016197E0,1.2679075E0,6.779622E-2,7.810746E-2,7.248642E-2,6.728827E-2,-1.2395095E0,2.5954336E-1,-6.0121287E-2,-3.1963882E-1,1.345438E0,-3.021057E-1,-6.2078085E-2,4.400755E-2,-3.2869954E-2,7.686303E-2,5.610544E-3,-3.60454E-2,1.0129585E-1,6.2495776E-2,2.4946308E-2,-4.767355E-2],"categories":[],"categories_nodes":[],"categories_segments":[],"categories_sizes":[],"default_left":[0,0,0,0,0,0,0,0,0,0,0,0,0,0,0,0,0,0,0,0,0,0,0,0,0,0,0,0,0,0,0,0,0,0,0,0,0],"id":16,"left_children":[1,3,5,7,-1,9,-1,11,-1,13,15,17,19,-1,21,23,25,-1,-1,-1,-1,27,29,-1,31,33,35,-1,-1,-1,-1,-1,-1,-1,-1,-1,-1],"loss_changes":[2.006457E4,3.205664E1,2.6651809E4,1.5325195E1,0E0,6.438008E2,0E0,1.487207E1,0E0,3.2256836E2,1.1067013E2,1.3564453E0,1.940918E-2,0E0,1.225E2,1.3265495E0,1.5456741E1,0E0,0E0,0E0,0E0,6.466406E1,6.58745E1,0E0,8.6510825E-1,4.761673E0,3.9303813E0,0E0,0E0,0E0,0E0,0E0,0E0,0E0,0E0,0E0,0E0],"parents":[2147483647,0,0,1,1,2,2,3,3,5,5,7,7,9,9,10,10,11,11,12,12,14,14,15,15,16,16,21,21,22,22,24,24,25,25,26,26],"right_children":[2,4,6,8,-1,10,-1,12,-1,14,16,18,20,-1,22,24,26,-1,-1,-1,-1,28,30,-1,32,34,36,-1,-1,-1,-1,-1,-1,-1,-1,-1,-1],"split_conditions":[5.301596E-1,-1.1752159E-1,-1.1752159E-1,4.370128E0,6.6909514E-2,1.4769702E0,6.6914454E-2,4.373993E-2,6.8238474E-2,-2.771096E-1,8.639213E-1,-2.771096E-1,8.639213E-1,6.989376E-2,4.370128E0,4.444422E0,4.1241474E0,6.779622E-2,7.810746E-2,7.248642E-2,6.728827E-2,1.482091E0,8.639213E-1,-6.0121287E-2,3.4364325E-1,1.7858823E-1,8.237643E-1,-6.2078085E-2,4.400755E-2,-3.2869954E-2,7.686303E-2,5.610544E-3,-3.60454E-2,1.0129585E-1,6.2495776E-2,2.4946308E-2,-4.767355E-2],"split_indices":[11,2,2,26,0,1,0,6,0,3,5,3,5,0,26,24,27,0,0,0,0,6,5,0,0,0,22,0,0,0,0,0,0,0,0,0,0],"split_type":[0,0,0,0,0,0,0,0,0,0,0,0,0,0,0,0,0,0,0,0,0,0,0,0,0,0,0,0,0,0,0,0,0,0,0,0,0],"sum_hessian":[2.7510146E4,6.957745E3,2.05524E4,5.318287E3,1.639458E3,1.4850794E4,5.7016074E3,4.530624E3,7.876629E2,1.4706373E4,1.4442058E2,3.6985278E3,8.3209625E2,4.5901657E1,1.4660472E4,2.2634851E1,1.2178573E2,9.7850525E1,3.6006772E3,3.9256082E2,4.3953543E2,1.4606183E4,5.4288754E1,1.9460615E1,3.174235E0,1.1625172E2,5.534014E0,1.4592517E4,1.3666315E1,3.1843658E1,2.2445097E1,1.7557889E0,1.4184462E0,1.1693612E1,1.04558105E2,2.517978E0,3.0160363E0],"tree_param":{"num_deleted":"0","num_feature":"30","num_nodes":"37","size_leaf_vector":"1"}},{"base_weights":[-2.0437303E-3,1.4324636E0,-4.9247003E-1,1.4676342E0,6.581147E-2,-1.1867558E0,6.580686E-2,1.4894423E0,6.7032106E-2,-1.2103975E0,6.697871E-1,1.5150203E0,6.84779E-2,6.843208E-2,-1.21869E0,-1.1269608E0,1.1982756E0,6.661495E-2,7.598541E-2,-1.2236109E0,1.2889197E-1,-5.806426E-2,-4.770855E-1,1.3454276E0,-7.375808E-1,-6.1287083E-2,4.5095086E-2,-4.417603E-2,7.443814E-2,-5.0628505E-4,-3.6155034E-2,1.16422154E-1,5.6729287E-2,-0E0,-5.3816747E-2],"categories":[],"categories_nodes":[],"categories_segments":[],"categories_sizes":[],"default_left":[0,0,0,0,0,0,0,0,0,0,0,0,0,0,0,0,0,0,0,0,0,0,0,0,0,0,0,0,0,0,0,0,0,0,0],"id":17,"left_children":[1,3,5,7,-1,9,-1,11,-1,13,15,17,-1,-1,19,21,23,-1,-1,25,27,-1,29,31,33,-1,-1,-1,-1,-1,-1,-1,-1,-1,-1],"loss_changes":[1.8728553E4,2.5516602E1,2.4913082E4,1.2114258E1,0E0,6.301094E2,0E0,1.1208008E1,0E0,3.0441602E2,1.7309225E2,8.066406E-1,0E0,0E0,9.38457E1,2.0959091E-1,4.1013702E1,0E0,0E0,6.482031E1,7.320514E1,0E0,3.707512E-1,2.41156E1,2.5393639E0,0E0,0E0,0E0,0E0,0E0,0E0,0E0,0E0,0E0,0E0],"parents":[2147483647,0,0,1,1,2,2,3,3,5,5,7,7,9,9,10,10,11,11,14,14,15,15,16,16,19,19,20,20,22,22,23,23,24,24],"right_children":[2,4,6,8,-1,10,-1,12,-1,14,16,18,-1,-1,20,22,24,-1,-1,26,28,-1,30,32,34,-1,-1,-1,-1,-1,-1,-1,-1,-1,-1],"split_conditions":[5.301596E-1,-1.1752159E-1,-1.1752159E-1,4.370128E0,6.581147E-2,1.2737315E0,6.580686E-2,4.373993E-2,6.7032106E-2,-2.771096E-1,8.639213E-1,-2.771096E-1,6.84779E-2,6.843208E-2,4.370128E0,4.444422E0,4.1241474E0,6.661495E-2,7.598541E-2,1.482091E0,8.639213E-1,-5.806426E-2,3.4364325E-1,1.7858823E-1,8.237643E-1,-6.1287083E-2,4.5095086E-2,-4.417603E-2,7.443814E-2,-5.0628505E-4,-3.6155034E-2,1.16422154E-1,5.6729287E-2,-0E0,-5.3816747E-2],"split_indices":[11,2,2,26,0,1,0,6,0,3,5,3,0,0,26,24,27,0,0,6,5,0,0,0,22,0,0,0,0,0,0,0,0,0,0],"split_type":[0,0,0,0,0,0,0,0,0,0,0,0,0,0,0,0,0,0,0,0,0,0,0,0,0,0,0,0,0,0,0,0,0,0,0],"sum_hessian":[2.6619336E4,6.781418E3,1.9837918E4,5.1965464E3,1.5848718E3,1.4335301E4,5.502617E3,4.425111E3,7.714355E2,1.4155443E4,1.7985703E2,3.6367273E3,7.883835E2,4.4805046E1,1.4110639E4,4.0578197E1,1.3927882E2,9.8637276E1,3.5380898E3,1.4059465E4,5.117305E1,3.764889E1,2.929309E0,1.2977107E2,9.507752E0,1.40458545E4,1.3610406E1,2.9492718E1,2.168033E1,1.5102847E0,1.4190241E0,2.1060793E1,1.0871028E2,3.3814094E0,6.1263433E0],"tree_param":{"num_deleted":"0","num_feature":"30","num_nodes":"35","size_leaf_vector":"1"}},{"base_weights":[-4.4778497E-3,1.4028345E0,-4.8735783E-1,1.4349455E0,6.4800605E-2,-1.1718684E0,6.482368E-2,1.4543945E0,6.591706E-2,-1.1870421E0,1.0078142E0,1.4778738E0,6.7263514E-2,6.7215696E-2,-1.1948509E0,3.0944586E-1,1.2925361E0,6.541108E-2,7.409181E-2,-1.197786E0,7.284978E-2,7.301176E-1,-8.754161E-1,2.6081456E-3,6.5549426E-2,-6.015547E-2,1.2160114E-2,4.8357528E-2,-1.1716721E-2,-4.8860144E-2,-7.3450655E-3],"categories":[],"categories_nodes":[],"categories_segments":[],"categories_sizes":[],"default_left":[0,0,0,0,0,0,0,0,0,0,0,0,0,0,0,0,0,0,0,0,0,0,0,0,0,0,0,0,0,0,0],"id":18,"left_children":[1,3,5,7,-1,9,-1,11,-1,13,15,17,-1,-1,19,21,23,-1,-1,25,-1,27,29,-1,-1,-1,-1,-1,-1,-1,-1],"loss_changes":[1.7491426E4,2.0421875E1,2.3401586E4,9.24707E0,0E0,4.592871E2,0E0,8.78418E0,0E0,2.7347852E2,1.8577156E1,1.6113281E-1,0E0,0E0,1.0845508E2,1.5224241E1,1.3506165E0,0E0,0E0,1.054668E2,0E0,5.38041E0,3.4223318E-1,0E0,0E0,0E0,0E0,0E0,0E0,0E0,0E0],"parents":[2147483647,0,0,1,1,2,2,3,3,5,5,7,7,9,9,10,10,11,11,14,14,15,15,16,16,19,19,21,21,22,22],"right_children":[2,4,6,8,-1,10,-1,12,-1,14,16,18,-1,-1,20,22,24,-1,-1,26,-1,28,30,-1,-1,-1,-1,-1,-1,-1,-1],"split_conditions":[5.301596E-1,-1.1752159E-1,-1.1752159E-1,4.370128E0,6.4800605E-2,2.7290538E-1,6.482368E-2,4.373993E-2,6.591706E-2,-2.771096E-1,4.143811E-1,-2.771096E-1,6.7263514E-2,6.7215696E-2,3.2823484E0,1.6070664E0,7.746323E-1,6.541108E-2,7.409181E-2,4.370128E0,7.284978E-2,1.8817222E0,1.316922E0,2.6081456E-3,6.5549426E-2,-6.015547E-2,1.2160114E-2,4.8357528E-2,-1.1716721E-2,-4.8860144E-2,-7.3450655E-3],"split_indices":[11,2,2,26,0,0,0,6,0,3,0,3,0,0,14,24,16,0,0,26,0,3,16,0,0,0,0,0,0,0,0],"split_type":[0,0,0,0,0,0,0,0,0,0,0,0,0,0,0,0,0,0,0,0,0,0,0,0,0,0,0,0,0,0,0],"sum_hessian":[2.5737355E4,6.574481E3,1.9162875E4,5.044678E3,1.5298026E3,1.3848992E4,5.313883E3,4.3129688E3,7.317097E2,1.3753747E4,9.524443E1,3.538219E3,7.747495E2,4.1731594E1,1.3712016E4,2.8290735E1,6.69537E1,8.8885414E1,3.4493337E3,1.3697441E4,1.4574291E1,2.1223696E1,7.0670385E0,1.11697E0,6.583672E1,1.364726E4,5.0181957E1,1.71176E1,4.106097E0,5.780736E0,1.2863026E0],"tree_param":{"num_deleted":"0","num_feature":"30","num_nodes":"31","size_leaf_vector":"1"}},{"base_weights":[-2.8171022E-3,1.3756273E0,-4.8110974E-1,1.4049486E0,6.386819E-2,-1.1565968E0,6.387159E-2,1.4226241E0,6.4894915E-2,-1.1797222E0,6.2527406E-1,7.219255E-2,6.618658E-2,-1.1858263E0,2.1459328E-1,1.1821783E0,-4.1802195E-1,-1.1883779E0,7.1023434E-2,-4.1219676E-1,1.3096654E0,1.2297999E0,-8.078994E-2,-9.746568E-1,6.392825E-2,-5.9518408E-2,4.1412733E-2,-2.6326627E-2,4.5875836E-2,1.0915308E-2,7.445704E-2,4.9338896E-2,6.796991E-2,-2.7468324E-2,2.4207998E-2,-1.068879E-2,-5.306516E-2],"categories":[],"categories_nodes":[],"categories_segments":[],"categories_sizes":[],"default_left":[0,0,0,0,0,0,0,0,0,0,0,0,0,0,0,0,0,0,0,0,0,0,0,0,0,0,0,0,0,0,0,0,0,0,0,0,0],"id":19,"left_children":[1,3,5,7,-1,9,-1,11,-1,13,15,-1,-1,17,19,21,23,25,-1,27,29,31,33,35,-1,-1,-1,-1,-1,-1,-1,-1,-1,-1,-1,-1,-1],"loss_changes":[1.6371572E4,1.6368164E1,2.1900223E4,7.182617E0,0E0,5.4965234E2,0E0,6.6445312E0,0E0,1.1226953E2,1.00069214E2,0E0,0E0,8.873047E1,4.0502296E1,6.9489136E0,5.813801E1,5.351953E1,0E0,6.1676993E0,3.7044067E0,1.826828E0,1.5777853E0,2.6780357E0,0E0,0E0,0E0,0E0,0E0,0E0,0E0,0E0,0E0,0E0,0E0,0E0,0E0],"parents":[2147483647,0,0,1,1,2,2,3,3,5,5,7,7,9,9,10,10,13,13,14,14,15,15,16,16,17,17,19,19,20,20,21,21,22,22,23,23],"right_children":[2,4,6,8,-1,10,-1,12,-1,14,16,-1,-1,18,20,22,24,26,-1,28,30,32,34,36,-1,-1,-1,-1,-1,-1,-1,-1,-1,-1,-1,-1,-1],"split_conditions":[5.301596E-1,-1.1752159E-1,-1.1752159E-1,4.370128E0,6.386819E-2,1.2737315E0,6.387159E-2,4.373993E-2,6.4894915E-2,4.370128E0,1.2157071E0,7.219255E-2,6.618658E-2,3.2823484E0,9.576335E-1,4.1241474E0,2.2899246E0,1.482091E0,7.1023434E-2,2.5753847E-1,-2.5055808E-1,4.373993E-2,1.6802088E0,1.3135469E0,6.392825E-2,-5.9518408E-2,4.1412733E-2,-2.6326627E-2,4.5875836E-2,1.0915308E-2,7.445704E-2,4.9338896E-2,6.796991E-2,-2.7468324E-2,2.4207998E-2,-1.068879E-2,-5.306516E-2],"split_indices":[11,2,2,26,0,1,0,6,0,26,24,0,0,14,4,27,1,6,0,1,1,6,1,24,0,0,0,0,0,0,0,0,0,0,0,0,0],"split_type":[0,0,0,0,0,0,0,0,0,0,0,0,0,0,0,0,0,0,0,0,0,0,0,0,0,0,0,0,0,0,0,0,0,0,0,0,0],"sum_hessian":[2.4829889E4,6.3956045E3,1.8434283E4,4.914752E3,1.4808527E3,1.3318725E4,5.115559E3,4.2069116E3,7.0784045E2,1.3148476E4,1.7024937E2,3.451457E3,7.554546E2,1.3091384E4,5.7091286E1,1.10974625E2,5.9274757E1,1.3079162E4,1.2222071E1,3.6647507E1,2.044378E1,1.0704386E2,3.9307659E0,4.4996326E1,1.4278428E1,1.3066726E4,1.2436413E1,3.4371307E1,2.2761974E0,3.2788959E0,1.7164885E1,4.0494534E1,6.6549324E1,2.2604835E0,1.6702826E0,5.072628E0,3.99237E1],"tree_param":{"num_deleted":"0","num_feature":"30","num_nodes":"37","size_leaf_vector":"1"}},{"base_weights":[-3.8315954E-3,-4.5830375E-1,6.301129E-2,-5.317578E-1,1.2014881E0,-6.135851E-1,5.39138E-1,6.1319835E-2,1.0461111E0,6.491443E-2,-6.279551E-1,2.047321E-1,1.0248493E0,-4.7880262E-2,5.6397606E-2,-6.414607E-1,4.1828245E-1,7.475798E-1,-6.4240746E-2,2.7451456E-1,1.1240788E0,2.8263513E-2,-3.2523412E-2,4.093538E-2,-3.6425438E-2,3.0038714E-2,6.454346E-2,-8.442195E-3,5.2628107E-2,4.336232E-2,-1.0611919E-2,4.9122673E-2,6.445548E-2],"categories":[],"categories_nodes":[],"categories_segments":[],"categories_sizes":[],"default_left":[0,0,0,0,0,0,0,0,0,0,0,0,0,0,0,0,0,0,0,0,0,0,0,0,0,0,0,0,0,0,0,0,0],"id":20,"left_children":[1,3,-1,5,7,9,11,-1,13,-1,15,17,19,-1,-1,21,23,25,27,29,31,-1,-1,-1,-1,-1,-1,-1,-1,-1,-1,-1,-1],"loss_changes":[1.3794391E4,2.1539053E3,0E0,1.4825171E3,1.3876953E0,4.3247266E2,1.9476016E2,0E0,1.9267982E1,0E0,2.2068799E2,1.0418378E2,3.598944E1,0E0,0E0,1.677622E2,9.2120995E1,1.7885788E1,5.585847E1,1.7157095E1,8.59845E0,0E0,0E0,0E0,0E0,0E0,0E0,0E0,0E0,0E0,0E0,0E0,0E0],"parents":[2147483647,0,0,1,1,3,3,4,4,5,5,6,6,8,8,10,10,11,11,12,12,15,15,16,16,17,17,18,18,19,19,20,20],"right_children":[2,4,-1,6,8,10,12,-1,14,-1,16,18,20,-1,-1,22,24,26,28,30,32,-1,-1,-1,-1,-1,-1,-1,-1,-1,-1,-1,-1],"split_conditions":[-1.1752159E-1,4.370128E0,6.301129E-2,-2.0308399E-1,4.0660727E-1,-2.771096E-1,8.023063E-1,6.1319835E-2,-3.5217738E-1,6.491443E-2,1.1721122E0,-1.5015498E0,-1.065918E0,-4.7880262E-2,5.6397606E-2,-9.202213E-1,3.1333678E0,-3.5217738E-1,4.6077707E-1,2.7363935E-1,4.6077707E-1,2.8263513E-2,-3.2523412E-2,4.093538E-2,-3.6425438E-2,3.0038714E-2,6.454346E-2,-8.442195E-3,5.2628107E-2,4.336232E-2,-1.0611919E-2,4.9122673E-2,6.445548E-2],"split_indices":[2,26,0,21,22,3,3,0,1,0,1,22,24,0,0,22,24,1,1,21,1,0,0,0,0,0,0,0,0,0,0,0,0],"split_type":[0,0,0,0,0,0,0,0,0,0,0,0,0,0,0,0,0,0,0,0,0,0,0,0,0,0,0,0,0,0,0,0,0],"sum_hessian":[2.401014E4,1.7661088E4,6.3490527E3,1.6913328E4,7.477587E2,1.57132E4,1.2001284E3,6.379517E2,1.09807E2,1.16503494E2,1.5596697E4,7.1173535E2,4.8839307E2,3.8411565E0,1.0596584E2,1.5398405E4,1.9829167E2,2.3534619E2,4.7638916E2,5.7602123E1,4.3079095E2,1.13548416E2,1.5284856E4,1.4724976E2,5.1041912E1,1.8708316E2,4.8263023E1,4.3644843E2,3.9940727E1,2.5713665E1,3.1888458E1,2.3590358E2,1.9488737E2],"tree_param":{"num_deleted":"0","num_feature":"30","num_nodes":"33","size_leaf_vector":"1"}},{"base_weights":[-1.7143388E-3,1.3529869E0,-4.8180294E-1,1.3837137E0,6.2207293E-2,-1.1343075E0,6.2200136E-2,1.402946E0,6.312404E-2,-1.1573511E0,6.0340637E-1,1.4252958E0,6.4650945E-2,6.578349E-2,-1.1655524E0,1.1190642E0,-3.5290763E-1,6.2433477E-2,7.146795E-2,-1.1707705E0,1.6741493E-1,1.0979863E-1,8.813447E-1,-9.026663E-1,6.1698E-2,-5.8662254E-2,6.914926E-2,-2.7700916E-2,6.6529915E-2,-4.478424E-2,5.624495E-2,6.221647E-2,-5.3623725E-2],"categories":[],"categories_nodes":[],"categories_segments":[],"categories_sizes":[],"default_left":[0,0,0,0,0,0,0,0,0,0,0,0,0,0,0,0,0,0,0,0,0,0,0,0,0,0,0,0,0,0,0,0,0],"id":21,"left_children":[1,3,5,7,-1,9,-1,11,-1,13,15,17,-1,-1,19,21,23,-1,-1,25,27,-1,29,31,-1,-1,-1,-1,-1,-1,-1,-1,-1],"loss_changes":[1.5279087E4,1.8573242E1,1.9534398E4,9.1171875E0,0E0,5.0479492E2,0E0,8.006348E0,0E0,2.5348242E2,8.2004166E1,3.9648438E-1,0E0,0E0,8.642383E1,2.5334442E1,5.2214092E1,0E0,0E0,7.9546875E1,4.200502E1,0E0,3.997892E1,1.7415543E1,0E0,0E0,0E0,0E0,0E0,0E0,0E0,0E0,0E0],"parents":[2147483647,0,0,1,1,2,2,3,3,5,5,7,7,9,9,10,10,11,11,14,14,15,15,16,16,19,19,20,20,22,22,23,23],"right_children":[2,4,6,8,-1,10,-1,12,-1,14,16,18,-1,-1,20,22,24,-1,-1,26,28,-1,30,32,-1,-1,-1,-1,-1,-1,-1,-1,-1],"split_conditions":[5.301596E-1,-1.1752159E-1,-1.1752159E-1,4.370128E0,6.2207293E-2,1.2737315E0,6.2200136E-2,4.373993E-2,6.312404E-2,-2.771096E-1,1.2157071E0,-2.771096E-1,6.4650945E-2,6.578349E-2,4.370128E0,1.7858823E-1,2.2899246E0,6.2433477E-2,7.146795E-2,3.2823484E0,9.576335E-1,1.0979863E-1,1.6802088E0,1.7858823E-1,6.1698E-2,-5.8662254E-2,6.914926E-2,-2.7700916E-2,6.6529915E-2,-4.478424E-2,5.624495E-2,6.221647E-2,-5.3623725E-2],"split_indices":[11,2,2,26,0,1,0,6,0,3,24,3,0,0,26,0,1,0,0,14,4,0,1,0,0,0,0,0,0,0,0,0,0],"split_type":[0,0,0,0,0,0,0,0,0,0,0,0,0,0,0,0,0,0,0,0,0,0,0,0,0,0,0,0,0,0,0,0,0],"sum_hessian":[2.3490807E4,6.1460415E3,1.7344764E4,4.7831016E3,1.3629398E3,1.2586408E4,4.7583555E3,4.118369E3,6.6473267E2,1.2422072E4,1.6433669E2,3.4118186E3,7.065504E2,4.0491688E1,1.238158E4,1.06724E2,5.7612682E1,8.420661E1,3.327612E3,1.2333495E4,4.808507E1,1.7732866E1,8.8991135E1,4.315584E1,1.4456842E1,1.2322136E4,1.1359863E1,2.9948223E1,1.8136848E1,1.0354456E1,7.863668E1,2.656113E0,4.049973E1],"tree_param":{"num_deleted":"0","num_feature":"30","num_nodes":"33","size_leaf_vector":"1"}},{"base_weights":[-3.6182634E-3,-4.3792546E-1,6.1480474E-2,-5.071428E-1,1.1666223E0,-5.8629245E-1,5.207712E-1,1.1970325E0,1.0406669E0,-5.525917E-1,-1.0410017E0,1.2883058E-1,1.0405266E0,1.7495442E-2,5.9924062E-2,-4.425951E-1,1.0967925E0,-6.343902E-1,4.364597E-2,-1.0446974E0,1.19982764E-1,8.619316E-1,-9.796582E-2,1.1010015E0,-7.91086E-1,-4.401783E-2,1.0066333E-1,8.387525E-1,1.1395439E0,-2.4782743E-2,-3.6785405E-2,-1.1193487E-2,4.0266227E-2,-5.339061E-2,-4.32494E-2,3.6267575E-2,-2.8913258E-2,3.556375E-2,5.87005E-2,6.5535875E-3,-1.3922329E-2,3.97281E-2,6.181338E-2,-5.295048E-2,4.617317E-2,2.3431145E-2,-1.5997706E-2,5.9623923E-2,-5.8282472E-2,6.029729E-2,4.7167175E-2],"categories":[],"categories_nodes":[],"categories_segments":[],"categories_sizes":[],"default_left":[0,0,0,0,0,0,0,0,0,0,0,0,0,0,0,0,0,0,0,0,0,0,0,0,0,0,0,0,0,0,0,0,0,0,0,0,0,0,0,0,0,0,0,0,0,0,0,0,0,0,0],"id":22,"left_children":[1,3,-1,5,7,9,11,13,15,17,19,21,23,-1,-1,25,27,29,31,33,35,37,39,41,43,-1,45,47,49,-1,-1,-1,-1,-1,-1,-1,-1,-1,-1,-1,-1,-1,-1,-1,-1,-1,-1,-1,-1,-1,-1],"loss_changes":[1.2117677E4,1.8588391E3,0E0,1.3053892E3,1.1817017E0,2.275122E2,2.334672E2,1.0107422E-1,1.2448181E1,6.765088E2,4.6219482E0,1.0911708E2,5.5506897E1,0E0,0E0,1.559741E0,3.69339E-1,1.7094727E2,3.413302E2,3.1339111E0,2.1537611E0,6.2658463E0,2.0772532E1,1.8615173E1,8.472523E0,0E0,6.9249463E-1,1.822643E1,1.4974976E-1,0E0,0E0,0E0,0E0,0E0,0E0,0E0,0E0,0E0,0E0,0E0,0E0,0E0,0E0,0E0,0E0,0E0,0E0,0E0,0E0,0E0,0E0],"parents":[2147483647,0,0,1,1,3,3,4,4,5,5,6,6,7,7,8,8,9,9,10,10,11,11,12,12,15,15,16,16,17,17,18,18,19,19,20,20,21,21,22,22,23,23,24,24,26,26,27,27,28,28],"right_children":[2,4,-1,6,8,10,12,14,16,18,20,22,24,-1,-1,26,28,30,32,34,36,38,40,42,44,-1,46,48,50,-1,-1,-1,-1,-1,-1,-1,-1,-1,-1,-1,-1,-1,-1,-1,-1,-1,-1,-1,-1,-1,-1],"split_conditions":[-1.1752159E-1,4.370128E0,6.1480474E-2,-2.0308399E-1,3.0299082E-1,4.1241474E0,8.639213E-1,-4.1296396E0,-4.5379668E-1,8.639213E-1,1.8834474E0,-1.8985219E0,4.1241474E0,1.7495442E-2,5.9924062E-2,-5.611239E-1,-3.5217738E-1,-2.2225966E-1,3.5915777E-1,3.6645725E-1,1.115655E0,2.991674E0,-9.632827E-1,3.7115556E-1,9.688736E-1,-4.401783E-2,-3.420653E-2,-2.2225966E-1,7.510983E-1,-2.4782743E-2,-3.6785405E-2,-1.1193487E-2,4.0266227E-2,-5.339061E-2,-4.32494E-2,3.6267575E-2,-2.8913258E-2,3.556375E-2,5.87005E-2,6.5535875E-3,-1.3922329E-2,3.97281E-2,6.181338E-2,-5.295048E-2,4.617317E-2,2.3431145E-2,-1.5997706E-2,5.9623923E-2,-5.8282472E-2,6.029729E-2,4.7167175E-2],"split_indices":[2,26,0,21,22,27,5,22,1,5,1,22,27,0,0,15,1,0,1,24,16,21,22,16,1,0,16,0,22,0,0,0,0,0,0,0,0,0,0,0,0,0,0,0,0,0,0,0,0,0,0],"split_type":[0,0,0,0,0,0,0,0,0,0,0,0,0,0,0,0,0,0,0,0,0,0,0,0,0,0,0,0,0,0,0,0,0,0,0,0,0,0,0,0,0,0,0,0,0,0,0,0,0,0,0],"sum_hessian":[2.2622645E4,1.6731145E4,5.8915E3,1.6039956E4,6.9118854E2,1.4893666E4,1.1462902E3,5.4927576E2,1.419128E2,1.3868256E4,1.0254105E3,6.54318E2,4.9197223E2,1.4696422E0,5.4780615E2,4.858068E0,1.3705472E2,1.2195276E4,1.6729795E3,1.02234235E3,3.068175E0,1.540392E2,5.002788E2,4.7668677E2,1.528544E1,2.4485621E0,2.4095058E0,2.2742626E1,1.14312096E2,5.1500957E3,7.0451807E3,1.2385519E3,4.3442767E2,9.0096014E2,1.2138223E2,1.699306E0,1.3688692E0,1.0631496E2,4.7724247E1,2.203567E2,2.799221E2,1.4830997E2,3.283768E2,1.3600782E1,1.684658E0,1.3511358E0,1.05837E0,1.9717882E1,3.024744E0,8.118101E1,3.313109E1],"tree_param":{"num_deleted":"0","num_feature":"30","num_nodes":"51","size_leaf_vector":"1"}},{"base_weights":[-3.2020886E-3,1.3321053E0,-4.858426E-1,1.3636193E0,6.0778465E-2,-1.1158501E0,6.0769983E-2,1.3834566E0,6.1598547E-2,-1.1389035E0,5.70082E-1,1.4057338E0,6.341996E-2,6.490912E-2,-1.1472795E0,-1.056903E0,1.0472816E0,6.1977047E-2,7.0474595E-2,-1.149491E0,6.892746E-2,-5.485728E-2,-3.1515738E-1,1.1892734E0,-6.35932E-1,-5.7716053E-2,-1.1013923E-4,1.0791271E-2,-3.393442E-2,9.886319E-2,5.0691087E-2,1.11327795E-2,-4.7437645E-2],"categories":[],"categories_nodes":[],"categories_segments":[],"categories_sizes":[],"default_left":[0,0,0,0,0,0,0,0,0,0,0,0,0,0,0,0,0,0,0,0,0,0,0,0,0,0,0,0,0,0,0,0,0],"id":23,"left_children":[1,3,5,7,-1,9,-1,11,-1,13,15,17,-1,-1,19,21,23,-1,-1,25,-1,-1,27,29,31,-1,-1,-1,-1,-1,-1,-1,-1],"loss_changes":[1.4280142E4,1.96875E1,1.7445229E4,1.0103516E1,0E0,4.6234766E2,0E0,8.22168E0,0E0,2.4066797E2,1.259747E2,7.861328E-2,0E0,0E0,6.679492E1,6.1518097E-1,3.0664658E1,0E0,0E0,6.454199E1,0E0,0E0,8.550651E-1,1.3677475E1,3.0540056E0,0E0,0E0,0E0,0E0,0E0,0E0,0E0,0E0],"parents":[2147483647,0,0,1,1,2,2,3,3,5,5,7,7,9,9,10,10,11,11,14,14,15,15,16,16,19,19,22,22,23,23,24,24],"right_children":[2,4,6,8,-1,10,-1,12,-1,14,16,18,-1,-1,20,22,24,-1,-1,26,-1,-1,28,30,32,-1,-1,-1,-1,-1,-1,-1,-1],"split_conditions":[5.301596E-1,-1.1752159E-1,-1.1752159E-1,4.370128E0,6.0778465E-2,1.2737315E0,6.0769983E-2,-2.0308399E-1,6.1598547E-2,-2.771096E-1,8.639213E-1,-2.771096E-1,6.341996E-2,6.490912E-2,3.2823484E0,4.444422E0,4.1241474E0,6.1977047E-2,7.0474595E-2,4.370128E0,6.892746E-2,-5.485728E-2,5.853847E-1,1.7858823E-1,2.3730867E-1,-5.7716053E-2,-1.1013923E-4,1.0791271E-2,-3.393442E-2,9.886319E-2,5.0691087E-2,1.11327795E-2,-4.7437645E-2],"split_indices":[11,2,2,26,0,1,0,21,0,3,5,3,0,0,14,24,27,0,0,26,0,0,16,0,24,0,0,0,0,0,0,0,0],"split_type":[0,0,0,0,0,0,0,0,0,0,0,0,0,0,0,0,0,0,0,0,0,0,0,0,0,0,0,0,0,0,0,0,0],"sum_hessian":[2.2155973E4,5.881588E3,1.6274385E4,4.6205303E3,1.2610579E3,1.1876615E4,4.39777E3,4.0065413E3,6.1398895E2,1.1716783E4,1.5983119E2,3.346507E3,6.6003424E2,3.9562805E1,1.1677221E4,3.5924454E1,1.23906746E2,8.190326E1,3.2646038E3,1.166759E4,9.631089E0,3.3493355E1,2.4310994E0,1.14592834E2,9.313906E0,1.1618582E4,4.9007984E1,1.0413316E0,1.3897676E0,1.8894426E1,9.569841E1,2.4788525E0,6.835053E0],"tree_param":{"num_deleted":"0","num_feature":"30","num_nodes":"33","size_leaf_vector":"1"}},{"base_weights":[-2.6060902E-3,1.3106726E0,-4.7941828E-1,1.3396127E0,6.013825E-2,-1.1035455E0,6.0129333E-2,1.3577279E0,6.0891863E-2,-1.1227229E0,7.43317E-1,6.891249E-2,6.263382E-2,6.3680075E-2,-1.1306401E0,-5.3973645E-2,1.0807648E0,-1.136389E0,1.2399154E-1,1.1827023E0,5.53874E-1,-5.694846E-2,6.448595E-2,-3.3682194E-2,6.817033E-2,6.38043E-2,1.7917987E-2,-3.285482E-2,6.0852725E-2],"categories":[],"categories_nodes":[],"categories_segments":[],"categories_sizes":[],"default_left":[0,0,0,0,0,0,0,0,0,0,0,0,0,0,0,0,0,0,0,0,0,0,0,0,0,0,0,0,0],"id":24,"left_children":[1,3,5,7,-1,9,-1,11,-1,13,15,-1,-1,-1,17,-1,19,21,23,25,27,-1,-1,-1,-1,-1,-1,-1,-1],"loss_changes":[1.337543E4,1.5902344E1,1.6452227E4,7.9648438E0,0E0,4.0570508E2,0E0,6.3911133E0,0E0,2.1606445E2,7.375831E1,0E0,0E0,0E0,8.157715E1,0E0,4.549095E0,7.17207E1,5.2648186E1,5.757538E0,1.5529148E1,0E0,0E0,0E0,0E0,0E0,0E0,0E0,0E0],"parents":[2147483647,0,0,1,1,2,2,3,3,5,5,7,7,9,9,10,10,14,14,16,16,17,17,18,18,19,19,20,20],"right_children":[2,4,6,8,-1,10,-1,12,-1,14,16,-1,-1,-1,18,-1,20,22,24,26,28,-1,-1,-1,-1,-1,-1,-1,-1],"split_conditions":[5.301596E-1,-1.1752159E-1,-1.1752159E-1,4.370128E0,6.013825E-2,1.4769702E0,6.0129333E-2,4.373993E-2,6.0891863E-2,-2.771096E-1,8.639213E-1,6.891249E-2,6.263382E-2,6.3680075E-2,4.370128E0,-5.3973645E-2,1.4113867E0,3.2823484E0,8.639213E-1,1.8817222E0,2.2899246E0,-5.694846E-2,6.448595E-2,-3.3682194E-2,6.817033E-2,6.38043E-2,1.7917987E-2,-3.285482E-2,6.0852725E-2],"split_indices":[11,2,2,26,0,1,0,6,0,3,5,0,0,0,26,0,24,14,5,3,1,0,0,0,0,0,0,0,0],"split_type":[0,0,0,0,0,0,0,0,0,0,0,0,0,0,0,0,0,0,0,0,0,0,0,0,0,0,0,0,0],"sum_hessian":[2.1358242E4,5.6885024E3,1.5669739E4,4.475787E3,1.2127151E3,1.1429205E4,4.2405347E3,3.886642E3,5.891451E2,1.1312188E4,1.17016464E2,3.2405322E3,6.4610986E2,3.668369E1,1.1275505E4,1.78892E1,9.9127266E1,1.1224248E4,5.1256416E1,8.1856094E1,1.7271173E1,1.1212895E4,1.1353198E1,3.1414906E1,1.9841513E1,7.292558E1,8.930511E0,6.0614057E0,1.1209767E1],"tree_param":{"num_deleted":"0","num_feature":"30","num_nodes":"29","size_leaf_vector":"1"}},{"base_weights":[-1.4246289E-3,1.2904834E0,-4.7271085E-1,1.3173473E0,5.954224E-2,-1.0902362E0,5.9532177E-2,1.3342453E0,6.0238965E-2,-1.1155665E0,4.3440753E-1,6.765943E-2,6.1859127E-2,-1.1220806E0,1.9270267E-1,-1.0371875E0,1.0136558E0,-1.1243674E0,1.2469723E0,-4.1044202E-1,1.3267345E0,-1.0808305E0,-2.1179546E-1,1.1895958E0,-7.862021E-1,-5.636679E-2,1.237596E-2,1.5549486E-2,6.570917E-2,-3.07824E-2,4.209426E-2,1.2297327E-2,6.8633825E-2,-4.581736E-4,-5.52602E-2,1.1104468E-2,-3.2598045E-2,6.8352506E-2,2.3670556E-2,-4.6085622E-2,2.1368712E-3],"categories":[],"categories_nodes":[],"categories_segments":[],"categories_sizes":[],"default_left":[0,0,0,0,0,0,0,0,0,0,0,0,0,0,0,0,0,0,0,0,0,0,0,0,0,0,0,0,0,0,0,0,0,0,0,0,0,0,0,0,0],"id":25,"left_children":[1,3,5,7,-1,9,-1,11,-1,13,15,-1,-1,17,19,21,23,25,27,29,31,33,35,37,39,-1,-1,-1,-1,-1,-1,-1,-1,-1,-1,-1,-1,-1,-1,-1,-1],"loss_changes":[1.2511476E4,1.2881836E1,1.5466916E4,6.348633E0,0E0,4.246289E2,0E0,4.9472656E0,0E0,9.236133E1,1.5457631E2,0E0,0E0,5.9620117E1,3.7772285E1,1.4903564E0,4.2076447E1,4.4097656E1,1.0802078E-1,9.785482E0,4.5112228E-1,1.1421356E0,9.394586E-1,1.4252182E1,1.4875069E0,0E0,0E0,0E0,0E0,0E0,0E0,0E0,0E0,0E0,0E0,0E0,0E0,0E0,0E0,0E0,0E0],"parents":[2147483647,0,0,1,1,2,2,3,3,5,5,7,7,9,9,10,10,13,13,14,14,15,15,16,16,17,17,18,18,19,19,20,20,21,21,22,22,23,23,24,24],"right_children":[2,4,6,8,-1,10,-1,12,-1,14,16,-1,-1,18,20,22,24,26,28,30,32,34,36,38,40,-1,-1,-1,-1,-1,-1,-1,-1,-1,-1,-1,-1,-1,-1,-1,-1],"split_conditions":[5.301596E-1,-1.1752159E-1,-1.1752159E-1,4.370128E0,5.954224E-2,1.1721122E0,5.9532177E-2,4.373993E-2,6.0238965E-2,4.370128E0,8.639213E-1,6.765943E-2,6.1859127E-2,3.2823484E0,8.639213E-1,4.444422E0,4.1241474E0,2.0709574E0,5.4299854E-2,9.576335E-1,-1.132449E0,1.8591772E-1,5.236377E-1,1.149176E0,1.9850667E0,-5.636679E-2,1.237596E-2,1.5549486E-2,6.570917E-2,-3.07824E-2,4.209426E-2,1.2297327E-2,6.8633825E-2,-4.581736E-4,-5.52602E-2,1.1104468E-2,-3.2598045E-2,6.8352506E-2,2.3670556E-2,-4.6085622E-2,2.1368712E-3],"split_indices":[11,2,2,26,0,1,0,6,0,26,5,0,0,14,5,24,27,21,1,4,24,22,16,24,1,0,0,0,0,0,0,0,0,0,0,0,0,0,0,0,0],"split_type":[0,0,0,0,0,0,0,0,0,0,0,0,0,0,0,0,0,0,0,0,0,0,0,0,0,0,0,0,0,0,0,0,0,0,0,0,0,0,0,0,0],"sum_hessian":[2.0547203E4,5.4915645E3,1.5055639E4,4.314967E3,1.1765978E3,1.09797705E4,4.0758682E3,3.7415654E3,5.734013E2,1.0800663E4,1.7910783E2,3.1188962E3,6.226691E2,1.0747369E4,5.3293716E1,5.0315872E1,1.2879196E2,1.0737572E4,9.797193E0,3.5149197E1,1.8144518E1,4.7379997E1,2.935876E0,1.1768283E2,1.1109135E1,1.071464E4,2.2932508E1,1.1330625E0,8.66413E0,3.0705975E1,4.443223E0,1.0876455E0,1.7056873E1,1.1754615E0,4.6204536E1,1.6135767E0,1.3222994E0,9.3473755E1,2.420908E1,9.555736E0,1.553399E0],"tree_param":{"num_deleted":"0","num_feature":"30","num_nodes":"41","size_leaf_vector":"1"}},{"base_weights":[-3.4239097E-3,1.272599E0,-4.6983612E-1,1.2974799E0,5.8985587E-2,-1.0783967E0,5.8987487E-2,6.558789E-2,6.0973506E-2,-1.1036806E0,3.9521855E-1,-1.1063538E0,1.000084E0,-1.0534824E0,9.477078E-1,-1.1087209E0,1.221266E0,-1.4839559E-2,1.1519241E0,-4.4585133E-4,-1.0764906E0,2.1470497E0,7.1320677E-1,-5.581314E-2,-2.9367372E-2,1.5159632E-2,6.427429E-2,7.0434704E-2,5.376113E-3,-5.604146E-2,-2.2242263E-2,1.1243313E-1,4.2661894E-2,-4.1982684E-2,5.299727E-2],"categories":[],"categories_nodes":[],"categories_segments":[],"categories_sizes":[],"default_left":[0,0,0,0,0,0,0,0,0,0,0,0,0,0,0,0,0,0,0,0,0,0,0,0,0,0,0,0,0,0,0,0,0,0,0],"id":26,"left_children":[1,3,5,7,-1,9,-1,-1,-1,11,13,15,17,19,21,23,25,-1,27,-1,29,31,33,-1,-1,-1,-1,-1,-1,-1,-1,-1,-1,-1,-1],"loss_changes":[1.1749417E4,1.0435547E1,1.4514793E4,2.7763672E0,0E0,3.9402734E2,0E0,0E0,0E0,5.9515625E1,1.4412189E2,5.848633E1,3.116498E0,1.0786133E0,3.4754623E1,3.9916992E1,9.812927E-2,0E0,3.0486698E0,0E0,7.0648956E-1,4.9250793E-1,6.0320564E1,0E0,0E0,0E0,0E0,0E0,0E0,0E0,0E0,0E0,0E0,0E0,0E0],"parents":[2147483647,0,0,1,1,2,2,3,3,5,5,9,9,10,10,11,11,12,12,13,13,14,14,15,15,16,16,18,18,20,20,21,21,22,22],"right_children":[2,4,6,8,-1,10,-1,-1,-1,12,14,16,18,20,22,24,26,-1,28,-1,30,32,34,-1,-1,-1,-1,-1,-1,-1,-1,-1,-1,-1,-1],"split_conditions":[5.301596E-1,-1.1752159E-1,-1.1752159E-1,4.373993E-2,5.8985587E-2,1.1721122E0,5.8987487E-2,6.558789E-2,6.0973506E-2,1.482091E0,8.639213E-1,3.2823484E0,-3.165768E-1,1.8591772E-1,1.5500894E-1,2.3404877E0,5.4299854E-2,-1.4839559E-2,-2.4771593E0,-4.4585133E-4,1.8834474E0,3.2823484E0,1.5785894E0,-5.581314E-2,-2.9367372E-2,1.5159632E-2,6.427429E-2,7.0434704E-2,5.376113E-3,-5.604146E-2,-2.2242263E-2,1.1243313E-1,4.2661894E-2,-4.1982684E-2,5.299727E-2],"split_indices":[11,2,2,6,0,1,0,0,0,6,5,14,0,22,0,5,1,0,22,0,1,14,1,0,0,0,0,0,0,0,0,0,0,0,0],"split_type":[0,0,0,0,0,0,0,0,0,0,0,0,0,0,0,0,0,0,0,0,0,0,0,0,0,0,0,0,0,0,0,0,0,0,0],"sum_hessian":[1.9739984E4,5.2834473E3,1.4456538E4,4.156136E3,1.1273109E3,1.0560861E4,3.8956765E3,3.498683E3,6.574534E2,1.0383031E4,1.7783002E2,1.0370375E4,1.2655974E1,4.8795048E1,1.2903496E2,1.0360406E4,9.969544E0,1.1573932E0,1.1498581E1,1.1751996E0,4.7619846E1,1.9699701E1,1.0933526E2,1.0211361E4,1.4904411E2,1.1276207E0,8.841924E0,8.872655E0,2.6259258E0,4.3624817E1,3.9950325E0,1.7509264E1,2.1904373E0,1.9645111E1,8.969015E1],"tree_param":{"num_deleted":"0","num_feature":"30","num_nodes":"35","size_leaf_vector":"1"}},{"base_weights":[-5.021261E-3,1.2560234E0,-4.68329E-1,1.2788658E0,5.846539E-2,-1.0691977E0,5.8467187E-2,1.2931305E0,5.9012968E-2,-1.0917387E0,5.3108406E-1,6.545763E-2,6.0511827E-2,6.44305E-2,-1.1011444E0,-9.613643E-1,9.573522E-1,-1.106643E0,3.362793E-2,-1.0239074E0,-2.5190255E-1,1.0900915E0,-7.055189E-1,-5.547144E-2,4.68784E-2,-3.2673474E-2,6.265894E-2,-5.2548714E-2,-8.776157E-3,1.1453192E-2,-3.5151638E-2,8.8534445E-2,4.535544E-2,1.02206925E-2,-5.050041E-2],"categories":[],"categories_nodes":[],"categories_segments":[],"categories_sizes":[],"default_left":[0,0,0,0,0,0,0,0,0,0,0,0,0,0,0,0,0,0,0,0,0,0,0,0,0,0,0,0,0,0,0,0,0,0,0],"id":27,"left_children":[1,3,5,7,-1,9,-1,11,-1,13,15,-1,-1,-1,17,19,21,23,25,27,29,31,33,-1,-1,-1,-1,-1,-1,-1,-1,-1,-1,-1,-1],"loss_changes":[1.109508E4,8.366211E0,1.3667389E4,3.890625E0,0E0,3.6715527E2,0E0,2.821289E0,0E0,2.2573633E2,9.10954E1,0E0,0E0,0E0,6.242383E1,1.0316086E0,2.5265816E1,5.7623047E1,4.1949883E1,3.5637856E-1,1.0857208E0,1.09614105E1,2.7093244E0,0E0,0E0,0E0,0E0,0E0,0E0,0E0,0E0,0E0,0E0,0E0,0E0],"parents":[2147483647,0,0,1,1,2,2,3,3,5,5,7,7,9,9,10,10,14,14,15,15,16,16,17,17,18,18,19,19,20,20,21,21,22,22],"right_children":[2,4,6,8,-1,10,-1,12,-1,14,16,-1,-1,-1,18,20,22,24,26,28,30,32,34,-1,-1,-1,-1,-1,-1,-1,-1,-1,-1,-1,-1],"split_conditions":[5.301596E-1,-1.1752159E-1,-1.1752159E-1,4.370128E0,5.846539E-2,1.2737315E0,5.8467187E-2,4.373993E-2,5.9012968E-2,-2.771096E-1,8.639213E-1,6.545763E-2,6.0511827E-2,6.44305E-2,4.370128E0,1.8834474E0,4.1241474E0,1.482091E0,8.639213E-1,4.9539757E0,3.4364325E-1,1.7858823E-1,8.0357933E-1,-5.547144E-2,4.68784E-2,-3.2673474E-2,6.265894E-2,-5.2548714E-2,-8.776157E-3,1.1453192E-2,-3.5151638E-2,8.8534445E-2,4.535544E-2,1.02206925E-2,-5.050041E-2],"split_indices":[11,2,2,26,0,1,0,6,0,3,5,0,0,0,26,1,27,6,5,4,0,0,22,0,0,0,0,0,0,0,0,0,0,0,0],"split_type":[0,0,0,0,0,0,0,0,0,0,0,0,0,0,0,0,0,0,0,0,0,0,0,0,0,0,0,0,0,0,0,0,0,0,0],"sum_hessian":[1.8988365E4,5.1013726E3,1.3886993E4,4.025962E3,1.0754108E3,1.0159749E4,3.7272441E3,3.5056902E3,5.202716E2,1.0019005E4,1.4074446E2,2.9244463E3,5.8124384E2,3.88559E1,9.980148E3,3.0937235E1,1.0980722E2,9.932135E3,4.801365E1,2.7894049E1,3.0431879E0,1.0206448E2,7.7427406E0,9.919124E3,1.3011037E1,3.0955458E1,1.7058191E1,2.6685991E1,1.2080556E0,1.603847E0,1.4393408E0,1.9671968E1,8.239252E1,1.9413819E0,5.8013587E0],"tree_param":{"num_deleted":"0","num_feature":"30","num_nodes":"35","size_leaf_vector":"1"}},{"base_weights":[-3.5543256E-3,1.2403609E0,-4.6105275E-1,1.2615709E0,5.7979256E-2,-1.0589023E0,5.799494E-2,1.2749614E0,5.8488257E-2,-1.0825875E0,3.5368207E-1,6.448E-2,5.9877783E-2,6.328936E-2,-1.091537E0,-9.99974E-1,8.925986E-1,-1.0974287E0,4.7517076E-2,4.5801442E-2,-1.0752203E0,1.0829408E0,-8.401934E-1,-5.4989606E-2,3.5033036E-2,-3.5343103E-2,6.2270135E-2,-3.2864795E-3,-5.4735392E-2,1.02734946E-1,4.3438643E-2,-4.569813E-2,-1.4713508E-3],"categories":[],"categories_nodes":[],"categories_segments":[],"categories_sizes":[],"default_left":[0,0,0,0,0,0,0,0,0,0,0,0,0,0,0,0,0,0,0,0,0,0,0,0,0,0,0,0,0,0,0,0,0],"id":28,"left_children":[1,3,5,7,-1,9,-1,11,-1,13,15,-1,-1,-1,17,19,21,23,25,-1,27,29,31,-1,-1,-1,-1,-1,-1,-1,-1,-1,-1],"loss_changes":[1.0372098E4,6.6918945E0,1.2914422E4,3.0205078E0,0E0,3.2617285E2,0E0,2.0195312E0,0E0,2.0260156E2,1.1849808E2,0E0,0E0,0E0,6.417578E1,7.680168E0,3.916008E1,4.114258E1,4.6080147E1,0E0,6.989975E-1,1.9757668E1,5.954113E-1,0E0,0E0,0E0,0E0,0E0,0E0,0E0,0E0,0E0,0E0],"parents":[2147483647,0,0,1,1,2,2,3,3,5,5,7,7,9,9,10,10,14,14,15,15,16,16,17,17,18,18,20,20,21,21,22,22],"right_children":[2,4,6,8,-1,10,-1,12,-1,14,16,-1,-1,-1,18,20,22,24,26,-1,28,30,32,-1,-1,-1,-1,-1,-1,-1,-1,-1,-1],"split_conditions":[5.301596E-1,5.9184337E-1,5.9184337E-1,4.370128E0,5.7979256E-2,1.1721122E0,5.799494E-2,4.373993E-2,5.8488257E-2,-2.771096E-1,8.639213E-1,6.448E-2,5.9877783E-2,6.328936E-2,4.370128E0,-2.771096E-1,4.1241474E0,1.482091E0,8.639213E-1,4.5801442E-2,1.8591772E-1,1.5500894E-1,1.9850667E0,-5.4989606E-2,3.5033036E-2,-3.5343103E-2,6.2270135E-2,-3.2864795E-3,-5.4735392E-2,1.02734946E-1,4.3438643E-2,-4.569813E-2,-1.4713508E-3],"split_indices":[11,19,19,26,0,1,0,6,0,3,5,0,0,0,26,3,27,6,5,0,22,0,1,0,0,0,0,0,0,0,0,0,0],"split_type":[0,0,0,0,0,0,0,0,0,0,0,0,0,0,0,0,0,0,0,0,0,0,0,0,0,0,0,0,0,0,0,0,0],"sum_hessian":[1.8223918E4,4.899767E3,1.332415E4,3.8681987E3,1.0315684E3,9.734295E3,3.5898552E3,3.3636208E3,5.0457794E2,9.574068E3,1.6022687E2,2.814419E3,5.492019E2,3.5771908E1,9.538296E3,4.5328697E1,1.1489816E2,9.489337E3,4.895902E1,1.240447E0,4.4088253E1,1.0391603E2,1.0982132E1,9.477323E3,1.2013555E1,3.0240946E1,1.8718075E1,1.0149736E0,4.3073277E1,1.7130032E1,8.6785995E1,9.836515E0,1.1456164E0],"tree_param":{"num_deleted":"0","num_feature":"30","num_nodes":"33","size_leaf_vector":"1"}},{"base_weights":[-2.5930908E-3,1.2258275E0,-4.5549634E-1,1.245581E0,5.752445E-2,-1.0475277E0,5.751116E-2,1.2578615E0,5.7988375E-2,-1.0696262E0,4.3725023E-1,6.357624E-2,5.929323E-2,-1.0771072E0,2.516459E-1,-9.769175E-1,8.5457337E-1,-1.0799013E0,6.222288E-2,-2.4387963E-1,1.2072558E0,-1.0394977E0,-3.433513E-1,9.8845184E-1,-8.6053145E-1,-5.4113306E-2,3.0092869E-2,-2.271383E-2,3.4817334E-2,1.6733186E-2,6.451537E-2,-5.3428352E-2,-7.541084E-3,1.2785861E-2,-3.903E-2,2.9390052E-2,5.853663E-2,-0E0,-5.2399933E-2],"categories":[],"categories_nodes":[],"categories_segments":[],"categories_sizes":[],"default_left":[0,0,0,0,0,0,0,0,0,0,0,0,0,0,0,0,0,0,0,0,0,0,0,0,0,0,0,0,0,0,0,0,0,0,0,0,0,0,0],"id":29,"left_children":[1,3,5,7,-1,9,-1,11,-1,13,15,-1,-1,17,19,21,23,25,-1,27,29,31,33,35,37,-1,-1,-1,-1,-1,-1,-1,-1,-1,-1,-1,-1,-1,-1],"loss_changes":[9.745166E3,5.349121E0,1.2167317E4,2.2250977E0,0E0,3.0734863E2,0E0,1.4394531E0,0E0,9.142871E1,8.213346E1,0E0,0E0,6.0762695E1,2.5303713E1,7.658596E-1,2.5425545E1,3.7098633E1,0E0,7.2967386E0,7.2480774E-1,4.4822693E-1,1.4298048E0,6.4204483E0,1.2724934E0,0E0,0E0,0E0,0E0,0E0,0E0,0E0,0E0,0E0,0E0,0E0,0E0,0E0,0E0],"parents":[2147483647,0,0,1,1,2,2,3,3,5,5,7,7,9,9,10,10,13,13,14,14,15,15,16,16,17,17,19,19,20,20,21,21,22,22,23,23,24,24],"right_children":[2,4,6,8,-1,10,-1,12,-1,14,16,-1,-1,18,20,22,24,26,-1,28,30,32,34,36,38,-1,-1,-1,-1,-1,-1,-1,-1,-1,-1,-1,-1,-1,-1],"split_conditions":[5.301596E-1,5.9184337E-1,5.9184337E-1,4.370128E0,5.752445E-2,1.2737315E0,5.751116E-2,4.373993E-2,5.7988375E-2,4.370128E0,8.639213E-1,6.357624E-2,5.929323E-2,3.2823484E0,8.639213E-1,1.8834474E0,4.1241474E0,1.482091E0,6.222288E-2,9.576335E-1,-6.615751E-1,4.9539757E0,2.1927263E-1,9.576335E-1,2.1927263E-1,-5.4113306E-2,3.0092869E-2,-2.271383E-2,3.4817334E-2,1.6733186E-2,6.451537E-2,-5.3428352E-2,-7.541084E-3,1.2785861E-2,-3.903E-2,2.9390052E-2,5.853663E-2,-0E0,-5.2399933E-2],"split_indices":[11,19,19,26,0,1,0,6,0,26,5,0,0,14,5,1,27,6,0,4,16,4,15,4,15,0,0,0,0,0,0,0,0,0,0,0,0,0,0],"split_type":[0,0,0,0,0,0,0,0,0,0,0,0,0,0,0,0,0,0,0,0,0,0,0,0,0,0,0,0,0,0,0,0,0,0,0,0,0,0,0],"sum_hessian":[1.7514207E4,4.7173354E3,1.2796872E4,3.7240417E3,9.932937E2,9.349942E3,3.446929E3,3.24486E3,4.791815E2,9.213166E3,1.3677649E2,2.7121174E3,5.327427E2,9.161555E3,5.1611225E1,3.0805725E1,1.0597077E2,9.151119E3,1.0436091E1,3.440887E1,1.7202354E1,2.7309675E1,3.496049E0,9.874488E1,7.2258897E0,9.138685E3,1.2434449E1,2.8626287E1,5.7825813E0,2.0367365E0,1.5165619E1,2.6139673E1,1.1700017E0,1.5537466E0,1.9423025E0,3.236979E1,6.637509E1,1.5210959E0,5.704794E0],"tree_param":{"num_deleted":"0","num_feature":"30","num_nodes":"39","size_leaf_vector":"1"}},{"base_weights":[-3.414324E-3,1.2124524E0,-4.528085E-1,1.2307876E0,5.709794E-2,-1.0358819E0,5.7083555E-2,1.2422054E0,5.75288E-2,-1.061483E0,3.843156E-1,6.274493E-2,5.8776464E-2,6.330894E-2,-1.0716289E0,9.188337E-1,-4.9217445E-1,-1.0782869E0,1.3544701E-1,9.627788E-2,6.724115E-1,-8.6033154E-1,5.403703E-2,-5.4049876E-2,6.463333E-2,-2.1571828E-2,5.773549E-2,-3.198476E-2,4.650128E-2,5.7181247E-2,-5.0024576E-2],"categories":[],"categories_nodes":[],"categories_segments":[],"categories_sizes":[],"default_left":[0,0,0,0,0,0,0,0,0,0,0,0,0,0,0,0,0,0,0,0,0,0,0,0,0,0,0,0,0,0,0],"id":30,"left_children":[1,3,5,7,-1,9,-1,11,-1,13,15,-1,-1,-1,17,19,21,23,25,-1,27,29,-1,-1,-1,-1,-1,-1,-1,-1,-1],"loss_changes":[9.190117E3,4.224121E0,1.1418357E4,1.6181641E0,0E0,3.274414E2,0E0,9.2822266E-1,0E0,2.0996094E2,7.5409386E1,0E0,0E0,0E0,7.093262E1,2.3190872E1,3.6321236E1,5.7597656E1,2.8916048E1,0E0,2.825681E1,1.5219658E1,0E0,0E0,0E0,0E0,0E0,0E0,0E0,0E0,0E0],"parents":[2147483647,0,0,1,1,2,2,3,3,5,5,7,7,9,9,10,10,14,14,15,15,16,16,17,17,18,18,20,20,21,21],"right_children":[2,4,6,8,-1,10,-1,12,-1,14,16,-1,-1,-1,18,20,22,24,26,-1,28,30,-1,-1,-1,-1,-1,-1,-1,-1,-1],"split_conditions":[5.301596E-1,-1.1752159E-1,-1.1752159E-1,4.370128E0,5.709794E-2,1.1721122E0,5.7083555E-2,4.373993E-2,5.75288E-2,-2.771096E-1,1.149176E0,6.274493E-2,5.8776464E-2,6.330894E-2,4.370128E0,1.5500894E-1,2.2899246E0,3.2823484E0,9.576335E-1,9.627788E-2,1.5785894E0,1.5500894E-1,5.403703E-2,-5.4049876E-2,6.463333E-2,-2.1571828E-2,5.773549E-2,-3.198476E-2,4.650128E-2,5.7181247E-2,-5.0024576E-2],"split_indices":[11,2,2,26,0,1,0,6,0,3,24,0,0,0,26,0,1,14,4,0,1,0,0,0,0,0,0,0,0,0,0],"split_type":[0,0,0,0,0,0,0,0,0,0,0,0,0,0,0,0,0,0,0,0,0,0,0,0,0,0,0,0,0,0,0],"sum_hessian":[1.6817424E4,4.5379014E3,1.2279523E4,3.587043E3,9.508582E2,8.991794E3,3.287729E3,3.126293E3,4.6075003E2,8.832891E3,1.5890295E2,2.6100913E3,5.162017E2,3.775397E1,8.795137E3,9.874821E1,6.015475E1,8.747079E3,4.8057415E1,1.7998386E1,8.074982E1,4.9164013E1,1.0990737E1,8.737677E3,9.403164E0,3.1189405E1,1.686801E1,1.2945109E1,6.780471E1,2.6991823E0,4.6464832E1],"tree_param":{"num_deleted":"0","num_feature":"30","num_nodes":"31","size_leaf_vector":"1"}},{"base_weights":[-4.796552E-3,1.2002087E0,-4.50867E-1,1.2172002E0,5.669747E-2,-1.0310081E0,1.133974E0,1.2277296E0,5.7094444E-2,-1.0548915E0,3.0416843E-1,4.3778887E-1,5.6714505E-2,6.1971474E-2,5.8259018E-2,-1.0616448E0,1.1944965E-1,-1.0044705E0,8.05005E-1,2.2412005E-3,2.8101597E-2,-1.0642301E0,5.850339E-2,-4.015331E-1,1.1909045E0,-1.0346321E0,-3.197272E-1,9.772536E-1,-7.9917544E-1,-5.3350765E-2,3.8619965E-2,-3.015524E-2,4.0258277E-2,2.4017315E-2,6.516082E-2,-5.2740503E-2,-7.157594E-3,5.800892E-3,-3.1108508E-2,9.490677E-2,3.7381373E-2,-1.7530974E-2,-4.9299296E-2],"categories":[],"categories_nodes":[],"categories_segments":[],"categories_sizes":[],"default_left":[0,0,0,0,0,0,0,0,0,0,0,0,0,0,0,0,0,0,0,0,0,0,0,0,0,0,0,0,0,0,0,0,0,0,0,0,0,0,0,0,0,0,0],"id":31,"left_children":[1,3,5,7,-1,9,11,13,-1,15,17,19,-1,-1,-1,21,23,25,27,-1,-1,29,-1,31,33,35,37,39,41,-1,-1,-1,-1,-1,-1,-1,-1,-1,-1,-1,-1,-1,-1],"loss_changes":[8.670661E3,3.2910156E0,1.0825633E4,1.0996094E0,0E0,2.752373E2,4.1015625E-2,5.2246094E-1,0E0,6.737598E1,1.0051967E2,7.058197E-2,0E0,0E0,0E0,4.98125E1,2.8038534E1,4.116516E-1,3.1375648E1,0E0,0E0,4.3874023E1,0E0,8.689177E0,5.06155E-1,4.5100784E-1,5.6830084E-1,1.955407E1,4.611168E-1,0E0,0E0,0E0,0E0,0E0,0E0,0E0,0E0,0E0,0E0,0E0,0E0,0E0,0E0],"parents":[2147483647,0,0,1,1,2,2,3,3,5,5,6,6,7,7,9,9,10,10,11,11,15,15,16,16,17,17,18,18,21,21,23,23,24,24,25,25,26,26,27,27,28,28],"right_children":[2,4,6,8,-1,10,12,14,-1,16,18,20,-1,-1,-1,22,24,26,28,-1,-1,30,-1,32,34,36,38,40,42,-1,-1,-1,-1,-1,-1,-1,-1,-1,-1,-1,-1,-1,-1],"split_conditions":[5.301596E-1,-1.1752159E-1,-1.1752159E-1,4.370128E0,5.669747E-2,1.1721122E0,-2.2188332E0,4.373993E-2,5.7094444E-2,4.370128E0,8.639213E-1,-7.586546E-1,5.6714505E-2,6.1971474E-2,5.8259018E-2,3.2823484E0,9.576335E-1,4.444422E0,4.1241474E0,2.2412005E-3,2.8101597E-2,1.482091E0,5.850339E-2,8.639213E-1,-1.4893876E-1,4.9539757E0,5.236377E-1,1.5500894E-1,8.237643E-1,-5.3350765E-2,3.8619965E-2,-3.015524E-2,4.0258277E-2,2.4017315E-2,6.516082E-2,-5.2740503E-2,-7.157594E-3,5.800892E-3,-3.1108508E-2,9.490677E-2,3.7381373E-2,-1.7530974E-2,-4.9299296E-2],"split_indices":[11,2,2,26,0,1,15,6,0,26,5,1,0,0,0,14,4,24,27,0,0,6,0,5,1,4,16,0,22,0,0,0,0,0,0,0,0,0,0,0,0,0,0],"split_type":[0,0,0,0,0,0,0,0,0,0,0,0,0,0,0,0,0,0,0,0,0,0,0,0,0,0,0,0,0,0,0,0,0,0,0,0,0,0,0,0,0,0,0],"sum_hessian":[1.6129079E4,4.35707E3,1.177201E4,3.4527634E3,9.043064E2,8.617816E3,3.1541936E3,3.0146511E3,4.381123E2,8.466651E3,1.5116484E2,2.2046287E0,3.151989E3,2.5224155E3,4.9223557E2,8.41842E3,4.823136E1,4.150664E1,1.096582E2,1.0498232E0,1.1548054E0,8.409246E3,9.173583E0,3.2809856E1,1.5421507E1,3.9126194E1,2.3804498E0,9.943458E1,1.0223628E1,8.396986E3,1.2260278E1,2.8613258E1,4.1965976E0,2.94661E0,1.2474896E1,3.7971355E1,1.1548374E0,1.0923711E0,1.2880785E0,1.8308672E1,8.112591E1,4.0091996E0,6.214429E0],"tree_param":{"num_deleted":"0","num_feature":"30","num_nodes":"43","size_leaf_vector":"1"}},{"base_weights":[-2.823156E-3,1.1882374E0,-4.4459766E-1,1.2042363E0,5.6322616E-2,-1.0180259E0,5.632272E-2,1.2141125E0,5.6688108E-2,-1.0426093E0,3.5800874E-1,6.1240453E-2,5.7803817E-2,6.306881E-2,-1.0531536E0,-9.5786846E-1,8.1151634E-1,-1.0597607E0,8.511746E-2,-0E0,-9.858943E-1,1.07216E0,-6.130065E-2,-5.313441E-2,5.8322884E-2,-2.4363121E-2,5.7529952E-2,-5.1252272E-2,-1.23204505E-2,9.316086E-2,4.2578973E-2,-3.8855363E-2,5.531133E-2],"categories":[],"categories_nodes":[],"categories_segments":[],"categories_sizes":[],"default_left":[0,0,0,0,0,0,0,0,0,0,0,0,0,0,0,0,0,0,0,0,0,0,0,0,0,0,0,0,0,0,0,0,0],"id":32,"left_children":[1,3,5,7,-1,9,-1,11,-1,13,15,-1,-1,-1,17,19,21,23,25,-1,27,29,31,-1,-1,-1,-1,-1,-1,-1,-1,-1,-1],"loss_changes":[8.1153027E3,2.534668E0,1.0136455E4,6.850586E-1,0E0,2.7927344E2,0E0,1.3232422E-1,0E0,1.9804395E2,8.7500244E1,0E0,0E0,0E0,6.0819336E1,1.0277328E0,2.4893509E1,5.3469727E1,2.9512299E1,0E0,6.7998123E-1,1.2771202E1,2.2431652E1,0E0,0E0,0E0,0E0,0E0,0E0,0E0,0E0,0E0,0E0],"parents":[2147483647,0,0,1,1,2,2,3,3,5,5,7,7,9,9,10,10,14,14,15,15,16,16,17,17,18,18,20,20,21,21,22,22],"right_children":[2,4,6,8,-1,10,-1,12,-1,14,16,-1,-1,-1,18,20,22,24,26,-1,28,30,32,-1,-1,-1,-1,-1,-1,-1,-1,-1,-1],"split_conditions":[5.301596E-1,5.9184337E-1,5.9184337E-1,4.370128E0,5.6322616E-2,1.1721122E0,5.632272E-2,4.373993E-2,5.6688108E-2,-2.771096E-1,8.639213E-1,6.1240453E-2,5.7803817E-2,6.306881E-2,4.370128E0,3.6892855E-1,1.149176E0,3.2823484E0,8.639213E-1,-0E0,4.444422E0,1.5500894E-1,2.2899246E0,-5.313441E-2,5.8322884E-2,-2.4363121E-2,5.7529952E-2,-5.1252272E-2,-1.23204505E-2,9.316086E-2,4.2578973E-2,-3.8855363E-2,5.531133E-2],"split_indices":[11,19,19,26,0,1,0,6,0,3,5,0,0,0,26,22,24,14,5,0,24,0,1,0,0,0,0,0,0,0,0,0,0],"split_type":[0,0,0,0,0,0,0,0,0,0,0,0,0,0,0,0,0,0,0,0,0,0,0,0,0,0,0,0,0,0,0,0,0],"sum_hessian":[1.5421186E4,4.171787E3,1.1249398E4,3.2977454E3,8.740418E2,8.241645E3,3.0077542E3,2.8769246E3,4.2082062E2,8.0972974E3,1.443474E2,2.4107773E3,4.6614716E2,3.630489E1,8.060992E3,3.6655834E1,1.0769156E2,8.0146284E3,4.6363834E1,1.0530881E0,3.5602745E1,8.283982E1,2.4851736E1,8.00467E3,9.958772E0,3.0453144E1,1.5910691E1,3.3317413E1,2.2853343E0,1.6340055E1,6.649976E1,1.5666632E1,9.185103E0],"tree_param":{"num_deleted":"0","num_feature":"30","num_nodes":"33","size_leaf_vector":"1"}},{"base_weights":[-3.3067542E-3,1.1774768E0,-4.4290462E-1,1.1923149E0,5.5969823E-2,-1.0107678E0,5.5952456E-2,6.0078967E-2,5.630971E-2,-1.0416315E0,1.3251352E-1,6.210537E-2,-1.052204E0,9.594298E-1,-6.104748E-1,-1.0587265E0,5.8909193E-2,1.0874065E0,-8.1940407E-1,-8.623366E-1,7.6245147E-1,-5.3120714E-2,1.8592115E-2,-2.0247584E-2,5.0278217E-2,1.09160565E-1,4.680975E-2,-1.3395323E-2,-4.9342573E-2,-4.5699935E-2,3.8199775E-2,4.6018828E-2,-0E0],"categories":[],"categories_nodes":[],"categories_segments":[],"categories_sizes":[],"default_left":[0,0,0,0,0,0,0,0,0,0,0,0,0,0,0,0,0,0,0,0,0,0,0,0,0,0,0,0,0,0,0,0,0],"id":33,"left_children":[1,3,5,7,-1,9,-1,-1,-1,11,13,-1,15,17,19,21,23,25,27,29,31,-1,-1,-1,-1,-1,-1,-1,-1,-1,-1,-1,-1],"loss_changes":[7.712873E3,1.9082031E0,9.605332E3,3.7060547E-1,0E0,2.804546E2,0E0,0E0,0E0,1.88E2,1.2936884E2,0E0,5.5953125E1,2.3598198E1,3.902443E1,4.083789E1,2.0571575E1,1.3124359E1,2.754488E-1,8.633179E0,2.1697903E0,0E0,0E0,0E0,0E0,0E0,0E0,0E0,0E0,0E0,0E0,0E0,0E0],"parents":[2147483647,0,0,1,1,2,2,3,3,5,5,9,9,10,10,12,12,13,13,14,14,15,15,16,16,17,17,18,18,19,19,20,20],"right_children":[2,4,6,8,-1,10,-1,-1,-1,12,14,-1,16,18,20,22,24,26,28,30,32,-1,-1,-1,-1,-1,-1,-1,-1,-1,-1,-1,-1],"split_conditions":[5.301596E-1,-1.1752159E-1,-1.1752159E-1,4.370128E0,5.5969823E-2,9.688736E-1,5.5952456E-2,6.0078967E-2,5.630971E-2,-2.771096E-1,8.908788E-1,6.210537E-2,4.370128E0,4.1241474E0,1.8834474E0,2.0709574E0,9.576335E-1,1.1721122E0,1.8817222E0,-3.9432693E-2,4.444422E0,-5.3120714E-2,1.8592115E-2,-2.0247584E-2,5.0278217E-2,1.09160565E-1,4.680975E-2,-1.3395323E-2,-4.9342573E-2,-4.5699935E-2,3.8199775E-2,4.6018828E-2,-0E0],"split_indices":[11,2,2,26,0,1,0,0,0,3,24,0,26,27,1,21,4,1,3,21,24,0,0,0,0,0,0,0,0,0,0,0,0],"split_type":[0,0,0,0,0,0,0,0,0,0,0,0,0,0,0,0,0,0,0,0,0,0,0,0,0,0,0,0,0,0,0,0,0],"sum_hessian":[1.4857162E4,4.0301245E3,1.0827038E4,3.193115E3,8.370095E2,7.9405806E3,2.8864573E3,2.784308E3,4.0880685E2,7.732026E3,2.0855486E2,3.504984E1,7.696976E3,9.862853E1,1.0992632E2,7.6521924E3,4.4783566E1,9.242407E1,6.2044616E0,9.3262215E1,1.6664112E1,7.6328438E3,1.9348671E1,3.0369238E1,1.4414329E1,9.497538E0,8.292653E1,2.1897013E0,4.0147605E0,9.087496E1,2.3872483E0,1.3683759E1,2.980354E0],"tree_param":{"num_deleted":"0","num_feature":"30","num_nodes":"33","size_leaf_vector":"1"}},{"base_weights":[-2.5915352E-3,-3.7703723E-1,5.5641104E-2,-4.3687713E-1,1.0170641E0,-5.0921506E-1,4.8545536E-1,5.2796196E-2,9.205751E-1,5.8582958E-2,-5.2273965E-1,2.830461E-1,1.1133398E0,-3.057075E-1,9.558479E-1,-4.9190632E-1,-9.4835126E-1,9.398973E-1,1.0514692E-1,2.2240322E0,1.0640763E0,-2.522876E-2,-0E0,6.282663E-1,5.0703894E-2,-2.7271537E-2,-4.250416E-3,-4.783834E-2,1.6636487E-2,1.6662825E-2,5.3057022E-2,-1.9531378E-4,2.2753619E-2,1.22120045E-1,3.194947E-2,2.647387E-2,5.7775516E-2,4.844215E-2,2.1835046E-2],"categories":[],"categories_nodes":[],"categories_segments":[],"categories_sizes":[],"default_left":[0,0,0,0,0,0,0,0,0,0,0,0,0,0,0,0,0,0,0,0,0,0,0,0,0,0,0,0,0,0,0,0,0,0,0,0,0,0,0],"id":34,"left_children":[1,3,-1,5,7,9,11,-1,13,-1,15,17,19,21,23,25,27,29,31,33,35,-1,-1,37,-1,-1,-1,-1,-1,-1,-1,-1,-1,-1,-1,-1,-1,-1,-1],"loss_changes":[5.943822E3,8.8922864E2,0E0,6.8191846E2,4.7540283E-1,2.1593188E2,9.402901E1,0E0,6.175316E0,0E0,1.2274072E2,6.5662994E1,7.196045E0,2.4128765E-1,1.6988068E0,1.9082544E2,7.212036E0,8.324303E0,1.702014E1,4.4122314E-1,7.7787476E0,0E0,0E0,9.1538143E-1,0E0,0E0,0E0,0E0,0E0,0E0,0E0,0E0,0E0,0E0,0E0,0E0,0E0,0E0,0E0],"parents":[2147483647,0,0,1,1,3,3,4,4,5,5,6,6,8,8,10,10,11,11,12,12,13,13,14,14,15,15,16,16,17,17,18,18,19,19,20,20,23,23],"right_children":[2,4,-1,6,8,10,12,-1,14,-1,16,18,20,22,24,26,28,30,32,34,36,-1,-1,38,-1,-1,-1,-1,-1,-1,-1,-1,-1,-1,-1,-1,-1,-1,-1],"split_conditions":[5.9184337E-1,4.370128E0,5.5641104E-2,-2.0308399E-1,1.8591772E-1,-2.771096E-1,3.5915777E-1,5.2796196E-2,-5.55416E-1,5.8582958E-2,4.1241474E0,-2.238976E0,-5.7204645E-2,-6.979467E-1,-4.3461943E-1,8.023063E-1,4.5973525E0,-1.065918E0,8.023063E-1,-1.3241133E-2,6.640157E-1,-2.522876E-2,-0E0,-2.4583894E-1,5.0703894E-2,-2.7271537E-2,-4.250416E-3,-4.783834E-2,1.6636487E-2,1.6662825E-2,5.3057022E-2,-1.9531378E-4,2.2753619E-2,1.22120045E-1,3.194947E-2,2.647387E-2,5.7775516E-2,4.844215E-2,2.1835046E-2],"split_indices":[19,26,0,21,22,3,1,0,1,0,27,22,0,15,16,3,25,24,3,22,1,0,0,0,0,0,0,0,0,0,0,0,0,0,0,0,0,0,0],"split_type":[0,0,0,0,0,0,0,0,0,0,0,0,0,0,0,0,0,0,0,0,0,0,0,0,0,0,0,0,0,0,0,0,0,0,0,0,0,0,0],"sum_hessian":[1.4229355E4,1.065366E4,3.575695E3,1.0215914E4,4.3774576E2,9.473472E3,7.4244214E2,3.042375E2,1.3350827E2,7.487414E1,9.398598E3,5.6266693E2,1.797752E2,3.4392283E0,1.3006903E2,8.765941E3,6.326563E2,1.1888103E2,4.437859E2,5.674002E0,1.7410121E2,1.5772783E0,1.8619499E0,2.1669674E1,1.0839936E2,7.746377E3,1.0195648E3,6.2885657E2,3.799775E0,2.0563726E1,9.83173E1,3.3887848E2,1.0490739E2,4.4560976E0,1.2179044E0,2.6579576E1,1.4752162E2,6.1522684E0,1.55174055E1],"tree_param":{"num_deleted":"0","num_feature":"30","num_nodes":"39","size_leaf_vector":"1"}},{"base_weights":[-2.5138482E-3,1.1691045E0,-4.4696605E-1,1.1843977E0,5.5325817E-2,-9.987011E-1,5.5344094E-2,5.968777E-2,5.5637535E-2,-1.0245076E0,1.0939861E-1,6.085518E-2,-1.0347632E0,1.8136073E0,-6.9331837E-1,-1.0459683E0,-8.754708E-3,5.03633E0,6.0834654E-2,-8.740608E-1,5.6335676E-2,-5.2437514E-2,5.620637E-2,-5.016266E-2,8.90945E-2,2.9466352E-1,5.379134E-2,-5.0941028E-2,2.9860754E-2],"categories":[],"categories_nodes":[],"categories_segments":[],"categories_sizes":[],"default_left":[0,0,0,0,0,0,0,0,0,0,0,0,0,0,0,0,0,0,0,0,0,0,0,0,0,0,0,0,0],"id":35,"left_children":[1,3,5,7,-1,9,-1,-1,-1,11,13,-1,15,17,19,21,23,25,-1,27,-1,-1,-1,-1,-1,-1,-1,-1,-1],"loss_changes":[7.2413457E3,2.1206055E0,8.644399E3,4.9169922E-1,0E0,2.1297754E2,0E0,0E0,0E0,1.6840527E2,2.3414282E2,0E0,8.310791E1,9.866612E1,3.9235626E1,4.440088E1,1.4294058E2,2.0858307E1,0E0,2.332415E1,0E0,0E0,0E0,0E0,0E0,0E0,0E0,0E0,0E0],"parents":[2147483647,0,0,1,1,2,2,3,3,5,5,9,9,10,10,12,12,13,13,14,14,15,15,16,16,17,17,19,19],"right_children":[2,4,6,8,-1,10,-1,-1,-1,12,14,-1,16,18,20,22,24,26,-1,28,-1,-1,-1,-1,-1,-1,-1,-1,-1],"split_conditions":[5.301596E-1,-1.1752159E-1,-1.1752159E-1,4.370128E0,5.5325817E-2,2.3404877E0,5.5344094E-2,5.968777E-2,5.5637535E-2,-2.771096E-1,1.8817222E0,6.085518E-2,2.2897475E0,6.069179E-2,4.370128E0,3.2823484E0,8.639213E-1,1.7109246E0,6.0834654E-2,3.817054E0,5.6335676E-2,-5.2437514E-2,5.620637E-2,-5.016266E-2,8.90945E-2,2.9466352E-1,5.379134E-2,-5.0941028E-2,2.9860754E-2],"split_indices":[11,2,2,26,0,5,0,0,0,3,3,0,4,0,26,14,5,21,0,5,0,0,0,0,0,0,0,0,0],"split_type":[0,0,0,0,0,0,0,0,0,0,0,0,0,0,0,0,0,0,0,0,0,0,0,0,0,0,0,0,0],"sum_hessian":[1.3904322E4,3.8234607E3,1.0080861E4,3.0569727E3,7.66488E2,7.4396406E3,2.6412207E3,2.6887441E3,3.682285E2,7.2704844E3,1.6915633E2,3.253141E1,7.237953E3,5.3800465E1,1.1535586E2,7.1596455E3,7.830776E1,7.2192326E0,4.658123E1,1.05457825E2,9.898031E0,7.151041E3,8.604499E0,5.0664818E1,2.7642946E1,5.5130963E0,1.7061365E0,9.635309E1,9.104741E0],"tree_param":{"num_deleted":"0","num_feature":"30","num_nodes":"29","size_leaf_vector":"1"}},{"base_weights":[-1.3389416E-3,-3.601725E-1,5.5034507E-2,-4.1713244E-1,9.901232E-1,-4.870488E-1,4.6226195E-1,1.0214477E0,8.0130625E-1,5.740465E-2,-5.005666E-1,1.0224298E-1,9.75954E-1,5.117752E-2,1.4524016E-2,-3.620271E-2,4.476985E-2,-5.550969E-1,-2.3309737E-1,5.8084077E-1,-1.3627537E-1,2.1889172E0,8.6713874E-1,3.3127926E-2,-2.8213546E-2,1.0199954E-1,-1.7465776E-2,1.8951533E-2,4.7048833E-2,5.189103E-2,-8.506117E-3,1.5998618E-1,7.267597E-2,4.615448E-2,-3.2084104E-2],"categories":[],"categories_nodes":[],"categories_segments":[],"categories_sizes":[],"default_left":[0,0,0,0,0,0,0,0,0,0,0,0,0,0,0,0,0,0,0,0,0,0,0,0,0,0,0,0,0,0,0,0,0,0,0],"id":36,"left_children":[1,3,-1,5,7,9,11,13,15,-1,17,19,21,-1,-1,-1,-1,23,25,27,29,31,33,-1,-1,-1,-1,-1,-1,-1,-1,-1,-1,-1,-1],"loss_changes":[5.2832773E3,7.755459E2,0E0,5.9488E2,1.4134216E0,1.9855615E2,1.3160217E2,1.0308838E-1,9.732384E0,0E0,1.2941333E2,4.809931E1,3.6528473E1,0E0,0E0,0E0,0E0,8.2816895E1,3.986742E2,9.6947365E0,1.1262801E1,1.2297844E1,2.3500244E1,0E0,0E0,0E0,0E0,0E0,0E0,0E0,0E0,0E0,0E0,0E0,0E0],"parents":[2147483647,0,0,1,1,3,3,4,4,5,5,6,6,7,7,8,8,10,10,11,11,12,12,17,17,18,18,19,19,20,20,21,21,22,22],"right_children":[2,4,-1,6,8,10,12,14,16,-1,18,20,22,-1,-1,-1,-1,24,26,28,30,32,34,-1,-1,-1,-1,-1,-1,-1,-1,-1,-1,-1,-1],"split_conditions":[-1.1752159E-1,4.370128E0,5.5034507E-2,-2.0308399E-1,4.0660727E-1,-2.771096E-1,8.639213E-1,4.0490036E0,-3.5217738E-1,5.740465E-2,8.639213E-1,-1.5015498E0,8.023063E-1,5.117752E-2,1.4524016E-2,-3.620271E-2,4.476985E-2,-9.202213E-1,8.023063E-1,2.2317626E0,-2.771096E-1,6.640157E-1,4.1241474E0,3.3127926E-2,-2.8213546E-2,1.0199954E-1,-1.7465776E-2,1.8951533E-2,4.7048833E-2,5.189103E-2,-8.506117E-3,1.5998618E-1,7.267597E-2,4.615448E-2,-3.2084104E-2],"split_indices":[2,26,0,21,22,3,5,21,1,0,5,22,3,0,0,0,0,22,3,21,3,1,27,0,0,0,0,0,0,0,0,0,0,0,0],"split_type":[0,0,0,0,0,0,0,0,0,0,0,0,0,0,0,0,0,0,0,0,0,0,0,0,0,0,0,0,0,0,0,0,0,0,0],"sum_hessian":[1.3358518E4,1.0077824E4,3.2806936E3,9.670649E3,4.071748E2,8.958929E3,7.1172076E2,3.4500037E2,6.2174435E1,7.270792E1,8.886221E3,4.1927048E2,2.924503E2,3.4347528E2,1.5250866E0,3.1616096E0,5.9012825E1,7.380144E3,1.5060768E3,1.3911467E2,2.801558E2,2.2426569E1,2.700237E2,5.4573017E1,7.325571E3,7.2409996E1,1.4336669E3,9.064813E1,4.846654E1,6.9361305E0,2.7321967E2,7.9762263E0,1.4450342E1,2.6080682E2,9.21688E0],"tree_param":{"num_deleted":"0","num_feature":"30","num_nodes":"35","size_leaf_vector":"1"}},{"base_weights":[-1.8572839E-3,1.1615398E0,-4.5167744E-1,1.1770129E0,5.4754782E-2,-9.874822E-1,1.0950688E0,1.18648E0,5.504149E-2,-1.0181469E0,1.1768689E-1,4.0500346E-1,5.477382E-2,5.9842158E-2,5.6255784E-2,5.899289E-2,-1.0279926E0,-9.594515E-1,7.783241E-1,3.1926404E-4,2.712507E-2,-1.0347202E0,5.12518E-2,3.152326E-2,-9.929865E-1,3.0827498E0,5.131665E-1,-5.214991E-2,-1.6214337E-2,-2.468715E-2,5.3748924E-2,-5.0200876E-2,-9.301395E-3,1.6885366E-1,3.6860064E-2,-2.714153E-2,3.7512936E-2],"categories":[],"categories_nodes":[],"categories_segments":[],"categories_sizes":[],"default_left":[0,0,0,0,0,0,0,0,0,0,0,0,0,0,0,0,0,0,0,0,0,0,0,0,0,0,0,0,0,0,0,0,0,0,0,0,0],"id":37,"left_children":[1,3,5,7,-1,9,11,13,-1,15,17,19,-1,-1,-1,-1,21,23,25,-1,-1,27,29,-1,31,33,35,-1,-1,-1,-1,-1,-1,-1,-1,-1,-1],"loss_changes":[6.8380596E3,2.2299805E0,7.810763E3,5.859375E-1,0E0,2.3742041E2,8.886719E-2,7.5927734E-2,0E0,1.4858936E2,1.3577388E2,1.1500442E-1,0E0,0E0,0E0,0E0,4.9385254E1,4.5298004E0,7.030788E1,0E0,0E0,3.9157715E1,2.4506178E1,0E0,3.3058167E-1,5.3574753E0,2.728709E1,0E0,0E0,0E0,0E0,0E0,0E0,0E0,0E0,0E0,0E0],"parents":[2147483647,0,0,1,1,2,2,3,3,5,5,6,6,7,7,9,9,10,10,11,11,16,16,17,17,18,18,21,21,22,22,24,24,25,25,26,26],"right_children":[2,4,6,8,-1,10,12,14,-1,16,18,20,-1,-1,-1,-1,22,24,26,-1,-1,28,30,-1,32,34,36,-1,-1,-1,-1,-1,-1,-1,-1,-1,-1],"split_conditions":[5.301596E-1,-1.1752159E-1,-1.1752159E-1,4.370128E0,5.4754782E-2,9.688736E-1,-2.2188332E0,4.373993E-2,5.504149E-2,-2.771096E-1,8.639213E-1,-7.586546E-1,5.477382E-2,5.9842158E-2,5.6255784E-2,5.899289E-2,4.370128E0,-2.771096E-1,8.427107E-2,3.1926404E-4,2.712507E-2,7.6291543E-1,8.639213E-1,3.152326E-2,4.373993E-2,3.2823484E0,1.2737315E0,-5.214991E-2,-1.6214337E-2,-2.468715E-2,5.3748924E-2,-5.0200876E-2,-9.301395E-3,1.6885366E-1,3.6860064E-2,-2.714153E-2,3.7512936E-2],"split_indices":[11,2,2,26,0,1,15,6,0,3,5,1,0,0,0,0,26,3,0,0,0,6,5,0,6,14,1,0,0,0,0,0,0,0,0,0,0],"split_type":[0,0,0,0,0,0,0,0,0,0,0,0,0,0,0,0,0,0,0,0,0,0,0,0,0,0,0,0,0,0,0,0,0,0,0,0,0],"sum_hessian":[1.3064835E4,3.6424197E3,9.422415E3,2.9396394E3,7.0278015E2,6.9985054E3,2.4239097E3,2.6005806E3,3.3905887E2,6.809728E3,1.8877751E2,2.1629202E0,2.4217466E3,2.2076301E3,3.9295038E2,2.9792393E1,6.7799355E3,7.1536644E1,1.1724086E2,1.0096325E0,1.1532878E0,6.7380674E3,4.1868237E1,1.0484169E0,7.048823E1,1.0962759E1,1.0627811E2,6.6598574E3,7.8209625E1,2.7596748E1,1.4271486E1,6.91745E1,1.3137275E0,9.311875E0,1.6508832E0,1.9172672E1,8.710543E1],"tree_param":{"num_deleted":"0","num_feature":"30","num_nodes":"37","size_leaf_vector":"1"}},{"base_weights":[6.202353E-4,1.152496E0,-4.494877E-1,1.1669185E0,5.4493662E-2,-9.8054755E-1,1.089397E0,5.878972E-2,5.4756064E-2,-1.0122106E0,1.2874278E-1,4.1673023E-1,5.4491024E-2,5.844609E-2,-1.0228E0,-9.608135E-1,7.5049007E-1,3.112789E-4,2.7801368E-2,-1.0262052E0,9.1273946E-1,4.549245E-2,-1.0241485E0,2.392409E0,4.567825E-1,-5.161515E-2,-1.5962365E-3,5.2103557E-2,-0E0,-5.180614E-2,-1.4124173E-2,1.6189525E-1,8.403574E-2,-1.8065535E-2,4.7518753E-2],"categories":[],"categories_nodes":[],"categories_segments":[],"categories_sizes":[],"default_left":[0,0,0,0,0,0,0,0,0,0,0,0,0,0,0,0,0,0,0,0,0,0,0,0,0,0,0,0,0,0,0,0,0,0,0],"id":38,"left_children":[1,3,5,7,-1,9,11,-1,-1,13,15,17,-1,-1,19,21,23,-1,-1,25,27,-1,29,31,33,-1,-1,-1,-1,-1,-1,-1,-1,-1,-1],"loss_changes":[6.4919062E3,1.6801758E0,7.358713E3,2.9760742E-1,0E0,2.3532959E2,5.2978516E-2,0E0,0E0,1.5150098E2,1.2708292E2,1.2451792E-1,0E0,0E0,4.363965E1,9.01894E0,5.620269E1,0E0,0E0,3.9067383E1,1.4597683E0,0E0,1.6559601E-1,4.7950516E0,4.182093E1,0E0,0E0,0E0,0E0,0E0,0E0,0E0,0E0,0E0,0E0],"parents":[2147483647,0,0,1,1,2,2,3,3,5,5,6,6,9,9,10,10,11,11,14,14,15,15,16,16,19,19,20,20,22,22,23,23,24,24],"right_children":[2,4,6,8,-1,10,12,-1,-1,14,16,18,-1,-1,20,22,24,-1,-1,26,28,-1,30,32,34,-1,-1,-1,-1,-1,-1,-1,-1,-1,-1],"split_conditions":[5.301596E-1,-1.1752159E-1,-1.1752159E-1,4.370128E0,5.4493662E-2,9.688736E-1,-2.2188332E0,5.878972E-2,5.4756064E-2,-2.771096E-1,8.639213E-1,-8.602739E-1,5.4491024E-2,5.844609E-2,1.482091E0,-2.771096E-1,1.07850365E-1,3.112789E-4,2.7801368E-2,4.370128E0,8.592398E-1,4.549245E-2,4.444422E0,6.069179E-2,1.5785894E0,-5.161515E-2,-1.5962365E-3,5.2103557E-2,-0E0,-5.180614E-2,-1.4124173E-2,1.6189525E-1,8.403574E-2,-1.8065535E-2,4.7518753E-2],"split_indices":[11,2,2,26,0,1,15,0,0,3,5,1,0,0,6,3,0,0,0,26,16,0,24,0,1,0,0,0,0,0,0,0,0,0,0],"split_type":[0,0,0,0,0,0,0,0,0,0,0,0,0,0,0,0,0,0,0,0,0,0,0,0,0,0,0,0,0,0,0,0,0,0,0],"sum_hessian":[1.2519182E4,3.517127E3,9.002055E3,2.8431077E3,6.740194E2,6.692827E3,2.3092268E3,2.5153784E3,3.277291E2,6.5072646E3,1.8556264E2,2.2213702E0,2.3070056E3,3.0865936E1,6.476399E3,6.716167E1,1.1840097E2,1.0093697E0,1.2120005E0,6.4655454E3,1.08533945E1,1.7100184E0,6.5451645E1,1.682998E1,1.01570984E2,6.4259966E3,3.95486E1,9.438E0,1.4153948E0,6.3888313E1,1.5633347E0,6.005428E0,1.08245535E1,3.8246174E1,6.332481E1],"tree_param":{"num_deleted":"0","num_feature":"30","num_nodes":"35","size_leaf_vector":"1"}},{"base_weights":[-3.4791364E-3,1.1441982E0,-4.4707257E-1,1.1575875E0,5.4245073E-2,-9.730006E-1,5.424456E-2,5.8294833E-2,5.4484572E-2,-1.011651E0,-1.23760335E-1,5.770273E-2,-1.0215722E0,3.6306324E0,-3.149298E-1,-1.0294526E0,-3.86113E-1,4.031421E0,5.3285547E-2,-9.584384E-1,3.3490887E-1,-5.171385E-2,-9.683373E-3,-2.9894227E-2,2.7091539E-2,2.3849046E-1,1.09676614E-1,3.9290655E-2,-4.8905678E-2,3.1860273E-2,-4.5155905E-2],"categories":[],"categories_nodes":[],"categories_segments":[],"categories_sizes":[],"default_left":[0,0,0,0,0,0,0,0,0,0,0,0,0,0,0,0,0,0,0,0,0,0,0,0,0,0,0,0,0,0,0],"id":39,"left_children":[1,3,5,7,-1,9,-1,-1,-1,11,13,-1,15,17,19,21,23,25,-1,27,29,-1,-1,-1,-1,-1,-1,-1,-1,-1,-1],"loss_changes":[6.097063E3,1.1704102E0,6.9604814E3,3.125E-2,0E0,2.1084229E2,0E0,0E0,0E0,1.3331982E2,2.0262762E2,0E0,3.0123535E1,9.255417E0,1.1266782E2,2.4060547E1,1.541358E1,4.3617096E0,0E0,5.429329E0,5.07964E1,0E0,0E0,0E0,0E0,0E0,0E0,0E0,0E0,0E0,0E0],"parents":[2147483647,0,0,1,1,2,2,3,3,5,5,9,9,10,10,12,12,13,13,14,14,15,15,16,16,17,17,19,19,20,20],"right_children":[2,4,6,8,-1,10,-1,-1,-1,12,14,-1,16,18,20,22,24,26,-1,28,30,-1,-1,-1,-1,-1,-1,-1,-1,-1,-1],"split_conditions":[5.301596E-1,5.9184337E-1,5.9184337E-1,4.370128E0,5.4245073E-2,7.65635E-1,5.424456E-2,5.8294833E-2,5.4484572E-2,-2.771096E-1,6.069179E-2,5.770273E-2,7.6291543E-1,7.2650784E-1,8.639213E-1,4.370128E0,8.639213E-1,4.373993E-2,5.3285547E-2,-2.771096E-1,4.1241474E0,-5.171385E-2,-9.683373E-3,-2.9894227E-2,2.7091539E-2,2.3849046E-1,1.09676614E-1,3.9290655E-2,-4.8905678E-2,3.1860273E-2,-4.5155905E-2],"split_indices":[11,19,19,26,0,1,0,0,0,3,0,0,6,24,5,26,5,6,0,3,27,0,0,0,0,0,0,0,0,0,0],"split_type":[0,0,0,0,0,0,0,0,0,0,0,0,0,0,0,0,0,0,0,0,0,0,0,0,0,0,0,0,0,0,0],"sum_hessian":[1.1974241E4,3.3375173E3,8.636724E3,2.7062341E3,6.312834E2,6.429787E3,2.2069363E3,2.3954377E3,3.1079636E2,6.149599E3,2.801881E2,2.747125E1,6.122128E3,1.2678535E1,2.6750958E2,6.046369E3,7.5758766E1,1.0436942E1,2.2415926E0,1.3424814E2,1.3326144E2,6.0113135E3,3.5055706E1,6.2059303E1,1.3699466E1,6.2687445E0,4.168198E0,1.0063951E0,1.3324174E2,1.0756316E2,2.5698273E1],"tree_param":{"num_deleted":"0","num_feature":"30","num_nodes":"31","size_leaf_vector":"1"}},{"base_weights":[-1.4294648E-3,1.1358606E0,-4.4400746E-1,5.7428878E-2,5.4014128E-2,-9.6575356E-1,1.0802209E0,-9.97005E-1,1.1235611E-1,1.1801612E-2,5.403428E-2,-1.0055646E0,9.1409616E-2,-9.021856E-1,6.801531E-1,-1.0119102E0,-7.366206E-3,-3.35842E-1,5.554756E-2,-9.341002E-1,-0E0,2.133001E0,4.075682E-1,-5.072855E-2,5.496489E-2,1.873902E-2,-3.7643682E-2,-2.696912E-2,3.7775945E-2,-4.7298778E-2,-6.4676898E-3,1.8759252E-3,-3.4704183E-3,1.2308889E-1,6.3238345E-2,-2.3649514E-2,3.968943E-2],"categories":[],"categories_nodes":[],"categories_segments":[],"categories_sizes":[],"default_left":[0,0,0,0,0,0,0,0,0,0,0,0,0,0,0,0,0,0,0,0,0,0,0,0,0,0,0,0,0,0,0,0,0,0,0,0,0],"id":40,"left_children":[1,3,5,-1,-1,7,9,11,13,-1,-1,15,17,19,21,23,25,27,-1,29,31,33,35,-1,-1,-1,-1,-1,-1,-1,-1,-1,-1,-1,-1,-1,-1],"loss_changes":[5.7834463E3,8.1152344E-1,6.5790283E3,0E0,0E0,2.0783887E2,4.4091797E-1,5.59834E1,1.0106528E2,0E0,0E0,3.7532715E1,2.1167835E1,1.7520866E0,4.3415062E1,3.4277344E1,1.1330237E1,7.98604E0,0E0,3.5050583E-1,1.3056375E-2,1.501503E0,3.305307E1,0E0,0E0,0E0,0E0,0E0,0E0,0E0,0E0,0E0,0E0,0E0,0E0,0E0,0E0],"parents":[2147483647,0,0,1,1,2,2,5,5,6,6,7,7,8,8,11,11,12,12,13,13,14,14,15,15,16,16,17,17,19,19,20,20,21,21,22,22],"right_children":[2,4,6,-1,-1,8,10,12,14,-1,-1,16,18,20,22,24,26,28,-1,30,32,34,36,-1,-1,-1,-1,-1,-1,-1,-1,-1,-1,-1,-1,-1,-1],"split_conditions":[5.301596E-1,5.9184337E-1,5.9184337E-1,5.7428878E-2,5.4014128E-2,9.688736E-1,-2.2188332E0,4.370128E0,8.639213E-1,1.1801612E-2,5.403428E-2,1.1225032E0,8.639213E-1,4.444422E0,1.07850365E-1,3.2823484E0,-2.5189054E-1,9.576335E-1,5.554756E-2,4.9539757E0,1.6099626E-1,2.3730867E-1,1.4769702E0,-5.072855E-2,5.496489E-2,1.873902E-2,-3.7643682E-2,-2.696912E-2,3.7775945E-2,-4.7298778E-2,-6.4676898E-3,1.8759252E-3,-3.4704183E-3,1.2308889E-1,6.3238345E-2,-2.3649514E-2,3.968943E-2],"split_indices":[11,19,19,0,0,1,15,26,5,0,0,6,5,24,0,14,24,4,0,4,15,24,1,0,0,0,0,0,0,0,0,0,0,0,0,0,0],"split_type":[0,0,0,0,0,0,0,0,0,0,0,0,0,0,0,0,0,0,0,0,0,0,0,0,0,0,0,0,0,0,0,0,0,0,0,0,0],"sum_hessian":[1.1488284E4,3.2177805E3,8.270503E3,2.601139E3,6.166415E2,6.161756E3,2.1087478E3,5.9883384E3,1.7341751E2,1.5585622E0,2.1071892E3,5.941778E3,4.6560104E1,6.1953575E1,1.1146393E2,5.904131E3,3.7647E1,3.321391E1,1.3346193E1,5.9733326E1,2.2202497E0,1.6472946E1,9.499098E1,5.8972656E3,6.86522E0,2.5129023E1,1.2517976E1,2.8496645E1,4.7172647E0,5.8569283E1,1.1640435E0,1.1334355E0,1.086814E0,1.0533599E1,5.9393473E0,2.8813776E1,6.617721E1],"tree_param":{"num_deleted":"0","num_feature":"30","num_nodes":"37","size_leaf_vector":"1"}},{"base_weights":[-4.5934413E-3,-3.390849E-1,5.3813707E-2,-3.9173633E-1,9.3824697E-1,-4.5706093E-1,4.361433E-1,4.9211245E-2,7.6641107E-1,5.5596318E-2,-4.6927887E-1,1.00137725E-1,9.138653E-1,-3.0305078E-2,8.1810343E-1,-4.3807697E-1,-9.0973413E-1,5.7614267E-1,-1.3255458E-1,2.0357609E0,8.089874E-1,-2.7975747E-2,2.2671308E-1,7.3433375E-1,1.0503504E0,-2.5841659E-2,5.018182E-3,-4.591098E-2,1.6532589E-2,7.7076764E-3,3.7514247E-2,4.9526278E-2,-8.457131E-3,1.3493359E-1,5.8825493E-2,4.3533098E-2,-3.528648E-2,2.538246E-2,-0E0,4.044655E-2,1.695545E-2,1.3016592E-2,5.4324087E-2],"categories":[],"categories_nodes":[],"categories_segments":[],"categories_sizes":[],"default_left":[0,0,0,0,0,0,0,0,0,0,0,0,0,0,0,0,0,0,0,0,0,0,0,0,0,0,0,0,0,0,0,0,0,0,0,0,0,0,0,0,0,0,0],"id":41,"left_children":[1,3,-1,5,7,9,11,-1,13,-1,15,17,19,21,23,25,27,29,31,33,35,-1,37,39,41,-1,-1,-1,-1,-1,-1,-1,-1,-1,-1,-1,-1,-1,-1,-1,-1,-1,-1],"loss_changes":[3.974984E3,5.6500085E2,0E0,4.3635437E2,1.6985168E0,1.437627E2,9.4547806E1,0E0,3.2001762E0,0E0,1.0142078E2,3.8638702E1,2.6715714E1,8.983725E-1,4.2691422E-1,2.9396277E2,5.515747E0,8.208683E0,9.71078E0,7.871437E0,2.1593872E1,0E0,2.9990774E-1,1.2514229E0,4.2533875E-2,0E0,0E0,0E0,0E0,0E0,0E0,0E0,0E0,0E0,0E0,0E0,0E0,0E0,0E0,0E0,0E0,0E0,0E0],"parents":[2147483647,0,0,1,1,3,3,4,4,5,5,6,6,8,8,10,10,11,11,12,12,13,13,14,14,15,15,16,16,17,17,18,18,19,19,20,20,22,22,23,23,24,24],"right_children":[2,4,-1,6,8,10,12,-1,14,-1,16,18,20,22,24,26,28,30,32,34,36,-1,38,40,42,-1,-1,-1,-1,-1,-1,-1,-1,-1,-1,-1,-1,-1,-1,-1,-1,-1,-1],"split_conditions":[-1.1752159E-1,4.370128E0,5.3813707E-2,4.373993E-2,3.0299082E-1,-2.771096E-1,8.639213E-1,4.9211245E-2,-8.984291E-1,5.5596318E-2,4.1241474E0,-1.6455363E0,8.023063E-1,-7.577882E-2,-3.3625357E-2,8.639213E-1,4.5973525E0,-1.0346092E0,-2.771096E-1,-1.0046071E-2,4.1241474E0,-2.7975747E-2,-2.2225966E-1,6.8785185E-1,-4.3538633E-1,-2.5841659E-2,5.018182E-3,-4.591098E-2,1.6532589E-2,7.7076764E-3,3.7514247E-2,4.9526278E-2,-8.457131E-3,1.3493359E-1,5.8825493E-2,4.3533098E-2,-3.528648E-2,2.538246E-2,-0E0,4.044655E-2,1.695545E-2,1.3016592E-2,5.4324087E-2],"split_indices":[2,26,0,6,22,3,5,0,16,0,27,22,3,24,0,5,25,24,3,0,27,0,0,22,15,0,0,0,0,0,0,0,0,0,0,0,0,0,0,0,0,0,0],"split_type":[0,0,0,0,0,0,0,0,0,0,0,0,0,0,0,0,0,0,0,0,0,0,0,0,0,0,0,0,0,0,0,0,0,0,0,0,0,0,0,0,0,0,0],"sum_hessian":[1.0992755E4,8.395435E3,2.5973203E3,8.063817E3,3.3161758E2,7.474595E3,5.892214E2,2.5742828E2,7.4189316E1,5.699718E1,7.417598E3,3.4675226E2,2.4246912E2,4.4275966E0,6.976173E1,6.9289707E3,4.8862732E2,1.1350845E2,2.3324379E2,1.907344E1,2.2339568E2,1.1898279E0,3.237769E0,5.464437E1,1.51173525E1,6.04501E3,8.8396106E2,4.8564542E2,2.9819298E0,3.3876606E1,7.963184E1,6.4501143E0,2.2679369E2,9.492716E0,9.580725E0,2.1512756E2,8.2681055E0,1.0089585E0,2.2288103E0,4.487466E1,9.769711E0,