{"learner":{"attributes":{"scikit_learn":"{\"_estimator_type\": \"classifier\"}"},"feature_names":[],"feature_types":[],"gradient_booster":{"model":{"gbtree_model_param":{"num_parallel_tree":"1","num_trees":"300"},"iteration_indptr":[0,1,2,3,4,5,6,7,8,9,10,11,12,13,14,15,16,17,18,19,20,21,22,23,24,25,26,27,28,29,30,31,32,33,34,35,36,37,38,39,40,41,42,43,44,45,46,47,48,49,50,51,52,53,54,55,56,57,58,59,60,61,62,63,64,65,66,67,68,69,70,71,72,73,74,75,76,77,78,79,80,81,82,83,84,85,86,87,88,89,90,91,92,93,94,95,96,97,98,99,100,101,102,103,104,105,106,107,108,109,110,111,112,113,114,115,116,117,118,119,120,121,122,123,124,125,126,127,128,129,130,131,132,133,134,135,136,137,138,139,140,141,142,143,144,145,146,147,148,149,150,151,152,153,154,155,156,157,158,159,160,161,162,163,164,165,166,167,168,169,170,171,172,173,174,175,176,177,178,179,180,181,182,183,184,185,186,187,188,189,190,191,192,193,194,195,196,197,198,199,200,201,202,203,204,205,206,207,208,209,210,211,212,213,214,215,216,217,218,219,220,221,222,223,224,225,226,227,228,229,230,231,232,233,234,235,236,237,238,239,240,241,242,243,244,245,246,247,248,249,250,251,252,253,254,255,256,257,258,259,260,261,262,263,264,265,266,267,268,269,270,271,272,273,274,275,276,277,278,279,280,281,282,283,284,285,286,287,288,289,290,291,292,293,294,295,296,297,298,299,300],"tree_info":[0,0,0,0,0,0,0,0,0,0,0,0,0,0,0,0,0,0,0,0,0,0,0,0,0,0,0,0,0,0,0,0,0,0,0,0,0,0,0,0,0,0,0,0,0,0,0,0,0,0,0,0,0,0,0,0,0,0,0,0,0,0,0,0,0,0,0,0,0,0,0,0,0,0,0,0,0,0,0,0,0,0,0,0,0,0,0,0,0,0,0,0,0,0,0,0,0,0,0,0,0,0,0,0,0,0,0,0,0,0,0,0,0,0,0,0,0,0,0,0,0,0,0,0,0,0,0,0,0,0,0,0,0,0,0,0,0,0,0,0,0,0,0,0,0,0,0,0,0,0,0,0,0,0,0,0,0,0,0,0,0,0,0,0,0,0,0,0,0,0,0,0,0,0,0,0,0,0,0,0,0,0,0,0,0,0,0,0,0,0,0,0,0,0,0,0,0,0,0,0,0,0,0,0,0,0,0,0,0,0,0,0,0,0,0,0,0,0,0,0,0,0,0,0,0,0,0,0,0,0,0,0,0,0,0,0,0,0,0,0,0,0,0,0,0,0,0,0,0,0,0,0,0,0,0,0,0,0,0,0,0,0,0,0,0,0,0,0,0,0,0,0,0,0,0,0,0,0,0,0,0,0,0,0,0,0,0,0,0,0,0,0,0,0,0,0,0,0,0,0],"trees":[{"base_weights":[2.6031415E-9,-1.892531E0,1.997837E-1,1.9708803E-1,-1.9359261E0,-1.9620616E0,1.9524866E-1,-1.9660631E0,1.4983886E0,-1.9698989E0,2.9618666E-1,2.211986E-2,1.7021352E-1,-1.9915855E-1,-1.7799524E0,-1.6378725E-1,1.7225507E-1,-1.8041801E0,1.617557E-1,-1.8524116E-1,-6.446346E-2],"categories":[],"categories_nodes":[],"categories_segments":[],"categories_sizes":[],"default_left":[0,0,0,0,0,0,0,0,0,0,0,0,0,0,0,0,0,0,0,0,0],"id":0,"left_children":[1,3,-1,-1,5,7,-1,9,11,13,15,-1,-1,-1,17,-1,-1,19,-1,-1,-1],"loss_changes":[4.8225266E4,1.1019434E3,0E0,0E0,6.6213477E2,9.2052734E1,0E0,5.636133E1,1.7052727E0,2.2890625E1,3.523569E1,0E0,0E0,0E0,5.782202E1,0E0,0E0,3.5871094E1,0E0,0E0,0E0],"parents":[2147483647,0,0,1,1,4,4,5,5,7,7,8,8,9,9,10,10,14,14,17,17],"right_children":[2,4,-1,-1,6,8,-1,10,12,14,16,-1,-1,-1,18,-1,-1,20,-1,-1,-1],"split_conditions":[-3.6598212E-1,1.4482929E-1,1.997837E-1,1.9708803E-1,2.5628886E0,1.6175891E0,1.9524866E-1,1.6608939E0,-8.339002E-2,4.9447984E-1,4.9447984E-1,2.211986E-2,1.7021352E-1,-1.9915855E-1,7.0254087E0,-1.6378725E-1,1.7225507E-1,-5.3810038E-2,1.617557E-1,-1.8524116E-1,-6.446346E-2],"split_indices":[2,11,0,0,14,3,0,16,0,3,3,0,0,0,26,0,0,0,0,0,0],"split_type":[0,0,0,0,0,0,0,0,0,0,0,0,0,0,0,0,0,0,0,0,0],"sum_hessian":[1.2752739E4,6.5489946E3,6.2037446E3,7.224994E1,6.4767446E3,6.4339946E3,4.2749966E1,6.4269946E3,6.9999943E0,6.4162446E3,1.0749991E1,1.2499989E0,5.749995E0,5.750245E3,6.6599945E2,4.499996E0,6.2499948E0,6.6174945E2,4.2499967E0,6.3474945E2,2.6999977E1],"tree_param":{"num_deleted":"0","num_feature":"30","num_nodes":"21","size_leaf_vector":"1"}},{"base_weights":[6.442446E-5,-1.7201653E0,1.8171044E-1,1.7945223E-1,-1.759633E0,-1.7834175E0,1.7790939E-1,-1.7870913E0,1.3802316E0,-1.7905865E0,2.6913866E-1,1.6008452E-2,1.5825641E-1,-1.8106039E-1,-1.6155621E0,-1.5122293E-1,1.5847316E-1,-1.6378108E0,1.4949672E-1,-1.7403267E-1,-1.12965025E-1],"categories":[],"categories_nodes":[],"categories_segments":[],"categories_sizes":[],"default_left":[0,0,0,0,0,0,0,0,0,0,0,0,0,0,0,0,0,0,0,0,0],"id":1,"left_children":[1,3,-1,-1,5,7,-1,9,11,13,15,-1,-1,-1,17,-1,-1,19,-1,-1,-1],"loss_changes":[3.947764E4,9.03125E2,0E0,0E0,5.432051E2,7.655078E1,0E0,4.6242188E1,1.7111626E0,1.9341797E1,2.9753975E1,0E0,0E0,0E0,4.8237183E1,0E0,0E0,3.228186E1,0E0,0E0,0E0],"parents":[2147483647,0,0,1,1,4,4,5,5,7,7,8,8,9,9,10,10,14,14,17,17],"right_children":[2,4,-1,-1,6,8,-1,10,12,14,16,-1,-1,-1,18,-1,-1,20,-1,-1,-1],"split_conditions":[-3.6598212E-1,1.4482929E-1,1.8171044E-1,1.7945223E-1,2.5628886E0,1.6175891E0,1.7790939E-1,1.6608939E0,-9.3059886E-1,4.9447984E-1,4.9447984E-1,1.6008452E-2,1.5825641E-1,-1.8106039E-1,7.0254087E0,-1.5122293E-1,1.5847316E-1,7.326973E-1,1.4949672E-1,-1.7403267E-1,-1.12965025E-1],"split_indices":[2,11,0,0,14,3,0,16,24,3,3,0,0,0,26,0,0,16,0,0,0],"split_type":[0,0,0,0,0,0,0,0,0,0,0,0,0,0,0,0,0,0,0,0,0],"sum_hessian":[1.2627912E4,6.486788E3,6.141124E3,7.1539894E1,6.415248E3,6.3729106E3,4.2337517E1,6.365953E3,6.957475E0,6.3552793E3,1.0673503E1,1.2444049E0,5.71307E0,5.694642E3,6.606376E2,4.470624E0,6.202879E0,6.564159E2,4.221689E0,5.442039E2,1.1221198E2],"tree_param":{"num_deleted":"0","num_feature":"30","num_nodes":"21","size_leaf_vector":"1"}},{"base_weights":[1.2803958E-4,-1.5898923E0,1.681302E-1,1.6611436E-1,-1.6263939E0,-1.6484069E0,1.6473828E-1,-1.6518484E0,1.2818401E0,-1.6555265E0,4.6540476E-2,1.2125136E-2,1.4799614E-1,-1.6743957E-1,-1.4910809E0,-1.4825171E-1,1.4288647E-1,-1.5106488E0,1.378134E-1,-1.6448176E-1,-1.176252E-1],"categories":[],"categories_nodes":[],"categories_segments":[],"categories_sizes":[],"default_left":[0,0,0,0,0,0,0,0,0,0,0,0,0,0,0,0,0,0,0,0,0],"id":2,"left_children":[1,3,-1,-1,5,7,-1,9,11,13,15,-1,-1,-1,17,-1,-1,19,-1,-1,-1],"loss_changes":[3.289941E4,7.533076E2,0E0,0E0,4.5352344E2,6.478711E1,0E0,3.8853516E1,1.6262684E0,1.6722656E1,3.252656E1,0E0,0E0,0E0,3.8390747E1,0E0,0E0,2.6904907E1,0E0,0E0,0E0],"parents":[2147483647,0,0,1,1,4,4,5,5,7,7,8,8,9,9,10,10,14,14,17,17],"right_children":[2,4,-1,-1,6,8,-1,10,12,14,16,-1,-1,-1,18,-1,-1,20,-1,-1,-1],"split_conditions":[-3.6598212E-1,1.4482929E-1,1.681302E-1,1.6611436E-1,2.5628886E0,1.6175891E0,1.6473828E-1,1.6236086E0,-4.929237E-1,4.9447984E-1,4.9447984E-1,1.2125136E-2,1.4799614E-1,-1.6743957E-1,7.0254087E0,-1.4825171E-1,1.4288647E-1,-1.0113801E-1,1.378134E-1,-1.6448176E-1,-1.176252E-1],"split_indices":[2,11,0,0,14,3,0,16,15,3,3,0,0,0,26,0,0,0,0,0,0],"split_type":[0,0,0,0,0,0,0,0,0,0,0,0,0,0,0,0,0,0,0,0,0],"sum_hessian":[1.2305581E4,6.3242695E3,5.9813115E3,6.97244E1,6.2545454E3,6.2132637E3,4.12816E1,6.2064106E3,6.8530755E0,6.193024E3,1.3386582E1,1.2343425E0,5.618733E0,5.54732E3,6.457043E2,6.3215356E0,7.0650463E0,6.418007E2,3.903551E0,4.5523126E2,1.8656946E2],"tree_param":{"num_deleted":"0","num_feature":"30","num_nodes":"21","size_leaf_vector":"1"}},{"base_weights":[1.9215033E-4,-1.4880524E0,1.5758301E-1,1.556947E-1,-1.5222368E0,-1.5428692E0,1.5440863E-1,-1.5461414E0,1.1986089E0,-1.5492167E0,2.3468891E-1,1.0061464E-2,1.3915448E-1,-1.56841E-1,-1.3833929E0,-1.3209422E-1,1.3869151E-1,-1.434857E0,-2.6355982E-1,-1.4483032E-1,1.1841779E-1,1.144344E-1,-8.8885866E-2],"categories":[],"categories_nodes":[],"categories_segments":[],"categories_sizes":[],"default_left":[0,0,0,0,0,0,0,0,0,0,0,0,0,0,0,0,0,0,0,0,0,0,0],"id":3,"left_children":[1,3,-1,-1,5,7,-1,9,11,13,15,-1,-1,-1,17,-1,-1,19,21,-1,-1,-1,-1],"loss_changes":[2.7787496E4,6.3670605E2,0E0,0E0,3.8367285E2,5.55625E1,0E0,3.3115234E1,1.4913692E0,1.6833008E1,2.1868643E1,0E0,0E0,0E0,3.5803223E1,0E0,0E0,2.284436E1,2.6379892E1,0E0,0E0,0E0,0E0],"parents":[2147483647,0,0,1,1,4,4,5,5,7,7,8,8,9,9,10,10,14,14,17,17,18,18],"right_children":[2,4,-1,-1,6,8,-1,10,12,14,16,-1,-1,-1,18,-1,-1,20,22,-1,-1,-1,-1],"split_conditions":[-3.6598212E-1,1.4482929E-1,1.5758301E-1,1.556947E-1,2.5628886E0,1.6175891E0,1.5440863E-1,1.6608939E0,-9.3059886E-1,4.9447984E-1,4.9447984E-1,1.0061464E-2,1.3915448E-1,-1.56841E-1,-5.3810038E-2,-1.3209422E-1,1.3869151E-1,7.0254087E0,8.4790784E-1,-1.4483032E-1,1.1841779E-1,1.144344E-1,-8.8885866E-2],"split_indices":[2,11,0,0,14,3,0,16,24,3,3,0,0,0,0,0,0,26,22,0,0,0,0],"split_type":[0,0,0,0,0,0,0,0,0,0,0,0,0,0,0,0,0,0,0,0,0,0,0],"sum_hessian":[1.1848009E4,6.093008E3,5.755001E3,6.714879E1,6.025859E3,5.9860776E3,3.9781696E1,5.9793765E3,6.700897E0,5.969198E3,1.0178405E1,1.2288775E0,5.4720197E0,5.342389E3,6.268088E2,4.2687287E0,5.9096756E0,5.989993E2,2.7809479E1,5.963845E2,2.6148224E0,8.297348E0,1.951213E1],"tree_param":{"num_deleted":"0","num_feature":"30","num_nodes":"23","size_leaf_vector":"1"}},{"base_weights":[2.7118923E-4,-1.4063262E0,1.4918394E-1,1.4734921E-1,-1.4386529E0,-1.4581815E0,1.4610386E-1,-1.4613286E0,1.1272286E0,-1.4646583E0,4.295674E-2,5.3733834E-3,1.324044E-1,-1.4837854E-1,-1.3006265E0,-1.3154383E-1,1.2610011E-1,-1.3504769E0,-2.6137227E-1,-1.364818E-1,1.1699066E-1,-1.10659E-1,1.3380644E-1],"categories":[],"categories_nodes":[],"categories_segments":[],"categories_sizes":[],"default_left":[0,0,0,0,0,0,0,0,0,0,0,0,0,0,0,0,0,0,0,0,0,0,0],"id":4,"left_children":[1,3,-1,-1,5,7,-1,9,11,13,15,-1,-1,-1,17,-1,-1,19,21,-1,-1,-1,-1],"loss_changes":[2.3714871E4,5.436904E2,0E0,0E0,3.2792285E2,4.815039E1,0E0,2.8658203E1,1.5162325E0,1.5941406E1,2.412733E1,0E0,0E0,0E0,3.0884338E1,0E0,0E0,2.2384155E1,4.046625E1,0E0,0E0,0E0,0E0],"parents":[2147483647,0,0,1,1,4,4,5,5,7,7,8,8,9,9,10,10,14,14,17,17,18,18],"right_children":[2,4,-1,-1,6,8,-1,10,12,14,16,-1,-1,-1,18,-1,-1,20,22,-1,-1,-1,-1],"split_conditions":[-3.6598212E-1,1.4482929E-1,1.4918394E-1,1.4734921E-1,2.5628886E0,1.6175891E0,1.4610386E-1,1.6236086E0,5.106427E-1,4.9447984E-1,4.9447984E-1,5.3733834E-3,1.324044E-1,-1.4837854E-1,2.0189479E-2,-1.3154383E-1,1.2610011E-1,7.0254087E0,-1.0113801E-1,-1.364818E-1,1.1699066E-1,-1.10659E-1,1.3380644E-1],"split_indices":[2,11,0,0,14,3,0,16,16,3,3,0,0,0,6,0,0,26,0,0,0,0,0],"split_type":[0,0,0,0,0,0,0,0,0,0,0,0,0,0,0,0,0,0,0,0,0,0,0],"sum_hessian":[1.1301366E4,5.8163843E3,5.484982E3,6.4070885E1,5.7523135E3,5.714326E3,3.798732E1,5.707813E3,6.5131407E0,5.6952334E3,1.2579575E1,1.2063471E0,5.306793E0,5.093282E3,6.0195123E2,5.909351E0,6.670223E0,5.7411304E2,2.7838202E1,5.713207E2,2.792356E0,1.841499E1,9.423211E0],"tree_param":{"num_deleted":"0","num_feature":"30","num_nodes":"23","size_leaf_vector":"1"}},{"base_weights":[3.5040916E-4,-1.3393288E0,1.4236356E-1,1.4053093E-1,-1.3701336E0,-1.3887608E0,1.3929215E-1,-1.3918158E0,1.0643191E0,-1.3950288E0,3.958148E-2,4.100825E-3,1.2587333E-1,-1.4148568E-1,-1.2268213E0,-1.2507242E-1,1.1903665E-1,-1.3589501E0,-7.9610646E-1,6.0572296E-2,-1.369931E-1,-3.8333517E-2,-1.4803767E-1],"categories":[],"categories_nodes":[],"categories_segments":[],"categories_sizes":[],"default_left":[0,0,0,0,0,0,0,0,0,0,0,0,0,0,0,0,0,0,0,0,0,0,0],"id":5,"left_children":[1,3,-1,-1,5,7,-1,9,11,13,15,-1,-1,-1,17,-1,-1,19,21,-1,-1,-1,-1],"loss_changes":[2.040675E4,4.6804785E2,0E0,0E0,2.8256055E2,4.2072266E1,0E0,2.49375E1,1.4014025E0,1.6268555E1,2.0924723E1,0E0,0E0,0E0,3.1739868E1,0E0,0E0,1.0320679E1,3.835479E1,0E0,0E0,0E0,0E0],"parents":[2147483647,0,0,1,1,4,4,5,5,7,7,8,8,9,9,10,10,14,14,17,17,18,18],"right_children":[2,4,-1,-1,6,8,-1,10,12,14,16,-1,-1,-1,18,-1,-1,20,22,-1,-1,-1,-1],"split_conditions":[-3.6598212E-1,1.4482929E-1,1.4236356E-1,1.4053093E-1,2.5628886E0,1.6175891E0,1.3929215E-1,1.6236086E0,-8.339002E-2,4.9447984E-1,4.9447984E-1,4.100825E-3,1.2587333E-1,-1.4148568E-1,-9.522201E-2,-1.2507242E-1,1.1903665E-1,9.8981863E-1,6.2811475E0,6.0572296E-2,-1.369931E-1,-3.8333517E-2,-1.4803767E-1],"split_indices":[2,11,0,0,14,3,0,16,0,3,3,0,0,0,0,0,0,5,27,0,0,0,0],"split_type":[0,0,0,0,0,0,0,0,0,0,0,0,0,0,0,0,0,0,0,0,0,0,0],"sum_hessian":[1.0700397E4,5.5121235E3,5.188274E3,6.068409E1,5.4514395E3,5.4154287E3,3.601098E1,5.409125E3,6.3035917E0,5.3970356E3,1.2089345E1,1.1997201E0,5.1038713E0,4.8213027E3,5.757328E2,5.6582484E0,6.431097E0,4.3892905E2,1.3680373E2,2.138556E0,4.367905E2,8.6303314E1,5.050041E1],"tree_param":{"num_deleted":"0","num_feature":"30","num_nodes":"23","size_leaf_vector":"1"}},{"base_weights":[4.026585E-4,-1.283401E0,1.3673794E-1,1.3486879E-1,-1.3129345E0,-1.3308117E0,1.3361122E-1,-1.3337991E0,1.0087411E0,-1.357846E-1,-1.1348604E0,1.1082035E-3,1.20744064E-1,-1.1934285E0,6.0028845E-1,1.0553422E0,-1.2121038E0,-6.044066E-1,1.505931E-1,4.0586542E-2,1.6136913E-1,-1.321414E-1,-8.4040254E-2,4.2096383E-4,-1.15264356E-1],"categories":[],"categories_nodes":[],"categories_segments":[],"categories_sizes":[],"default_left":[0,0,0,0,0,0,0,0,0,0,0,0,0,0,0,0,0,0,0,0,0,0,0,0,0],"id":6,"left_children":[1,3,-1,-1,5,7,-1,9,11,-1,13,-1,-1,15,17,19,21,23,-1,-1,-1,-1,-1,-1,-1],"loss_changes":[1.7677799E4,4.055752E2,0E0,0E0,2.4507812E2,3.7015625E1,0E0,2.2844727E1,1.3897257E0,0E0,5.7199646E1,0E0,0E0,2.3873047E1,2.1435982E1,1.1457686E0,2.0587158E1,2.936862E0,0E0,0E0,0E0,0E0,0E0,0E0,0E0],"parents":[2147483647,0,0,1,1,4,4,5,5,7,7,8,8,10,10,13,13,14,14,15,15,16,16,17,17],"right_children":[2,4,-1,-1,6,8,-1,10,12,-1,14,-1,-1,16,18,20,22,24,-1,-1,-1,-1,-1,-1,-1],"split_conditions":[-3.6598212E-1,1.4482929E-1,1.3673794E-1,1.3486879E-1,2.5628886E0,1.6175891E0,1.3361122E-1,4.9447984E-1,-9.3059886E-1,-1.357846E-1,2.0193921E-1,1.1082035E-3,1.20744064E-1,9.8981863E-1,2.0189479E-2,-3.1055474E-1,-9.522201E-2,6.2811475E0,1.505931E-1,4.0586542E-2,1.6136913E-1,-1.321414E-1,-8.4040254E-2,4.2096383E-4,-1.15264356E-1],"split_indices":[2,11,0,0,14,3,0,3,24,0,15,0,0,5,6,15,0,27,0,0,0,0,0,0,0],"split_type":[0,0,0,0,0,0,0,0,0,0,0,0,0,0,0,0,0,0,0,0,0,0,0,0,0],"sum_hessian":[1.0071222E4,5.193644E3,4.8775776E3,5.7133312E1,5.1365107E3,5.102573E3,3.393717E1,5.0964956E3,6.0780177E0,4.5416914E3,5.548041E2,1.1848296E0,4.893188E0,5.369907E2,1.7813337E1,3.9656293E0,5.330251E2,7.787262E0,1.0026074E1,2.631522E0,1.3341073E0,4.0992047E2,1.23104645E2,4.160677E0,3.6265852E0],"tree_param":{"num_deleted":"0","num_feature":"30","num_nodes":"25","size_leaf_vector":"1"}},{"base_weights":[4.880807E-4,-1.2360948E0,1.3203828E-1,1.3010155E-1,-1.2645558E0,-1.281803E0,1.2880526E-1,-1.2847434E0,9.585991E-1,-1.3099155E-1,-1.0793662E0,-1.408389E-3,1.1603039E-1,-1.1577752E0,1.7755868E-1,-1.1719221E0,1.14077054E-1,1.2094172E0,-5.6149E-1,-1.20895326E-1,-3.4297336E-2,1.593045E-1,-9.9303976E-2,-7.6464474E-2,1.4125954E-1],"categories":[],"categories_nodes":[],"categories_segments":[],"categories_sizes":[],"default_left":[0,0,0,0,0,0,0,0,0,0,0,0,0,0,0,0,0,0,0,0,0,0,0,0,0],"id":7,"left_children":[1,3,-1,-1,5,7,-1,9,11,-1,13,-1,-1,15,17,19,-1,21,23,-1,-1,-1,-1,-1,-1],"loss_changes":[1.5397922E4,3.5335742E2,0E0,0E0,2.1373047E2,3.2756348E1,0E0,2.329541E1,1.3592973E0,0E0,5.2195618E1,0E0,0E0,1.748767E1,2.4962143E1,1.4753967E1,0E0,1.3077919E1,8.794958E0,0E0,0E0,0E0,0E0,0E0,0E0],"parents":[2147483647,0,0,1,1,4,4,5,5,7,7,8,8,10,10,13,13,14,14,15,15,17,17,18,18],"right_children":[2,4,-1,-1,6,8,-1,10,12,-1,14,-1,-1,16,18,20,-1,22,24,-1,-1,-1,-1,-1,-1],"split_conditions":[-3.6598212E-1,1.4482929E-1,1.3203828E-1,1.3010155E-1,2.5628886E0,1.6175891E0,1.2880526E-1,4.9447984E-1,5.106427E-1,-1.3099155E-1,-5.3810038E-2,-1.408389E-3,1.1603039E-1,7.0254087E0,8.4790784E-1,-1.3710573E-1,1.14077054E-1,6.2811475E0,5.397271E0,-1.20895326E-1,-3.4297336E-2,1.593045E-1,-9.9303976E-2,-7.6464474E-2,1.4125954E-1],"split_indices":[2,11,0,0,14,3,0,3,16,0,0,0,0,26,22,21,0,27,25,0,0,0,0,0,0],"split_type":[0,0,0,0,0,0,0,0,0,0,0,0,0,0,0,0,0,0,0,0,0,0,0,0,0],"sum_hessian":[9.43208E3,4.8697617E3,4.5623184E3,5.3526424E1,4.8162354E3,4.7844067E3,3.1828943E1,4.7785615E3,5.8450165E0,4.252034E3,5.2652747E2,1.1636605E0,4.6813564E0,4.9568475E2,3.0842731E1,4.9313977E2,2.544992E0,1.2605918E1,1.8236814E1,4.7161325E2,2.1526506E1,1.0971568E1,1.6343503E0,1.7090658E1,1.1461549E0],"tree_param":{"num_deleted":"0","num_feature":"30","num_nodes":"25","size_leaf_vector":"1"}},{"base_weights":[5.8689126E-4,-1.195582E0,1.2807062E-1,1.2603976E-1,-1.2231271E0,-1.2398392E0,1.2468815E-1,-1.2691976E-1,-1.0066729E0,-1.0958904E0,2.6495826E-1,-1.2269552E0,-7.544228E-1,6.8572015E-1,-1.2684183E-1,6.0460974E-2,-1.2403616E0,-8.60082E-1,1.2088748E0,1.3963051E0,-1.910005E-1,-1.2479478E-1,5.01371E-2,-5.698452E-2,-1.2766345E-1,1.719785E-1,8.87671E-3,1.4685641E-1,4.2866886E-2,-4.2089354E-2,5.6526598E-2],"categories":[],"categories_nodes":[],"categories_segments":[],"categories_sizes":[],"default_left":[0,0,0,0,0,0,0,0,0,0,0,0,0,0,0,0,0,0,0,0,0,0,0,0,0,0,0,0,0,0,0],"id":8,"left_children":[1,3,-1,-1,5,7,-1,-1,9,11,13,15,17,19,-1,-1,21,23,25,27,29,-1,-1,-1,-1,-1,-1,-1,-1,-1,-1],"loss_changes":[1.347357E4,3.0926318E2,0E0,0E0,1.8725146E2,2.931543E1,0E0,0E0,5.75394E1,2.0186035E1,2.2733675E1,9.081055E0,2.871994E1,1.7236893E1,0E0,0E0,5.0805054E0,1.4651665E1,3.9849825E0,4.308815E-1,2.5110025E0,0E0,0E0,0E0,0E0,0E0,0E0,0E0,0E0,0E0,0E0],"parents":[2147483647,0,0,1,1,4,4,5,5,8,8,9,9,10,10,11,11,12,12,13,13,16,16,17,17,18,18,19,19,20,20],"right_children":[2,4,-1,-1,6,8,-1,-1,10,12,14,16,18,20,-1,-1,22,24,26,28,30,-1,-1,-1,-1,-1,-1,-1,-1,-1,-1],"split_conditions":[-3.6598212E-1,1.4482929E-1,1.2807062E-1,1.2603976E-1,2.5628886E0,4.9447984E-1,1.2468815E-1,-1.2691976E-1,-5.3810038E-2,-1.0113801E-1,6.2811475E0,9.8981863E-1,-1.3710573E-1,1.0483268E0,-1.2684183E-1,6.0460974E-2,1.4927167E0,6.2811475E0,-1.982388E-2,8.4790784E-1,1.4461247E0,-1.2479478E-1,5.01371E-2,-5.698452E-2,-1.2766345E-1,1.719785E-1,8.87671E-3,1.4685641E-1,4.2866886E-2,-4.2089354E-2,5.6526598E-2],"split_indices":[2,11,0,0,14,3,0,0,0,0,27,5,21,22,0,0,6,27,24,22,24,0,0,0,0,0,0,0,0,0,0],"split_type":[0,0,0,0,0,0,0,0,0,0,0,0,0,0,0,0,0,0,0,0,0,0,0,0,0,0,0,0,0,0,0],"sum_hessian":[8.797131E3,4.5477183E3,4.249412E3,4.9942852E1,4.4977754E3,4.4680425E3,2.9732868E1,3.9644312E3,5.0361115E2,4.7072342E2,3.2887714E1,3.382865E2,1.3243694E2,2.624016E1,6.647554E0,2.1377122E0,3.3614877E2,1.26206764E2,6.230172E0,1.4165959E1,1.2074202E1,3.3497327E2,1.1755008E0,7.577668E1,5.043008E1,3.910924E0,2.3192484E0,1.2699903E1,1.4660565E0,9.599548E0,2.4746525E0],"tree_param":{"num_deleted":"0","num_feature":"30","num_nodes":"31","size_leaf_vector":"1"}},{"base_weights":[6.614314E-4,-1.1604365E0,1.2469118E-1,1.22542255E-1,-1.1871874E0,-1.2034385E0,1.2112069E-1,-1.2342471E-1,-9.627059E-1,-1.0708315E0,3.67453E-2,-1.0875268E0,1.1375381E-1,6.661364E-1,-1.204057E-1,8.562338E-1,-1.1035428E0,9.8220366E-1,-3.3314034E-1,1.0439491E-1,1.8051762E-2,-1.1524313E-1,-4.743332E-2,-3.5495862E-2,1.3306867E-1,-6.088802E-2,7.462186E-2],"categories":[],"categories_nodes":[],"categories_segments":[],"categories_sizes":[],"default_left":[0,0,0,0,0,0,0,0,0,0,0,0,0,0,0,0,0,0,0,0,0,0,0,0,0,0,0],"id":9,"left_children":[1,3,-1,-1,5,7,-1,-1,9,11,13,15,-1,17,-1,19,21,23,25,-1,-1,-1,-1,-1,-1,-1,-1],"loss_changes":[1.1835174E4,2.7169434E2,0E0,0E0,1.6468066E2,2.9665527E1,0E0,0E0,5.1536743E1,1.709262E1,3.788771E1,1.424823E1,0E0,1.0481492E1,0E0,3.2594562E-1,1.2504578E1,1.1971767E1,2.9758675E0,0E0,0E0,0E0,0E0,0E0,0E0,0E0,0E0],"parents":[2147483647,0,0,1,1,4,4,5,5,8,8,9,9,10,10,11,11,13,13,15,15,16,16,17,17,18,18],"right_children":[2,4,-1,-1,6,8,-1,-1,10,12,14,16,-1,18,-1,20,22,24,26,-1,-1,-1,-1,-1,-1,-1,-1],"split_conditions":[-3.6598212E-1,1.4482929E-1,1.2469118E-1,1.22542255E-1,2.5628886E0,4.9447984E-1,1.2112069E-1,-1.2342471E-1,4.059852E-2,7.0254087E0,6.2811475E0,9.8981863E-1,1.1375381E-1,8.4790784E-1,-1.204057E-1,4.4212127E-1,-7.155803E-2,8.816314E-1,-6.48207E-3,1.0439491E-1,1.8051762E-2,-1.1524313E-1,-4.743332E-2,-3.5495862E-2,1.3306867E-1,-6.088802E-2,7.462186E-2],"split_indices":[2,11,0,0,14,3,0,0,15,26,27,5,0,22,0,22,0,16,0,0,0,0,0,0,0,0,0],"split_type":[0,0,0,0,0,0,0,0,0,0,0,0,0,0,0,0,0,0,0,0,0,0,0,0,0,0,0],"sum_hessian":[8.1770044E3,4.233156E3,3.9438489E3,4.6440147E1,4.186716E3,4.159033E3,2.7682701E1,3.683498E3,4.7553485E2,4.2904697E2,4.6487865E1,4.2633145E2,2.7155185E0,3.1150211E1,1.5337655E1,3.0554075E0,4.2327606E2,2.3678028E1,7.4721828E0,1.9646671E0,1.0907403E0,3.9198773E2,3.1288301E1,4.891251E0,1.8786777E1,6.2989106E0,1.173272E0],"tree_param":{"num_deleted":"0","num_feature":"30","num_nodes":"27","size_leaf_vector":"1"}},{"base_weights":[7.4469624E-4,-1.129577E0,1.2179115E-1,1.1950149E-1,-1.1556319E0,-1.1714821E0,1.1799671E-1,-1.20396614E-1,-9.2210585E-1,-1.1236168E0,-3.944408E-1,-1.1384938E0,3.15966E-1,2.1483577E-3,-1.2119522E0,4.839596E-1,-1.1514391E0,-7.037566E-2,9.794612E-2,1.1378647E0,-3.3697477E-1,2.9189805E-2,-1.2597293E-1,6.093504E-2,1.3093123E-2,-1.1599956E-1,3.1794302E-2,2.3282603E-3,1.4243264E-1,-7.312623E-2,1.1773086E-2],"categories":[],"categories_nodes":[],"categories_segments":[],"categories_sizes":[],"default_left":[0,0,0,0,0,0,0,0,0,0,0,0,0,0,0,0,0,0,0,0,0,0,0,0,0,0,0,0,0,0,0],"id":10,"left_children":[1,3,-1,-1,5,7,-1,-1,9,11,13,15,17,19,21,23,25,-1,-1,27,29,-1,-1,-1,-1,-1,-1,-1,-1,-1,-1],"loss_changes":[1.0429472E4,2.3944482E2,0E0,0E0,1.4529688E2,3.0172852E1,0E0,0E0,4.733539E1,7.3120117E0,4.076248E1,7.31015E0,3.46543E0,3.3371426E1,3.3184242E0,6.404346E-2,4.3829346E0,0E0,0E0,6.327894E0,1.2049303E1,0E0,0E0,0E0,0E0,0E0,0E0,0E0,0E0,0E0,0E0],"parents":[2147483647,0,0,1,1,4,4,5,5,8,8,9,9,10,10,11,11,12,12,13,13,14,14,15,15,16,16,19,19,20,20],"right_children":[2,4,-1,-1,6,8,-1,-1,10,12,14,16,18,20,22,24,26,-1,-1,28,30,-1,-1,-1,-1,-1,-1,-1,-1,-1,-1],"split_conditions":[-3.6598212E-1,1.4482929E-1,1.2179115E-1,1.1950149E-1,2.5628886E0,4.9447984E-1,1.1799671E-1,-1.20396614E-1,-9.522201E-2,1.881685E-1,6.2811475E0,9.8981863E-1,2.0189479E-2,5.7697105E-1,-8.217413E-1,-1.30718E-1,1.1982112E0,-7.037566E-2,9.794612E-2,-8.339002E-2,7.5279E-1,2.9189805E-2,-1.2597293E-1,6.093504E-2,1.3093123E-2,-1.1599956E-1,3.1794302E-2,2.3282603E-3,1.4243264E-1,-7.312623E-2,1.1773086E-2],"split_indices":[2,11,0,0,14,3,0,0,0,15,27,5,6,22,24,0,6,0,0,0,16,0,0,0,0,0,0,0,0,0,0],"split_type":[0,0,0,0,0,0,0,0,0,0,0,0,0,0,0,0,0,0,0,0,0,0,0,0,0,0,0,0,0,0,0],"sum_hessian":[7.5787144E3,3.9295813E3,3.6491328E3,4.3058853E1,3.8865225E3,3.86082E3,2.5702364E1,3.4124795E3,4.483407E2,3.2362247E2,1.2471821E2,3.2051932E2,3.1031716E0,8.465025E1,4.0067955E1,2.2491028E0,3.182702E2,1.199297E0,1.9038746E0,1.8922817E1,6.572744E1,1.0764219E0,3.899153E1,1.1238577E0,1.1252451E0,3.166369E2,1.633294E0,4.090098E0,1.4832719E1,3.48767E1,3.0850737E1],"tree_param":{"num_deleted":"0","num_feature":"30","num_nodes":"31","size_leaf_vector":"1"}},{"base_weights":[8.161821E-4,-1.1022798E0,1.1928656E-1,1.1683404E-1,-1.1277208E0,-1.1432203E0,1.152335E-1,-1.1775034E-1,-8.8489604E-1,-1.0895075E0,-3.6867082E-1,-1.1246586E0,-4.1401538E-1,2.7401303E-3,-1.1747371E0,2.9226942E-2,-1.1358052E0,-8.2379574E-1,9.07467E-1,1.0517268E0,-3.096954E-1,2.9221727E-2,-1.2244501E-1,-1.16928354E-1,-9.865702E-2,-1.0223172E-1,-1.2198764E-2,2.7549976E-2,1.0254019E-1,2.1399574E-3,1.3229707E-1,-6.8369366E-2,1.0588066E-2],"categories":[],"categories_nodes":[],"categories_segments":[],"categories_sizes":[],"default_left":[0,0,0,0,0,0,0,0,0,0,0,0,0,0,0,0,0,0,0,0,0,0,0,0,0,0,0,0,0,0,0,0,0],"id":11,"left_children":[1,3,-1,-1,5,7,-1,-1,9,11,13,15,17,19,21,-1,23,25,27,29,31,-1,-1,-1,-1,-1,-1,-1,-1,-1,-1,-1,-1],"loss_changes":[9.216343E3,2.1160547E2,0E0,0E0,1.2855713E2,3.063379E1,0E0,0E0,4.4286255E1,6.7164307E0,3.640909E1,4.863739E0,9.706535E0,2.7935846E1,3.155239E0,0E0,2.698059E-1,1.7077389E0,4.4823647E-2,5.4383316E0,1.0281158E1,0E0,0E0,0E0,0E0,0E0,0E0,0E0,0E0,0E0,0E0,0E0,0E0],"parents":[2147483647,0,0,1,1,4,4,5,5,8,8,9,9,10,10,11,11,12,12,13,13,14,14,16,16,17,17,18,18,19,19,20,20],"right_children":[2,4,-1,-1,6,8,-1,-1,10,12,14,16,18,20,22,-1,24,26,28,30,32,-1,-1,-1,-1,-1,-1,-1,-1,-1,-1,-1,-1],"split_conditions":[-3.6598212E-1,1.4482929E-1,1.1928656E-1,1.1683404E-1,2.5628886E0,4.9447984E-1,1.152335E-1,-1.1775034E-1,-9.522201E-2,2.0189479E-2,6.2811475E0,9.8981863E-1,-1.07054E-1,5.7697105E-1,-1.9253887E-1,2.9226942E-2,3.085086E-1,-6.040262E-1,-1.0113801E-1,-8.339002E-2,7.5279E-1,2.9221727E-2,-1.2244501E-1,-1.16928354E-1,-9.865702E-2,-1.0223172E-1,-1.2198764E-2,2.7549976E-2,1.0254019E-1,2.1399574E-3,1.3229707E-1,-6.8369366E-2,1.0588066E-2],"split_indices":[2,11,0,0,14,3,0,0,0,6,27,5,0,22,22,0,22,24,0,0,16,0,0,0,0,0,0,0,0,0,0,0,0],"split_type":[0,0,0,0,0,0,0,0,0,0,0,0,0,0,0,0,0,0,0,0,0,0,0,0,0,0,0,0,0,0,0,0,0],"sum_hessian":[7.0069194E3,3.6392834E3,3.3676362E3,3.982658E1,3.5994568E3,3.5756487E3,2.3808168E1,3.1535698E3,4.220787E2,3.0147525E2,1.2060345E2,2.8593106E2,1.55441885E1,8.324382E1,3.735963E1,2.0349398E0,2.8389612E2,1.2152435E1,3.3917534E0,1.8560762E1,6.468305E1,1.0646715E0,3.629496E1,2.2629544E2,5.760068E1,9.116849E0,3.0355864E0,1.0580585E0,2.333695E0,4.0928497E0,1.4467914E1,3.3705013E1,3.0978043E1],"tree_param":{"num_deleted":"0","num_feature":"30","num_nodes":"33","size_leaf_vector":"1"}},{"base_weights":[8.6301216E-4,-1.0778679E0,1.1711152E-1,1.1447387E-1,-1.1027607E0,-1.1179502E0,1.1276548E-1,-1.1541881E-1,-8.503215E-1,-1.0585535E0,-3.4470087E-1,-1.0949244E0,-3.86342E-1,3.2717083E-3,-1.1417377E0,2.7097905E-2,-1.1065533E0,-7.870522E-1,8.4040344E-1,9.532336E-1,-2.9098874E-1,2.7878815E-2,-1.19332545E-1,-1.1422092E-1,-9.501823E-2,-9.880393E-2,-1.1332389E-2,2.5941739E-2,9.4900236E-2,1.9669493E-3,1.19495586E-1,-6.933789E-2,4.281133E-3],"categories":[],"categories_nodes":[],"categories_segments":[],"categories_sizes":[],"default_left":[0,0,0,0,0,0,0,0,0,0,0,0,0,0,0,0,0,0,0,0,0,0,0,0,0,0,0,0,0,0,0,0,0],"id":12,"left_children":[1,3,-1,-1,5,7,-1,-1,9,11,13,15,17,19,21,-1,23,25,27,29,31,-1,-1,-1,-1,-1,-1,-1,-1,-1,-1,-1,-1],"loss_changes":[8.1636973E3,1.8743823E2,0E0,0E0,1.140188E2,3.1083008E1,0E0,0E0,4.154837E1,6.4589844E0,3.262136E1,4.532715E0,8.523359E0,2.3440348E1,2.9520454E0,0E0,3.890686E-1,1.5904155E0,3.2785416E-2,4.451599E0,8.630223E0,0E0,0E0,0E0,0E0,0E0,0E0,0E0,0E0,0E0,0E0,0E0,0E0],"parents":[2147483647,0,0,1,1,4,4,5,5,8,8,9,9,10,10,11,11,12,12,13,13,14,14,16,16,17,17,18,18,19,19,20,20],"right_children":[2,4,-1,-1,6,8,-1,-1,10,12,14,16,18,20,22,-1,24,26,28,30,32,-1,-1,-1,-1,-1,-1,-1,-1,-1,-1,-1,-1],"split_conditions":[-3.6598212E-1,1.4482929E-1,1.1711152E-1,1.1447387E-1,2.5628886E0,4.9447984E-1,1.1276548E-1,-1.1541881E-1,-9.522201E-2,2.0189479E-2,6.2811475E0,9.8981863E-1,-1.07054E-1,6.1408573E-1,-8.217413E-1,2.7097905E-2,3.085086E-1,-6.040262E-1,-1.0113801E-1,-8.339002E-2,6.432126E-1,2.7878815E-2,-1.19332545E-1,-1.1422092E-1,-9.501823E-2,-9.880393E-2,-1.1332389E-2,2.5941739E-2,9.4900236E-2,1.9669493E-3,1.19495586E-1,-6.933789E-2,4.281133E-3],"split_indices":[2,11,0,0,14,3,0,0,0,6,27,5,0,22,24,0,22,24,0,0,16,0,0,0,0,0,0,0,0,0,0,0,0],"split_type":[0,0,0,0,0,0,0,0,0,0,0,0,0,0,0,0,0,0,0,0,0,0,0,0,0,0,0,0,0,0,0,0,0],"sum_hessian":[6.4648726E3,3.36402E3,3.1008528E3,3.6760902E1,3.327259E3,3.3052485E3,2.2010551E1,2.9081604E3,3.9708823E2,2.804824E2,1.1660584E2,2.6548886E2,1.4993504E1,8.186214E1,3.474371E1,2.0529325E0,2.6343594E2,1.1571993E1,3.4215107E0,1.883089E1,6.3031242E1,1.0631982E0,3.368051E1,2.0938678E2,5.4049168E1,8.553717E0,3.0182755E0,1.0725127E0,2.3489978E0,4.095374E0,1.4735517E1,2.8090914E1,3.494033E1],"tree_param":{"num_deleted":"0","num_feature":"30","num_nodes":"33","size_leaf_vector":"1"}},{"base_weights":[9.115748E-4,-1.0557817E0,1.15213625E-1,1.1236804E-1,-1.08018E0,-1.0950931E0,1.1053991E-1,-1.1334821E-1,-8.175939E-1,-1.0628126E0,-3.8633493E-1,4.107489E-1,-1.0789965E0,-5.3267E-2,-1.1282523E0,7.921954E-3,5.526582E-2,-1.0889003E0,5.396933E-2,-2.6220286E-1,1.1974537E0,2.7899751E-2,-1.1706755E-1,-1.1298591E-1,-9.569995E-2,-3.491926E-2,1.3879867E-1,3.3706255E-2,1.2396977E-1],"categories":[],"categories_nodes":[],"categories_segments":[],"categories_sizes":[],"default_left":[0,0,0,0,0,0,0,0,0,0,0,0,0,0,0,0,0,0,0,0,0,0,0,0,0,0,0,0,0],"id":13,"left_children":[1,3,-1,-1,5,7,-1,-1,9,11,13,15,17,19,21,-1,-1,23,-1,25,27,-1,-1,-1,-1,-1,-1,-1,-1],"loss_changes":[7.2457383E3,1.6635645E2,0E0,0E0,1.01331055E2,3.1580078E1,0E0,0E0,3.9185547E1,6.1220703E0,3.386708E1,1.1200017E-1,4.3680115E0,2.5350252E1,2.8632622E0,0E0,0E0,1.8673706E-1,0E0,1.2386845E1,8.7120056E-2,0E0,0E0,0E0,0E0,0E0,0E0,0E0,0E0],"parents":[2147483647,0,0,1,1,4,4,5,5,8,8,9,9,10,10,11,11,12,12,13,13,14,14,17,17,19,19,20,20],"right_children":[2,4,-1,-1,6,8,-1,-1,10,12,14,16,18,20,22,-1,-1,24,-1,26,28,-1,-1,-1,-1,-1,-1,-1,-1],"split_conditions":[-3.6598212E-1,1.4482929E-1,1.15213625E-1,1.1236804E-1,2.5628886E0,4.9447984E-1,1.1053991E-1,-1.1334821E-1,-1.0113801E-1,9.8981863E-1,6.2811475E0,-5.654991E-1,1.4927167E0,2.0189479E-2,-1.9253887E-1,7.921954E-3,5.526582E-2,-1.18885994E-1,5.396933E-2,5.397271E0,-2.1930172E0,2.7899751E-2,-1.1706755E-1,-1.1298591E-1,-9.569995E-2,-3.491926E-2,1.3879867E-1,3.3706255E-2,1.2396977E-1],"split_indices":[2,11,0,0,14,3,0,0,0,5,27,15,6,6,22,0,0,0,0,25,22,0,0,0,0,0,0,0,0],"split_type":[0,0,0,0,0,0,0,0,0,0,0,0,0,0,0,0,0,0,0,0,0,0,0,0,0,0,0,0,0],"sum_hessian":[5.9542593E3,3.104638E3,2.8496216E3,3.3871784E1,3.070766E3,3.0504507E3,2.0315517E1,2.6770288E3,3.7342172E2,2.3712521E2,1.3629651E2,2.3111813E0,2.3481403E2,9.4806816E1,4.1489697E1,1.1598271E0,1.1513543E0,2.337114E2,1.1026374E0,8.191335E1,1.2893461E1,1.0509627E0,4.0438732E1,1.7256061E2,6.115079E1,7.856043E1,3.3529196E0,1.0236443E0,1.1869817E1],"tree_param":{"num_deleted":"0","num_feature":"30","num_nodes":"29","size_leaf_vector":"1"}},{"base_weights":[1.0210938E-3,-1.0354854E0,1.135506E-1,1.1047341E-1,-1.0594323E0,-1.0740961E0,1.0851375E-1,-1.1149476E-1,-7.8546697E-1,-1.0370132E0,-3.6046627E-1,3.863727E-1,-1.0539756E0,-4.599073E-2,-1.1026254E0,5.256902E-2,6.800221E-3,-1.0643753E0,5.0609417E-2,-2.3864067E-1,1.1295011E0,2.6609143E-2,-1.14704125E-1,-1.1082555E-1,-9.253272E-2,-3.2012317E-2,1.2762816E-1,3.218826E-2,1.1694576E-1],"categories":[],"categories_nodes":[],"categories_segments":[],"categories_sizes":[],"default_left":[0,0,0,0,0,0,0,0,0,0,0,0,0,0,0,0,0,0,0,0,0,0,0,0,0,0,0,0,0],"id":14,"left_children":[1,3,-1,-1,5,7,-1,-1,9,11,13,15,17,19,21,-1,-1,23,-1,25,27,-1,-1,-1,-1,-1,-1,-1,-1],"loss_changes":[6.441318E3,1.4787744E2,0E0,0E0,9.02041E1,3.2287598E1,0E0,0E0,3.7269516E1,5.7348633E0,3.086217E1,1.1196938E-1,4.0809174E0,2.1573517E1,2.6990318E0,0E0,0E0,2.9977417E-1,0E0,1.0487827E1,5.6669235E-2,0E0,0E0,0E0,0E0,0E0,0E0,0E0,0E0],"parents":[2147483647,0,0,1,1,4,4,5,5,8,8,9,9,10,10,11,11,12,12,13,13,14,14,17,17,19,19,20,20],"right_children":[2,4,-1,-1,6,8,-1,-1,10,12,14,16,18,20,22,-1,-1,24,-1,26,28,-1,-1,-1,-1,-1,-1,-1,-1],"split_conditions":[-3.6598212E-1,1.4482929E-1,1.135506E-1,1.1047341E-1,2.5628886E0,4.9447984E-1,1.0851375E-1,-1.1149476E-1,-1.0113801E-1,9.8981863E-1,6.2811475E0,-1.30718E-1,1.4927167E0,2.0189479E-2,-8.217413E-1,5.256902E-2,6.800221E-3,-1.18885994E-1,5.0609417E-2,5.397271E0,-2.1930172E0,2.6609143E-2,-1.14704125E-1,-1.1082555E-1,-9.253272E-2,-3.2012317E-2,1.2762816E-1,3.218826E-2,1.1694576E-1],"split_indices":[2,11,0,0,14,3,0,0,0,5,27,0,6,6,24,0,0,0,0,25,22,0,0,0,0,0,0,0,0],"split_type":[0,0,0,0,0,0,0,0,0,0,0,0,0,0,0,0,0,0,0,0,0,0,0,0,0,0,0,0,0],"sum_hessian":[5.4757725E3,2.8614946E3,2.6142776E3,3.1163464E1,2.830331E3,2.8116055E3,1.8725655E1,2.4604937E3,3.511117E2,2.1966058E2,1.3145111E2,2.3303769E0,2.173302E2,9.307455E1,3.837657E1,1.1680521E0,1.1623248E0,2.1620668E2,1.1235284E0,8.065335E1,1.2421193E1,1.0493392E0,3.7327232E1,1.5904547E2,5.716121E1,7.728513E1,3.3682163E0,1.0124711E0,1.1408722E1],"tree_param":{"num_deleted":"0","num_feature":"30","num_nodes":"29","size_leaf_vector":"1"}},{"base_weights":[1.1366593E-3,-1.016722E0,1.1208805E-1,1.0875435E-1,-1.040253E0,-1.0546906E0,1.0665136E-1,-1.09822355E-1,-7.545126E-1,-9.785607E-1,-2.713584E-1,-1.0193467E0,-2.9049802E-1,1.8979136E-2,-1.0606254E0,2.0739768E-2,-1.0325714E0,-8.8741785E-1,3.9413077E-1,-2.2775155E-1,8.7008935E-1,2.6624633E-2,-1.12017766E-1,-1.0758605E-1,-8.540102E-2,-1.02810515E-2,-9.938151E-2,-2.1267518E-2,6.5046325E-2,-4.9121648E-2,2.3863148E-2,-3.8426634E-2,1.0921037E-1],"categories":[],"categories_nodes":[],"categories_segments":[],"categories_sizes":[],"default_left":[0,0,0,0,0,0,0,0,0,0,0,0,0,0,0,0,0,0,0,0,0,0,0,0,0,0,0,0,0,0,0,0,0],"id":15,"left_children":[1,3,-1,-1,5,7,-1,-1,9,11,13,15,17,19,21,-1,23,25,27,29,31,-1,-1,-1,-1,-1,-1,-1,-1,-1,-1,-1,-1],"loss_changes":[5.734486E3,1.3163501E2,0E0,0E0,8.0420166E1,3.3012695E1,0E0,0E0,3.558661E1,6.0430603E0,2.4381556E1,3.667282E0,6.087125E0,1.6725355E1,2.5587578E0,0E0,7.102356E-1,5.495987E-1,1.2631735E0,7.7118545E0,5.4032173E0,0E0,0E0,0E0,0E0,0E0,0E0,0E0,0E0,0E0,0E0,0E0,0E0],"parents":[2147483647,0,0,1,1,4,4,5,5,8,8,9,9,10,10,11,11,12,12,13,13,14,14,16,16,17,17,18,18,19,19,20,20],"right_children":[2,4,-1,-1,6,8,-1,-1,10,12,14,16,18,20,22,-1,24,26,28,30,32,-1,-1,-1,-1,-1,-1,-1,-1,-1,-1,-1,-1],"split_conditions":[-3.6598212E-1,1.4482929E-1,1.1208805E-1,1.0875435E-1,2.5628886E0,4.9447984E-1,1.0665136E-1,-1.09822355E-1,-9.522201E-2,2.0189479E-2,6.2811475E0,9.8981863E-1,-1.2480199E-1,1.2474092E0,-1.9253887E-1,2.0739768E-2,3.085086E-1,-9.3935543E-1,-2.1992855E-1,-7.719693E-2,-8.339002E-2,2.6624633E-2,-1.12017766E-1,-1.0758605E-1,-8.540102E-2,-1.02810515E-2,-9.938151E-2,-2.1267518E-2,6.5046325E-2,-4.9121648E-2,2.3863148E-2,-3.8426634E-2,1.0921037E-1],"split_indices":[2,11,0,0,14,3,0,0,0,6,27,5,0,4,22,0,22,15,15,15,0,0,0,0,0,0,0,0,0,0,0,0,0],"split_type":[0,0,0,0,0,0,0,0,0,0,0,0,0,0,0,0,0,0,0,0,0,0,0,0,0,0,0,0,0,0,0,0,0],"sum_hessian":[5.0293945E3,2.6346042E3,2.3947903E3,2.8635805E1,2.6059685E3,2.5887273E3,1.724103E1,2.258529E3,3.3019843E2,2.2488808E2,1.0531035E2,2.118489E2,1.3039168E1,7.770278E1,2.760757E1,2.1028547E0,2.0974606E2,6.8075457E0,6.2316227E0,6.0807526E1,1.6895254E1,1.0367664E0,2.6570805E1,1.6477423E2,4.497182E1,1.0477065E0,5.759839E0,1.90123E0,4.330393E0,3.882283E1,2.1984694E1,2.430784E0,1.446447E1],"tree_param":{"num_deleted":"0","num_feature":"30","num_nodes":"33","size_leaf_vector":"1"}},{"base_weights":[1.1808145E-3,-9.992864E-1,1.1079758E-1,1.0718113E-1,-1.0224307E0,-1.0366609E0,1.04923E-1,-1.0830083E-1,-7.253576E-1,-9.899375E-1,-3.1384456E-1,3.4440425E-1,-1.0086268E0,-3.215398E-2,-1.0589976E0,3.9698663E-3,4.912635E-2,-1.0202179E0,4.779182E-2,-2.0123795E-1,1.0372618E0,2.5379563E-2,-1.1081531E-1,-1.07084714E-1,-8.651182E-2,-2.758835E-2,1.1584359E-1,4.955887E-2,1.15813844E-1],"categories":[],"categories_nodes":[],"categories_segments":[],"categories_sizes":[],"default_left":[0,0,0,0,0,0,0,0,0,0,0,0,0,0,0,0,0,0,0,0,0,0,0,0,0,0,0,0,0],"id":16,"left_children":[1,3,-1,-1,5,7,-1,-1,9,11,13,15,17,19,21,-1,-1,23,-1,25,27,-1,-1,-1,-1,-1,-1,-1,-1],"loss_changes":[5.1120684E3,1.1732617E2,0E0,0E0,7.17959E1,3.3591797E1,0E0,0E0,3.363669E1,5.0684357E0,2.588473E1,1.3087246E-1,3.708908E0,1.65979E1,2.4651375E0,0E0,0E0,5.3279114E-1,0E0,8.347826E0,2.4688148E-1,0E0,0E0,0E0,0E0,0E0,0E0,0E0,0E0],"parents":[2147483647,0,0,1,1,4,4,5,5,8,8,9,9,10,10,11,11,12,12,13,13,14,14,17,17,19,19,20,20],"right_children":[2,4,-1,-1,6,8,-1,-1,10,12,14,16,18,20,22,-1,-1,24,-1,26,28,-1,-1,-1,-1,-1,-1,-1,-1],"split_conditions":[-3.6598212E-1,1.4482929E-1,1.1079758E-1,1.0718113E-1,2.5628886E0,4.9447984E-1,1.04923E-1,-1.0830083E-1,-1.0113801E-1,9.8981863E-1,6.2811475E0,-5.654991E-1,1.4927167E0,2.0189479E-2,-8.217413E-1,3.9698663E-3,4.912635E-2,-1.18885994E-1,4.779182E-2,5.397271E0,-8.930602E-2,2.5379563E-2,-1.1081531E-1,-1.07084714E-1,-8.651182E-2,-2.758835E-2,1.1584359E-1,4.955887E-2,1.15813844E-1],"split_indices":[2,11,0,0,14,3,0,0,0,5,27,15,6,6,24,0,0,0,0,25,0,0,0,0,0,0,0,0,0],"split_type":[0,0,0,0,0,0,0,0,0,0,0,0,0,0,0,0,0,0,0,0,0,0,0,0,0,0,0,0,0],"sum_hessian":[4.614647E3,2.4237966E3,2.19085E3,2.6285591E1,2.3975112E3,2.3816514E3,1.5859869E1,2.0708586E3,3.1079254E2,1.883125E2,1.2248002E2,2.3604226E0,1.8595209E2,8.9637474E1,3.2842545E1,1.1808001E0,1.1796227E0,1.8482465E2,1.127445E0,7.810087E1,1.1536604E1,1.035097E0,3.1807447E1,1.3488864E2,4.9936E1,7.479192E1,3.3089519E0,3.0351992E0,8.501405E0],"tree_param":{"num_deleted":"0","num_feature":"30","num_nodes":"29","size_leaf_vector":"1"}},{"base_weights":[1.3206305E-3,-9.8272514E-1,1.0965561E-1,1.0572865E-1,-1.0055064E0,-1.0195451E0,1.03303544E-1,-1.0690466E-1,-6.960248E-1,-9.674578E-1,-2.9183915E-1,3.2435605E-1,-9.8708045E-1,-2.6408117E-2,-1.0390217E0,4.7346223E-2,2.596716E-3,-9.992697E-1,4.4870596E-2,-1.8253885E-1,9.8794776E-1,2.539948E-2,-1.0911268E-1,-1.0538727E-1,-8.354473E-2,-2.5218034E-2,1.07748866E-1,4.595306E-2,1.1142557E-1],"categories":[],"categories_nodes":[],"categories_segments":[],"categories_sizes":[],"default_left":[0,0,0,0,0,0,0,0,0,0,0,0,0,0,0,0,0,0,0,0,0,0,0,0,0,0,0,0,0],"id":17,"left_children":[1,3,-1,-1,5,7,-1,-1,9,11,13,15,17,19,21,-1,-1,23,-1,25,27,-1,-1,-1,-1,-1,-1,-1,-1],"loss_changes":[4.5613457E3,1.0466675E2,0E0,0E0,6.416162E1,3.4337646E1,0E0,0E0,3.1924683E1,4.761093E0,2.3647434E1,1.3782215E-1,3.4729156E0,1.4292734E1,2.3835297E0,0E0,0E0,6.552124E-1,0E0,7.1221085E0,2.916994E-1,0E0,0E0,0E0,0E0,0E0,0E0,0E0,0E0],"parents":[2147483647,0,0,1,1,4,4,5,5,8,8,9,9,10,10,11,11,12,12,13,13,14,14,17,17,19,19,20,20],"right_children":[2,4,-1,-1,6,8,-1,-1,10,12,14,16,18,20,22,-1,-1,24,-1,26,28,-1,-1,-1,-1,-1,-1,-1,-1],"split_conditions":[-3.6598212E-1,1.4482929E-1,1.0965561E-1,1.0572865E-1,2.5628886E0,4.9447984E-1,1.03303544E-1,-1.0690466E-1,-1.0113801E-1,9.8981863E-1,6.2811475E0,-1.30718E-1,1.4927167E0,2.0189479E-2,-1.9253887E-1,4.7346223E-2,2.596716E-3,-1.18885994E-1,4.4870596E-2,5.397271E0,-8.930602E-2,2.539948E-2,-1.0911268E-1,-1.0538727E-1,-8.354473E-2,-2.5218034E-2,1.07748866E-1,4.595306E-2,1.1142557E-1],"split_indices":[2,11,0,0,14,3,0,0,0,5,27,0,6,6,22,0,0,0,0,25,0,0,0,0,0,0,0,0,0],"split_type":[0,0,0,0,0,0,0,0,0,0,0,0,0,0,0,0,0,0,0,0,0,0,0,0,0,0,0,0,0],"sum_hessian":[4.2302393E3,2.22828E3,2.0019594E3,2.410735E1,2.2041726E3,2.1895935E3,1.4579029E1,1.8970267E3,2.9256683E2,1.7419301E2,1.1837384E2,2.3740418E0,1.7181897E2,8.8109085E1,3.0264751E1,1.1917771E0,1.1822646E0,1.7067404E2,1.1449294E0,7.706691E1,1.1042176E1,1.0222551E0,2.9242496E1,1.2393335E2,4.6740685E1,7.37885E1,3.2784157E0,3.0250144E0,8.017161E0],"tree_param":{"num_deleted":"0","num_feature":"30","num_nodes":"29","size_leaf_vector":"1"}},{"base_weights":[1.467806E-3,-9.669082E-1,1.0864244E-1,1.04375444E-1,-9.893444E-1,-1.0032041E0,1.0177161E-1,-1.05611935E-1,-6.672763E-1,-9.455514E-1,-2.7101728E-1,3.055331E-1,-9.6615297E-1,-2.1230316E-2,-1.0202799E0,1.6462175E-3,4.5499794E-2,-9.78969E-1,4.214316E-2,-3.2912877E-1,4.407161E-1,2.420785E-2,-1.0752361E-1,-1.0378938E-1,-8.060899E-2,-4.148923E-2,1.09966576E-1,7.685747E-2,-3.0061726E-2],"categories":[],"categories_nodes":[],"categories_segments":[],"categories_sizes":[],"default_left":[0,0,0,0,0,0,0,0,0,0,0,0,0,0,0,0,0,0,0,0,0,0,0,0,0,0,0,0,0],"id":18,"left_children":[1,3,-1,-1,5,7,-1,-1,9,11,13,15,17,19,21,-1,-1,23,-1,25,27,-1,-1,-1,-1,-1,-1,-1,-1],"loss_changes":[4.0734534E3,9.344885E1,0E0,0E0,5.7392944E1,3.5079712E1,0E0,0E0,3.0251816E1,4.4739532E0,2.1602377E1,1.3881648E-1,3.2533417E0,1.2615084E1,2.2628937E0,0E0,0E0,7.7882385E-1,0E0,6.9729714E0,8.8575735E0,0E0,0E0,0E0,0E0,0E0,0E0,0E0,0E0],"parents":[2147483647,0,0,1,1,4,4,5,5,8,8,9,9,10,10,11,11,12,12,13,13,14,14,17,17,19,19,20,20],"right_children":[2,4,-1,-1,6,8,-1,-1,10,12,14,16,18,20,22,-1,-1,24,-1,26,28,-1,-1,-1,-1,-1,-1,-1,-1],"split_conditions":[-3.6598212E-1,1.4482929E-1,1.0864244E-1,1.04375444E-1,2.5628886E0,4.9447984E-1,1.0177161E-1,-1.05611935E-1,-1.0113801E-1,9.8981863E-1,6.2811475E0,-5.654991E-1,1.4927167E0,-7.719693E-2,-8.217413E-1,1.6462175E-3,4.5499794E-2,-1.18885994E-1,4.214316E-2,7.0254087E0,8.4790784E-1,2.420785E-2,-1.0752361E-1,-1.0378938E-1,-8.060899E-2,-4.148923E-2,1.09966576E-1,7.685747E-2,-3.0061726E-2],"split_indices":[2,11,0,0,14,3,0,0,0,5,27,15,6,15,24,0,0,0,0,26,22,0,0,0,0,0,0,0,0],"split_type":[0,0,0,0,0,0,0,0,0,0,0,0,0,0,0,0,0,0,0,0,0,0,0,0,0,0,0,0,0],"sum_hessian":[3.8750945E3,2.0476113E3,1.8274832E3,2.2093983E1,2.0255173E3,2.0121229E3,1.33944645E1,1.7364535E3,2.7566946E2,1.611293E2,1.1454015E2,2.3862646E0,1.5874304E2,8.667352E1,2.786663E1,1.1916692E0,1.1945952E0,1.5758206E2,1.1609849E0,5.2181087E1,3.4492435E1,1.0205011E0,2.684613E1,1.1379287E2,4.378919E1,4.9895714E1,2.2853742E0,2.3890146E1,1.060229E1],"tree_param":{"num_deleted":"0","num_feature":"30","num_nodes":"29","size_leaf_vector":"1"}},{"base_weights":[1.5802875E-3,-9.5161784E-1,1.0774139E-1,1.03103034E-1,-9.7371984E-1,-1.04403675E-1,-5.6158465E-1,-7.4950945E-1,2.8994945E-1,-9.6808815E-1,-4.802596E-1,5.418805E-1,-8.2741475E-1,2.4667276E-2,-9.845022E-1,-2.690074E-1,-1.0626115E-1,1.1327469E-1,1.4430407E-1,2.055688E-2,-9.832564E-2,-1.0118548E0,-2.9792544E-1,-4.8312035E-1,2.457449E-1,-6.594076E-2,8.959308E-2,-1.0308059E-1,-5.499785E-2,2.5566308E-2,-6.656551E-2,-5.4102134E-2,9.982156E-2,3.5669833E-2,-4.8422378E-2,-1.8315634E-2,1.0423197E-1],"categories":[],"categories_nodes":[],"categories_segments":[],"categories_sizes":[],"default_left":[0,0,0,0,0,0,0,0,0,0,0,0,0,0,0,0,0,0,0,0,0,0,0,0,0,0,0,0,0,0,0,0,0,0,0,0,0],"id":19,"left_children":[1,3,-1,-1,5,-1,7,9,11,13,15,17,19,-1,21,23,-1,-1,25,-1,-1,27,29,31,33,35,-1,-1,-1,-1,-1,-1,-1,-1,-1,-1,-1],"loss_changes":[3.6404377E3,8.348584E1,0E0,0E0,5.337561E1,0E0,4.3992516E1,1.2740128E1,1.4573132E1,2.6925201E0,1.2326427E1,9.597105E0,1.751996E0,0E0,1.9787445E0,8.557732E0,0E0,0E0,4.16509E0,0E0,0E0,4.5150757E-1,1.4056954E0,5.2070837E0,2.0481653E0,2.949483E0,0E0,0E0,0E0,0E0,0E0,0E0,0E0,0E0,0E0,0E0,0E0],"parents":[2147483647,0,0,1,1,4,4,6,6,7,7,8,8,9,9,10,10,11,11,12,12,14,14,15,15,18,18,21,21,22,22,23,23,24,24,25,25],"right_children":[2,4,-1,-1,6,-1,8,10,12,14,16,18,20,-1,22,24,-1,-1,26,-1,-1,28,30,32,34,36,-1,-1,-1,-1,-1,-1,-1,-1,-1,-1,-1],"split_conditions":[-3.6598212E-1,1.4482929E-1,1.0774139E-1,1.03103034E-1,4.9447984E-1,-1.04403675E-1,-7.155803E-2,-1.1297E-1,6.2811475E0,9.8981863E-1,6.2811475E0,8.6151654E-1,1.786074E-1,2.4667276E-2,5.8852756E-1,-7.719693E-2,-1.0626115E-1,1.1327469E-1,2.5628886E0,2.055688E-2,-9.832564E-2,3.6977928E-2,-2.1992855E-1,7.0254087E0,5.837974E-1,5.397271E0,8.959308E-2,-1.0308059E-1,-5.499785E-2,2.5566308E-2,-6.656551E-2,-5.4102134E-2,9.982156E-2,3.5669833E-2,-4.8422378E-2,-1.8315634E-2,1.0423197E-1],"split_indices":[2,11,0,0,3,0,0,0,27,5,27,22,22,0,16,15,0,0,14,0,0,21,15,26,1,25,0,0,0,0,0,0,0,0,0,0,0],"split_type":[0,0,0,0,0,0,0,0,0,0,0,0,0,0,0,0,0,0,0,0,0,0,0,0,0,0,0,0,0,0,0,0,0,0,0,0,0],"sum_hessian":[3.547975E3,1.8812693E3,1.6667058E3,2.023738E1,1.8610319E3,1.5884785E3,2.7255338E2,2.2337636E2,4.9177036E1,1.2185677E2,1.0151958E2,4.054943E1,8.627605E0,1.4375774E0,1.204192E2,7.556851E1,2.5951065E1,1.556623E1,2.4983202E1,1.0891534E0,7.538452E0,1.1535E2,5.069197E0,5.341275E1,2.2155762E1,2.0235268E1,4.7479343E0,1.0962041E2,5.729593E0,2.1449275E0,2.9242694E0,5.2014435E1,1.398314E0,1.9676355E1,2.4794064E0,1.9054678E1,1.1805896E0],"tree_param":{"num_deleted":"0","num_feature":"30","num_nodes":"37","size_leaf_vector":"1"}},{"base_weights":[1.6850232E-3,-9.367057E-1,1.06938325E-1,-1.0278114E0,-4.4812945E-1,8.261456E-2,-1.0326326E0,-6.886333E-1,4.3307048E-1,-1.0365305E-1,-8.603242E-1,-9.793338E-1,-4.3603262E-1,6.427198E-1,-7.9028314E-1,-9.0600276E-1,1.196372E-2,2.3143543E-2,-9.9957275E-1,-2.2334018E-1,-1.05580226E-1,1.0874826E-1,2.3414245E-1,1.947209E-2,-9.4832085E-2,-9.5344204E-1,-1.3328753E-1,-1.0186785E0,-1.0246567E-3,-3.307894E-1,6.919054E-1,1.5961783E-2,9.169883E-2,-3.7137095E-2,-9.772409E-2,-5.3880002E-2,2.8591145E-2,-1.0277454E-1,-1.2059803E-2,-4.4053227E-1,2.8533146E-1,-1.0056443E-2,8.5647494E-1,-9.978684E-2,9.998818E-2,-4.8636883E-2,9.5889784E-2,9.421805E-2,-4.9652945E-2,1.349381E-1,4.5402322E-2,1.9813986E-2,-4.430415E-2],"categories":[],"categories_nodes":[],"categories_segments":[],"categories_sizes":[],"default_left":[0,0,0,0,0,0,0,0,0,0,0,0,0,0,0,0,0,0,0,0,0,0,0,0,0,0,0,0,0,0,0,0,0,0,0,0,0,0,0,0,0,0,0,0,0,0,0,0,0,0,0,0,0],"id":20,"left_children":[1,3,-1,5,7,-1,9,11,13,-1,15,17,19,21,23,25,-1,-1,27,29,-1,-1,31,-1,-1,33,35,37,-1,39,41,43,-1,-1,-1,-1,-1,-1,-1,45,47,-1,49,51,-1,-1,-1,-1,-1,-1,-1,-1,-1],"loss_changes":[3.2553667E3,7.651367E1,0E0,1.3873535E1,5.827346E1,0E0,8.4472656E-2,1.5381897E1,1.5708417E1,0E0,1.810852E0,2.664482E0,1.5186621E1,9.039915E0,1.604238E0,1.2092743E0,0E0,0E0,1.8390808E0,8.919579E0,0E0,0E0,4.1468687E0,0E0,0E0,1.1062431E-1,7.1011657E-1,6.576462E-1,0E0,5.5189066E0,1.339201E0,2.6265416E0,0E0,0E0,0E0,0E0,0E0,0E0,0E0,4.834489E0,6.9727964E0,0E0,9.864373E-1,2.21085E0,0E0,0E0,0E0,0E0,0E0,0E0,0E0,0E0,0E0],"parents":[2147483647,0,0,1,1,3,3,4,4,6,6,7,7,8,8,10,10,11,11,12,12,13,13,14,14,15,15,18,18,19,19,22,22,25,25,26,26,27,27,29,29,30,30,31,31,39,39,40,40,42,42,43,43],"right_children":[2,4,-1,6,8,-1,10,12,14,-1,16,18,20,22,24,26,-1,-1,28,30,-1,-1,32,-1,-1,34,36,38,-1,40,42,44,-1,-1,-1,-1,-1,-1,-1,46,48,-1,50,52,-1,-1,-1,-1,-1,-1,-1,-1,-1],"split_conditions":[-3.6598212E-1,4.9447984E-1,1.06938325E-1,1.4482929E-1,6.8248117E-1,8.261456E-2,7.0254087E0,-1.18885994E-1,6.2811475E0,-1.0365305E-1,1.0833862E0,9.8981863E-1,6.2811475E0,8.6151654E-1,1.786074E-1,1.2474092E0,1.196372E-2,2.3143543E-2,5.3529245E-1,-3.4183794E-1,-1.05580226E-1,1.0874826E-1,2.5628886E0,1.947209E-2,-9.4832085E-2,-1.1835065E0,3.2582876E-1,1.1982112E0,-1.0246567E-3,4.059852E-2,-3.0236676E-1,5.397271E0,9.169883E-2,-3.7137095E-2,-9.772409E-2,-5.3880002E-2,2.8591145E-2,-1.0277454E-1,-1.2059803E-2,7.0254087E0,1.0442765E-1,-1.0056443E-2,-1.1460118E-1,8.8121706E-1,9.998818E-2,-4.8636883E-2,9.5889784E-2,9.421805E-2,-4.9652945E-2,1.349381E-1,4.5402322E-2,1.9813986E-2,-4.430415E-2],"split_indices":[2,3,0,11,1,0,26,0,27,0,16,5,27,22,22,4,0,0,16,21,0,0,14,0,0,15,22,6,0,15,15,25,0,0,0,0,0,0,0,26,15,0,15,16,0,0,0,0,0,0,0,0,0],"split_type":[0,0,0,0,0,0,0,0,0,0,0,0,0,0,0,0,0,0,0,0,0,0,0,0,0,0,0,0,0,0,0,0,0,0,0,0,0,0,0,0,0,0,0,0,0,0,0,0,0,0,0,0,0],"sum_hessian":[3.2471348E3,1.7282837E3,1.518851E3,1.4557278E3,2.7255588E2,3.3339136E0,1.4523939E3,2.14289E2,5.8266872E1,1.4153612E3,3.7032677E1,9.8293205E1,1.15995804E2,5.0147575E1,8.119297E0,3.545548E1,1.5772009E0,1.4444705E0,9.684873E1,8.737189E1,2.862391E1,2.3214962E1,2.6932613E1,1.0904866E0,7.0288105E0,3.3184307E1,2.2711694E0,9.4984726E1,1.8640081E0,7.8763664E1,8.608222E0,2.1186535E1,5.746077E0,1.9557291E0,3.1228579E1,1.0094086E0,1.2617607E0,9.3892426E1,1.0922991E0,6.709734E1,1.1666326E1,1.5471216E0,7.0611E0,1.9760489E1,1.4260471E0,6.560111E1,1.4962308E0,6.228583E0,5.4377427E0,2.1162744E0,4.9448256E0,1.0805047E1,8.955441E0],"tree_param":{"num_deleted":"0","num_feature":"30","num_nodes":"53","size_leaf_vector":"1"}},{"base_weights":[1.8288622E-3,-9.216579E-1,1.0622112E-1,-1.0169036E0,-4.2760542E-1,8.077871E-2,-1.0217737E0,-8.1139135E-1,8.7973826E-2,-1.0259844E-1,-8.391024E-1,-8.688336E-1,-6.2101115E-2,2.8369293E-1,-9.329818E-1,-8.871799E-1,1.115684E-2,2.1359475E-1,-8.896311E-1,-7.0402414E-1,4.558532E-1,8.7843364E-1,4.157748E-2,1.7814E-2,-1.0139185E-1,-9.3730104E-1,-1.28784245E-2,-2.6616296E-2,5.3354006E-2,-1.0010966E0,-6.8969834E-1,-5.382614E-3,-8.602101E-2,7.910881E-1,-1.2038211E-2,-2.5118915E-2,9.537634E-1,-4.1715497E-1,3.1827113E-1,-3.546239E-2,-9.625299E-1,-1.0233786E-1,2.5944887E-3,-5.07855E-1,-1.0196727E-1,-8.409069E-3,1.3438052E-1,-7.471624E-2,7.0407696E-2,6.174345E-1,1.0795193E-1,-5.443883E-1,8.940505E-2,1.7494687E-1,9.3457066E-2,-1.0217366E-1,-5.9448328E-2,6.0030635E-2,-5.622455E-2,1.1440527E-1,2.574936E-2,-7.638279E-2,1.581244E-3,7.5769047E-3,1.12930395E-1],"categories":[],"categories_nodes":[],"categories_segments":[],"categories_sizes":[],"default_left":[0,0,0,0,0,0,0,0,0,0,0,0,0,0,0,0,0,0,0,0,0,0,0,0,0,0,0,0,0,0,0,0,0,0,0,0,0,0,0,0,0,0,0,0,0,0,0,0,0,0,0,0,0,0,0,0,0,0,0,0,0,0,0,0,0],"id":21,"left_children":[1,3,-1,5,7,-1,9,11,13,-1,15,17,19,21,23,25,-1,27,29,31,33,35,37,-1,-1,39,-1,-1,-1,41,43,-1,-1,45,47,-1,49,51,53,-1,55,-1,-1,57,-1,-1,-1,-1,-1,59,-1,61,-1,63,-1,-1,-1,-1,-1,-1,-1,-1,-1,-1,-1],"loss_changes":[2.9117283E3,7.435217E1,0E0,1.2659302E1,5.1240723E1,0E0,1.6113281E-1,6.3309402E0,2.2495455E1,0E0,1.7181263E0,3.2899857E0,4.190957E0,1.3516925E1,1.8110504E0,1.1652889E0,0E0,6.6425395E-1,2.3248444E0,5.2145505E-1,1.1151568E0,2.5525913E0,8.756538E0,0E0,0E0,1.2282753E-1,0E0,0E0,0E0,1.9638596E0,2.5811367E0,0E0,0E0,2.1067028E0,2.593511E0,0E0,4.2007256E-1,4.823432E0,3.6300402E0,0E0,3.9377213E-2,0E0,0E0,2.464528E0,0E0,0E0,0E0,0E0,0E0,1.4735408E0,0E0,3.0013986E0,0E0,3.3288932E0,0E0,0E0,0E0,0E0,0E0,0E0,0E0,0E0,0E0,0E0,0E0],"parents":[2147483647,0,0,1,1,3,3,4,4,6,6,7,7,8,8,10,10,11,11,12,12,13,13,14,14,15,15,17,17,18,18,19,19,20,20,21,21,22,22,25,25,29,29,30,30,33,33,34,34,36,36,37,37,38,38,40,40,43,43,49,49,51,51,53,53],"right_children":[2,4,-1,6,8,-1,10,12,14,-1,16,18,20,22,24,26,-1,28,30,32,34,36,38,-1,-1,40,-1,-1,-1,42,44,-1,-1,46,48,-1,50,52,54,-1,56,-1,-1,58,-1,-1,-1,-1,-1,60,-1,62,-1,64,-1,-1,-1,-1,-1,-1,-1,-1,-1,-1,-1],"split_conditions":[-3.6598212E-1,4.9447984E-1,1.0622112E-1,1.4482929E-1,-9.522201E-2,8.077871E-2,7.0254087E0,2.0189479E-2,6.2811475E0,-1.0259844E-1,1.0833862E0,9.8981863E-1,-1.2480199E-1,5.7697105E-1,-8.035984E-1,1.2474092E0,1.115684E-2,-6.110913E-1,-1.18885994E-1,-8.6882704E-1,6.0986304E-1,-8.930602E-2,6.432126E-1,1.7814E-2,-1.0139185E-1,-1.1835065E0,-1.28784245E-2,-2.6616296E-2,5.3354006E-2,5.3529245E-1,6.2811475E0,-5.382614E-3,-8.602101E-2,8.9758873E-1,9.298951E-1,-2.5118915E-2,6.8248117E-1,7.0254087E0,2.5628886E0,-3.546239E-2,-3.0813557E-1,-1.0233786E-1,2.5944887E-3,-8.8278383E-1,-1.0196727E-1,-8.409069E-3,1.3438052E-1,-7.471624E-2,7.0407696E-2,-2.915735E-1,1.0795193E-1,6.8248117E-1,8.940505E-2,5.397271E0,9.3457066E-2,-1.0217366E-1,-5.9448328E-2,6.0030635E-2,-5.622455E-2,1.1440527E-1,2.574936E-2,-7.638279E-2,1.581244E-3,7.5769047E-3,1.12930395E-1],"split_indices":[2,3,0,11,0,0,26,6,27,0,16,5,0,22,24,4,0,15,0,15,16,0,16,0,0,15,0,0,0,16,27,0,0,21,16,0,1,26,14,0,15,0,0,15,0,0,0,0,0,15,0,1,0,25,0,0,0,0,0,0,0,0,0,0,0],"split_type":[0,0,0,0,0,0,0,0,0,0,0,0,0,0,0,0,0,0,0,0,0,0,0,0,0,0,0,0,0,0,0,0,0,0,0,0,0,0,0,0,0,0,0,0,0,0,0,0,0,0,0,0,0,0,0,0,0,0,0,0,0,0,0,0,0],"sum_hessian":[2.9714304E3,1.5883058E3,1.3831245E3,1.3307076E3,2.575981E2,3.1033454E0,1.3276044E3,1.4734442E2,1.10253716E2,1.293179E3,3.4425316E1,1.3670477E2,1.0639636E1,9.312383E1,1.7129883E1,3.283173E1,1.5935864E0,2.4023333E0,1.3430244E2,4.5908093E0,6.0488267E0,2.6181799E1,6.694203E1,1.0815192E0,1.6048365E1,3.0575167E1,2.256562E0,1.0283787E0,1.3739545E0,8.365587E1,5.0646572E1,1.1496162E0,3.441193E0,3.1215482E0,2.9272788E0,1.4908557E0,2.4690943E1,2.4994999E1,4.1947033E1,1.8937627E0,2.8681404E1,8.1882965E1,1.7729063E0,3.4289356E1,1.6357216E1,1.5364982E0,1.5850499E0,1.4230744E0,1.5042044E0,8.327954E0,1.636299E1,2.331722E1,1.6777774E0,3.5074184E1,6.872851E0,2.3176891E1,5.504512E0,1.1346571E0,3.31547E1,2.496686E0,5.831268E0,1.6493114E1,6.8241067E0,3.2750145E1,2.3240378E0],"tree_param":{"num_deleted":"0","num_feature":"30","num_nodes":"65","size_leaf_vector":"1"}},{"base_weights":[1.9484276E-3,-9.068024E-1,1.0557937E-1,-1.0063946E0,-4.077249E-1,7.896599E-2,-1.0113212E0,-7.8701395E-1,8.561861E-2,-1.0158706E-1,-8.1816775E-1,-8.4590507E-1,-5.573952E-2,2.6855817E-1,-9.1409415E-1,-8.6862487E-1,1.04062E-2,1.9998416E-1,-8.675016E-1,-6.8062955E-1,4.2775354E-1,8.421411E-1,4.1666124E-2,1.688608E-2,-9.992674E-2,-9.215629E-1,-1.2083891E-2,-2.531371E-2,5.016421E-2,-9.8789966E-1,-6.5883255E-1,-5.1061073E-3,-8.3978504E-2,7.318035E-1,-1.2230525E-2,-2.3631522E-2,9.177176E-1,-8.663636E-2,9.397828E-2,-3.385122E-2,-9.48277E-1,-1.0119134E-1,2.4250431E-3,-4.7566396E-1,-1.00689605E-1,-7.912866E-3,1.2317591E-1,-7.150384E-2,6.705397E-2,5.6941074E-1,1.06354855E-1,-4.537361E-1,1.608918E-1,-1.0116609E-1,-5.7005096E-2,5.5933114E-2,-5.2953105E-2,1.0541649E-1,2.357643E-2,-5.862696E-2,8.597353E-2,6.82309E-3,1.078553E-1],"categories":[],"categories_nodes":[],"categories_segments":[],"categories_sizes":[],"default_left":[0,0,0,0,0,0,0,0,0,0,0,0,0,0,0,0,0,0,0,0,0,0,0,0,0,0,0,0,0,0,0,0,0,0,0,0,0,0,0,0,0,0,0,0,0,0,0,0,0,0,0,0,0,0,0,0,0,0,0,0,0,0,0],"id":22,"left_children":[1,3,-1,5,7,-1,9,11,13,-1,15,17,19,21,23,25,-1,27,29,31,33,35,37,-1,-1,39,-1,-1,-1,41,43,-1,-1,45,47,-1,49,51,-1,-1,53,-1,-1,55,-1,-1,-1,-1,-1,57,-1,59,61,-1,-1,-1,-1,-1,-1,-1,-1,-1,-1],"loss_changes":[2.605461E3,7.220068E1,0E0,1.1568359E1,4.5856365E1,0E0,2.3571777E-1,5.9149323E0,1.9862377E1,0E0,1.6296921E0,3.065895E0,3.7319856E0,1.1865468E1,1.7201052E0,1.1344509E0,0E0,5.921776E-1,2.5058823E0,4.9356747E-1,9.5004725E-1,2.3252068E0,7.7530155E0,0E0,0E0,1.3441849E-1,0E0,0E0,0E0,1.9124756E0,2.6433907E0,0E0,0E0,1.7907333E0,2.3309112E0,0E0,6.32658E-1,5.449599E0,0E0,0E0,8.024597E-2,0E0,0E0,2.1908379E0,0E0,0E0,0E0,0E0,0E0,1.2631872E0,0E0,4.697783E0,2.994216E0,0E0,0E0,0E0,0E0,0E0,0E0,0E0,0E0,0E0,0E0],"parents":[2147483647,0,0,1,1,3,3,4,4,6,6,7,7,8,8,10,10,11,11,12,12,13,13,14,14,15,15,17,17,18,18,19,19,20,20,21,21,22,22,25,25,29,29,30,30,33,33,34,34,36,36,37,37,40,40,43,43,49,49,51,51,52,52],"right_children":[2,4,-1,6,8,-1,10,12,14,-1,16,18,20,22,24,26,-1,28,30,32,34,36,38,-1,-1,40,-1,-1,-1,42,44,-1,-1,46,48,-1,50,52,-1,-1,54,-1,-1,56,-1,-1,-1,-1,-1,58,-1,60,62,-1,-1,-1,-1,-1,-1,-1,-1,-1,-1],"split_conditions":[-3.6598212E-1,4.9447984E-1,1.0557937E-1,1.4482929E-1,-9.522201E-2,7.896599E-2,7.0254087E0,2.0189479E-2,6.2811475E0,-1.0158706E-1,1.0833862E0,9.8981863E-1,-1.2480199E-1,5.7697105E-1,-8.035984E-1,1.2474092E0,1.04062E-2,-6.110913E-1,-1.18885994E-1,-8.6882704E-1,6.0986304E-1,-8.930602E-2,2.5628886E0,1.688608E-2,-9.992674E-2,-1.1835065E0,-1.2083891E-2,-2.531371E-2,5.016421E-2,5.3529245E-1,6.2811475E0,-5.1061073E-3,-8.3978504E-2,8.9758873E-1,9.298951E-1,-2.3631522E-2,6.8248117E-1,6.432126E-1,9.397828E-2,-3.385122E-2,-3.0813557E-1,-1.0119134E-1,2.4250431E-3,-8.8278383E-1,-1.00689605E-1,-7.912866E-3,1.2317591E-1,-7.150384E-2,6.705397E-2,-2.915735E-1,1.06354855E-1,7.0254087E0,5.397271E0,-1.0116609E-1,-5.7005096E-2,5.5933114E-2,-5.2953105E-2,1.0541649E-1,2.357643E-2,-5.862696E-2,8.597353E-2,6.82309E-3,1.078553E-1],"split_indices":[2,3,0,11,0,0,26,6,27,0,16,5,0,22,24,4,0,15,0,15,16,0,14,0,0,15,0,0,0,16,27,0,0,21,16,0,1,16,0,0,15,0,0,15,0,0,0,0,0,15,0,26,25,0,0,0,0,0,0,0,0,0,0],"split_type":[0,0,0,0,0,0,0,0,0,0,0,0,0,0,0,0,0,0,0,0,0,0,0,0,0,0,0,0,0,0,0,0,0,0,0,0,0,0,0,0,0,0,0,0,0,0,0,0,0,0,0,0,0,0,0,0,0,0,0,0,0,0,0],"sum_hessian":[2.7185889E3,1.4598617E3,1.258727E3,1.2161576E3,2.4370409E2,2.8910506E0,1.2132666E3,1.3744176E2,1.0626233E2,1.1811869E3,3.2079742E1,1.2705314E2,1.0388619E1,9.044328E1,1.5819046E1,3.0470749E1,1.6089939E0,2.4033318E0,1.246498E2,4.3538094E0,6.0348105E0,2.4867254E1,6.557603E1,1.081792E0,1.4737254E1,2.823922E1,2.231529E0,1.0248096E0,1.3785223E0,7.667533E1,4.7974476E1,1.1450763E0,3.2087333E0,3.1764688E0,2.8583415E0,1.4892488E0,2.3378006E1,5.8169613E1,7.4064164E0,1.8361355E0,2.6403084E1,7.489856E1,1.7767692E0,3.298349E1,1.4990984E1,1.5324885E0,1.6439804E0,1.3852142E0,1.4731272E0,8.346817E0,1.5031189E1,2.3091059E1,3.5078552E1,2.1179096E1,5.223988E0,1.167514E0,3.1815975E1,2.522441E0,5.824376E0,2.1477554E1,1.6135058E0,3.283717E1,2.2413826E0],"tree_param":{"num_deleted":"0","num_feature":"30","num_nodes":"63","size_leaf_vector":"1"}},{"base_weights":[2.0804515E-3,-8.920127E-1,1.0500409E-1,-9.9616086E-1,-3.8832998E-1,7.71742E-2,-1.0011513E0,-7.625778E-1,8.361428E-2,-1.00607E-1,-7.970871E-1,-8.227557E-1,-5.0418217E-2,2.5483775E-1,-8.9528716E-1,-8.4993213E-1,9.70767E-3,-6.8667513E-1,-1.044082E-1,-7.9152E-2,3.34198E-1,8.065495E-1,4.213466E-2,1.600688E-2,-9.84869E-2,-9.0577215E-1,-1.1335439E-2,4.907636E-2,-7.2350216E-1,5.702371E-1,-3.1796053E-2,-2.2232352E-2,8.822283E-1,-7.694738E-2,9.250324E-2,-3.2302525E-2,-9.3404377E-1,-9.194085E-1,-4.4447294E-1,-1.2971046E-3,8.7358624E-1,-6.363517E-2,6.389993E-2,5.255057E-1,1.048136E-1,-4.2287442E-1,1.481242E-1,-1.00192964E-1,-5.459688E-2,-9.623573E-2,2.692673E-2,5.2098453E-2,-4.9762268E-2,1.4153856E-4,1.33558E-1,9.733049E-2,2.1586206E-2,-5.503693E-2,8.278583E-2,5.6566812E-2,-5.2249227E-3],"categories":[],"categories_nodes":[],"categories_segments":[],"categories_sizes":[],"default_left":[0,0,0,0,0,0,0,0,0,0,0,0,0,0,0,0,0,0,0,0,0,0,0,0,0,0,0,0,0,0,0,0,0,0,0,0,0,0,0,0,0,0,0,0,0,0,0,0,0,0,0,0,0,0,0,0,0,0,0,0,0],"id":23,"left_children":[1,3,-1,5,7,-1,9,11,13,-1,15,17,19,21,23,25,-1,27,-1,-1,29,31,33,-1,-1,35,-1,-1,37,39,41,-1,43,45,-1,-1,47,49,51,-1,53,-1,-1,55,-1,57,59,-1,-1,-1,-1,-1,-1,-1,-1,-1,-1,-1,-1,-1,-1],"loss_changes":[2.3320725E3,7.006738E1,0E0,1.058606E1,4.099916E1,0E0,3.1176758E-1,5.5024414E0,1.7559929E1,0E0,1.5440407E0,2.873619E0,3.4411883E0,1.0385473E1,1.6339808E0,1.1027374E0,0E0,3.6829147E0,0E0,0E0,7.127024E-1,2.1155586E0,6.919613E0,0E0,0E0,1.4473915E-1,0E0,0E0,3.68145E0,8.854015E-1,2.06909E0,0E0,8.2007027E-1,4.603321E0,0E0,0E0,1.1992645E-1,2.4555702E0,1.9423289E0,0E0,1.3135917E0,0E0,0E0,1.0875502E0,0E0,4.1627097E0,3.0475392E0,0E0,0E0,0E0,0E0,0E0,0E0,0E0,0E0,0E0,0E0,0E0,0E0,0E0,0E0],"parents":[2147483647,0,0,1,1,3,3,4,4,6,6,7,7,8,8,10,10,11,11,12,12,13,13,14,14,15,15,17,17,20,20,21,21,22,22,25,25,28,28,29,29,30,30,32,32,33,33,36,36,37,37,38,38,40,40,43,43,45,45,46,46],"right_children":[2,4,-1,6,8,-1,10,12,14,-1,16,18,20,22,24,26,-1,28,-1,-1,30,32,34,-1,-1,36,-1,-1,38,40,42,-1,44,46,-1,-1,48,50,52,-1,54,-1,-1,56,-1,58,60,-1,-1,-1,-1,-1,-1,-1,-1,-1,-1,-1,-1,-1,-1],"split_conditions":[-3.6598212E-1,4.9447984E-1,1.0500409E-1,1.4482929E-1,-9.522201E-2,7.71742E-2,7.0254087E0,2.0189479E-2,6.2811475E0,-1.00607E-1,1.0833862E0,6.2811475E0,-8.652843E-1,5.7697105E-1,-8.035984E-1,1.2474092E0,9.70767E-3,9.8981863E-1,-1.044082E-1,-7.9152E-2,4.849573E-1,-8.930602E-2,2.5628886E0,1.600688E-2,-9.84869E-2,-1.1835065E0,-1.1335439E-2,4.907636E-2,-1.18885994E-1,-1.18885994E-1,9.298951E-1,-2.2232352E-2,6.8248117E-1,6.432126E-1,9.250324E-2,-3.2302525E-2,-3.0813557E-1,4.849573E-1,-8.8278383E-1,-1.2971046E-3,8.9758873E-1,-6.363517E-2,6.389993E-2,-2.915735E-1,1.048136E-1,7.0254087E0,4.8511365E-1,-1.00192964E-1,-5.459688E-2,-9.623573E-2,2.692673E-2,5.2098453E-2,-4.9762268E-2,1.4153856E-4,1.33558E-1,9.733049E-2,2.1586206E-2,-5.503693E-2,8.278583E-2,5.6566812E-2,-5.2249227E-3],"split_indices":[2,3,0,11,0,0,26,6,27,0,16,27,24,22,24,4,0,5,0,0,16,0,14,0,0,15,0,0,0,0,16,0,1,16,0,0,15,16,15,0,21,0,0,15,0,26,1,0,0,0,0,0,0,0,0,0,0,0,0,0,0],"split_type":[0,0,0,0,0,0,0,0,0,0,0,0,0,0,0,0,0,0,0,0,0,0,0,0,0,0,0,0,0,0,0,0,0,0,0,0,0,0,0,0,0,0,0,0,0,0,0,0,0,0,0,0,0,0,0,0,0,0,0,0,0],"sum_hessian":[2.48694E3,1.3420693E3,1.1448706E3,1.1113037E3,2.3076561E2,2.6956732E0,1.108608E3,1.2836078E2,1.0240483E2,1.0786776E3,2.9930468E1,1.1821614E2,1.0144635E1,8.7788994E1,1.4615844E1,2.8306992E1,1.6234758E0,7.574655E1,4.2469593E1,3.1045852E0,7.04005E0,2.3650957E1,6.413803E1,1.0820043E0,1.3533839E1,2.6098742E1,2.2082512E0,1.9234531E0,7.38231E1,3.9406023E0,3.0994477E0,1.4876914E0,2.2163265E1,5.7319794E1,6.818239E0,1.7825152E0,2.4316225E1,4.2023426E1,3.179967E1,1.6758717E0,2.2647305E0,1.6572211E0,1.4422265E0,8.358624E0,1.3804642E1,2.2247433E1,3.507236E1,1.9349611E1,4.9666147E0,4.0741756E1,1.2816694E0,1.1999809E0,3.059969E1,1.13157E0,1.1331606E0,2.5408309E0,5.8177934E0,2.0697567E1,1.5498675E0,1.0781821E1,2.4290539E1],"tree_param":{"num_deleted":"0","num_feature":"30","num_nodes":"61","size_leaf_vector":"1"}},{"base_weights":[2.2214113E-3,-8.769292E-1,1.0448746E-1,-9.8609215E-1,-3.688108E-1,7.5402044E-2,-9.9115366E-1,-7.376748E-1,8.06771E-2,-9.96474E-2,-7.7581674E-1,-9.160617E-1,-4.6993038E-1,2.4015991E-1,-8.7643665E-1,-8.310363E-1,9.057439E-3,2.1815954E-2,-9.425044E-1,4.313255E-1,-5.83382E-1,7.98582E-2,9.37265E-1,1.5173778E-2,-9.705751E-2,-8.898439E-1,-1.0630791E-2,-9.679973E-1,1.3770614E-3,8.633039E-1,-2.583272E-1,-4.013099E-1,-9.8230116E-2,-1.0631351E-2,9.070372E-2,4.933604E-4,1.0019811E-1,-3.0815108E-2,-9.1973644E-1,-9.7984366E-2,-1.0399085E-2,1.790956E-3,1.3615283E-1,-5.9481878E-2,2.2954525E-2,4.8517194E-2,-4.513688E-1,1.1319884E-1,-6.5563254E-2,-9.924438E-2,-5.222779E-2,-7.371911E-2,-3.3757195E-2,2.7830422E-2,-2.5955541E-2],"categories":[],"categories_nodes":[],"categories_segments":[],"categories_sizes":[],"default_left":[0,0,0,0,0,0,0,0,0,0,0,0,0,0,0,0,0,0,0,0,0,0,0,0,0,0,0,0,0,0,0,0,0,0,0,0,0,0,0,0,0,0,0,0,0,0,0,0,0,0,0,0,0,0,0],"id":24,"left_children":[1,3,-1,5,7,-1,9,11,13,-1,15,17,19,21,23,25,-1,-1,27,29,31,33,35,-1,-1,37,-1,39,-1,41,43,45,-1,47,-1,-1,-1,-1,49,-1,-1,-1,-1,-1,-1,-1,51,-1,53,-1,-1,-1,-1,-1,-1],"loss_changes":[2.0875066E3,6.816876E1,0E0,9.699768E0,3.6551376E1,0E0,3.885498E-1,5.348175E0,1.5491201E1,0E0,1.4609108E0,2.3517609E0,5.4081335E0,9.601789E0,1.5520315E0,1.0700226E0,0E0,0E0,1.7226143E0,2.0741E0,2.890027E0,5.3613043E0,9.662733E-1,0E0,0E0,1.5371323E-1,0E0,5.972748E-1,0E0,1.6817806E0,6.5574294E-1,1.6717758E0,0E0,4.1813693E0,0E0,0E0,0E0,0E0,1.5807915E-1,0E0,0E0,0E0,0E0,0E0,0E0,0E0,7.758994E-1,0E0,4.30012E0,0E0,0E0,0E0,0E0,0E0,0E0],"parents":[2147483647,0,0,1,1,3,3,4,4,6,6,7,7,8,8,10,10,11,11,12,12,13,13,14,14,15,15,18,18,19,19,20,20,21,21,22,22,25,25,27,27,29,29,30,30,31,31,33,33,38,38,46,46,48,48],"right_children":[2,4,-1,6,8,-1,10,12,14,-1,16,18,20,22,24,26,-1,-1,28,30,32,34,36,-1,-1,38,-1,40,-1,42,44,46,-1,48,-1,-1,-1,-1,50,-1,-1,-1,-1,-1,-1,-1,52,-1,54,-1,-1,-1,-1,-1,-1],"split_conditions":[-3.6598212E-1,4.9447984E-1,1.0448746E-1,1.4482929E-1,-9.522201E-2,7.5402044E-2,7.0254087E0,-1.18885994E-1,6.2811475E0,-9.96474E-2,1.0833862E0,9.8981863E-1,-1.9253887E-1,-3.4183794E-1,-8.035984E-1,1.2474092E0,9.057439E-3,2.1815954E-2,5.3529245E-1,5.7527053E-1,6.2811475E0,2.5628886E0,-8.930602E-2,1.5173778E-2,-9.705751E-2,-1.1835065E0,-1.0630791E-2,1.1982112E0,1.3770614E-3,-2.915735E-1,1.4127362E-1,-8.8278383E-1,-9.8230116E-2,9.8981863E-1,9.070372E-2,4.933604E-4,1.0019811E-1,-3.0815108E-2,-3.0813557E-1,-9.7984366E-2,-1.0399085E-2,1.790956E-3,1.3615283E-1,-5.9481878E-2,2.2954525E-2,4.8517194E-2,-5.258618E-1,1.1319884E-1,1.9063409E-1,-9.924438E-2,-5.222779E-2,-7.371911E-2,-3.3757195E-2,2.7830422E-2,-2.5955541E-2],"split_indices":[2,3,0,11,0,0,26,0,27,0,16,5,22,21,24,4,0,0,16,16,27,14,0,0,0,15,0,6,0,15,15,15,0,5,0,0,0,0,15,0,0,0,0,0,0,0,15,0,24,0,0,0,0,0,0],"split_type":[0,0,0,0,0,0,0,0,0,0,0,0,0,0,0,0,0,0,0,0,0,0,0,0,0,0,0,0,0,0,0,0,0,0,0,0,0,0,0,0,0,0,0,0,0,0,0,0,0,0,0,0,0,0,0],"sum_hessian":[2.2753237E3,1.2345377E3,1.040786E3,1.0154419E3,2.1909581E2,2.515913E0,1.01292596E3,1.19988396E2,9.9107414E1,9.8496295E2,2.7963034E1,7.0557495E1,4.94309E1,8.559405E1,1.3513365E1,2.6325953E1,1.6370823E0,1.442292E0,6.9115204E1,5.213465E0,4.4217434E1,7.0497475E1,1.509658E1,1.0821648E0,1.24312E1,2.413935E1,2.1866007E0,6.730859E1,1.8066056E0,3.0507617E0,2.1627035E0,3.1737846E1,1.24795885E1,6.443565E1,6.061815E0,1.0497416E0,1.4046838E1,1.7325956E0,2.2406755E1,6.626595E1,1.0426409E0,1.5153837E0,1.5353781E0,1.1501924E0,1.0125113E0,1.2318189E0,3.0506027E1,2.0562925E0,6.2379364E1,1.7676254E1,4.730502E0,7.127026E0,2.3379002E1,2.234188E1,4.0037483E1],"tree_param":{"num_deleted":"0","num_feature":"30","num_nodes":"55","size_leaf_vector":"1"}},{"base_weights":[2.3180253E-3,-8.614412E-1,1.0402268E-1,-9.760868E-1,-3.495602E-1,7.364928E-2,-9.812263E-1,-7.12435E-1,7.721821E-2,-9.869818E-2,-7.5433075E-1,-5.4677296E-1,-1.0307741E-1,2.2519973E-1,-8.574383E-1,-8.118883E-1,8.452002E-3,-8.0235934E-1,-2.4649373E-1,7.573077E-2,9.141455E-1,1.4384307E-2,-9.5625214E-2,-8.7370706E-1,-9.967691E-3,-8.447421E-1,4.0661566E-2,-3.7450367E-1,4.827165E-1,-7.967057E-3,8.921189E-2,4.6812493E-4,9.8212704E-2,-2.9387688E-2,-9.052737E-1,-2.349653E-1,-8.9238876E-1,-4.2347363E-1,5.5800088E-2,-1.7920462E-2,7.2622126E-1,1.05611466E-1,-5.9359804E-2,-9.831146E-2,-4.9902078E-2,-7.267461E-2,6.718478E-2,-3.0568158E-2,-9.4128154E-2,3.6001787E-2,-4.684196E-2,1.1558477E-1,2.694189E-2,-1.24635575E-2,8.7503545E-2],"categories":[],"categories_nodes":[],"categories_segments":[],"categories_sizes":[],"default_left":[0,0,0,0,0,0,0,0,0,0,0,0,0,0,0,0,0,0,0,0,0,0,0,0,0,0,0,0,0,0,0,0,0,0,0,0,0,0,0,0,0,0,0,0,0,0,0,0,0,0,0,0,0,0,0],"id":25,"left_children":[1,3,-1,5,7,-1,9,11,13,-1,15,17,-1,19,21,23,-1,25,27,29,31,-1,-1,33,-1,35,-1,37,39,41,-1,-1,-1,-1,43,45,47,49,-1,-1,51,-1,53,-1,-1,-1,-1,-1,-1,-1,-1,-1,-1,-1,-1],"loss_changes":[1.868636E3,6.641998E1,0E0,8.898743E0,3.2534798E1,0E0,4.6539307E-1,5.419239E0,1.3647994E1,0E0,1.3801384E0,5.6923275E0,0E0,8.660528E0,1.4737158E0,1.0362301E0,0E0,2.4450912E0,3.6095235E0,4.8415666E0,9.2422104E-1,0E0,0E0,1.6129684E-1,0E0,9.510517E-1,0E0,1.688868E0,1.0846642E0,3.626242E0,0E0,0E0,0E0,0E0,1.9439697E-1,2.3848338E0,7.649784E-1,1.2529335E0,0E0,0E0,5.7709503E-1,0E0,3.958248E0,0E0,0E0,0E0,0E0,0E0,0E0,0E0,0E0,0E0,0E0,0E0,0E0],"parents":[2147483647,0,0,1,1,3,3,4,4,6,6,7,7,8,8,10,10,11,11,13,13,14,14,15,15,17,17,18,18,19,19,20,20,23,23,25,25,27,27,28,28,29,29,34,34,35,35,36,36,37,37,40,40,42,42],"right_children":[2,4,-1,6,8,-1,10,12,14,-1,16,18,-1,20,22,24,-1,26,28,30,32,-1,-1,34,-1,36,-1,38,40,42,-1,-1,-1,-1,44,46,48,50,-1,-1,52,-1,54,-1,-1,-1,-1,-1,-1,-1,-1,-1,-1,-1,-1],"split_conditions":[-3.6598212E-1,4.9447984E-1,1.0402268E-1,1.4482929E-1,-9.522201E-2,7.364928E-2,7.0254087E0,6.2811475E0,6.2811475E0,-9.869818E-2,1.0833862E0,-1.18885994E-1,-1.0307741E-1,-3.4183794E-1,-8.035984E-1,1.2474092E0,8.452002E-3,5.3529245E-1,2.0189479E-2,2.5628886E0,-8.930602E-2,1.4384307E-2,-9.5625214E-2,-1.1835065E0,-9.967691E-3,-6.9909126E-1,4.0661566E-2,2.5628886E0,-2.1992855E-1,9.8981863E-1,8.921189E-2,4.6812493E-4,9.8212704E-2,-2.9387688E-2,-3.0813557E-1,-8.6882704E-1,-9.4182646E-1,-2.9927665E-1,5.5800088E-2,-1.7920462E-2,-1.1460118E-1,1.05611466E-1,5.397271E0,-9.831146E-2,-4.9902078E-2,-7.267461E-2,6.718478E-2,-3.0568158E-2,-9.4128154E-2,3.6001787E-2,-4.684196E-2,1.1558477E-1,2.694189E-2,-1.24635575E-2,8.7503545E-2],"split_indices":[2,3,0,11,0,0,26,27,27,0,16,0,0,21,24,4,0,16,6,14,0,0,0,15,0,1,0,14,15,5,0,0,0,0,15,15,16,16,0,0,15,0,25,0,0,0,0,0,0,0,0,0,0,0,0],"split_type":[0,0,0,0,0,0,0,0,0,0,0,0,0,0,0,0,0,0,0,0,0,0,0,0,0,0,0,0,0,0,0,0,0,0,0,0,0,0,0,0,0,0,0,0,0,0,0,0,0,0,0,0,0,0,0],"sum_hessian":[2.0823608E3,1.1366217E3,9.457392E2,9.2789496E2,2.0872676E2,2.3505607E0,9.255444E2,1.1244736E2,9.62794E1,8.993808E2,2.6163605E1,7.574673E1,3.670063E1,8.377466E1,1.2504748E1,2.4513744E1,1.6498618E0,4.0015224E1,3.57315E1,6.9751724E1,1.4022933E1,1.0822809E0,1.1422467E1,2.2347286E1,2.1664584E0,3.8951004E1,1.0642221E0,3.080945E1,4.922051E0,6.4163765E1,5.587963E0,1.0496362E0,1.2973297E1,1.6860945E0,2.066119E1,3.2528465E0,3.5698154E1,2.9790873E1,1.018576E0,1.3947502E0,3.5273006E0,2.055475E0,6.2108288E1,1.6147299E1,4.5138917E0,2.2378125E0,1.015034E0,3.3038933E0,3.2394264E1,1.2359508E0,2.8554922E1,1.0291115E0,2.498189E0,5.8862812E1,3.2454743E0],"tree_param":{"num_deleted":"0","num_feature":"30","num_nodes":"55","size_leaf_vector":"1"}},{"base_weights":[2.5238013E-3,-8.4566766E-1,1.0360378E-1,-9.660497E-1,-3.3020285E-1,7.1916126E-2,-9.7127396E-1,-7.41797E-1,2.5577584E-2,-9.774991E-2,-7.326194E-1,-9.9372E-1,-5.684592E-1,1.760899E-1,-8.7872905E-1,-9.686061E-2,-4.364634E-1,-1.0195134E-1,-8.385892E-3,4.0447864E-1,-6.6006655E-1,3.1088028E-2,8.7016314E-1,1.363613E-2,-9.6376844E-2,-7.00493E-1,9.283681E-2,1.2029202E-1,-7.17058E-2,3.4774687E-2,-7.044345E-1,-1.7145571E-1,3.4635392E-1,4.3286346E-3,9.2261595E-1,3.8713876E-2,-9.07648E-2,5.6341374E-1,-6.426316E-2,-6.2330015E-2,3.1111458E-1,2.5450272E-2,-7.386371E-1,-4.003461E-1,2.6485756E-1,9.2793393E-1,1.5993804E-1,9.708676E-2,1.3688276E-2,-1.8508503E-2,1.0724204E-1,6.546611E-2,-2.2317266E-2,-6.0746986E-2,-9.8139845E-2,-4.6273928E-2,7.010164E-2,5.154368E-2,-3.7961286E-2,1.0110785E-1,3.407439E-2,3.3099917E-3,7.8957744E-2],"categories":[],"categories_nodes":[],"categories_segments":[],"categories_sizes":[],"default_left":[0,0,0,0,0,0,0,0,0,0,0,0,0,0,0,0,0,0,0,0,0,0,0,0,0,0,0,0,0,0,0,0,0,0,0,0,0,0,0,0,0,0,0,0,0,0,0,0,0,0,0,0,0,0,0,0,0,0,0,0,0,0,0],"id":26,"left_children":[1,3,-1,5,7,-1,9,11,13,-1,15,17,19,21,23,-1,25,-1,-1,27,29,31,33,-1,-1,35,37,-1,39,-1,41,43,45,-1,47,-1,-1,49,-1,-1,51,-1,53,55,57,59,61,-1,-1,-1,-1,-1,-1,-1,-1,-1,-1,-1,-1,-1,-1,-1,-1],"loss_changes":[1.6725571E3,6.4708374E1,0E0,8.173401E0,2.929482E1,0E0,5.4193115E-1,3.4841347E0,1.488143E1,0E0,1.3607368E0,7.7010727E-1,5.3709793E0,9.392217E0,1.4785442E0,0E0,1.9009404E0,0E0,0E0,2.195612E0,2.6022186E0,5.0691514E0,6.5994644E-1,0E0,0E0,2.3525462E0,2.1808393E0,0E0,1.127049E0,0E0,1.8549576E0,4.9432316E0,3.2145627E0,0E0,4.4053364E-1,0E0,0E0,1.6224482E0,0E0,0E0,7.4735683E-1,0E0,9.7465134E-1,2.534875E0,2.9843225E0,1.2907028E-2,1.9463189E0,0E0,0E0,0E0,0E0,0E0,0E0,0E0,0E0,0E0,0E0,0E0,0E0,0E0,0E0,0E0,0E0],"parents":[2147483647,0,0,1,1,3,3,4,4,6,6,7,7,8,8,10,10,11,11,12,12,13,13,14,14,16,16,19,19,20,20,21,21,22,22,25,25,26,26,28,28,30,30,31,31,32,32,34,34,37,37,40,40,42,42,43,43,44,44,45,45,46,46],"right_children":[2,4,-1,6,8,-1,10,12,14,-1,16,18,20,22,24,-1,26,-1,-1,28,30,32,34,-1,-1,36,38,-1,40,-1,42,44,46,-1,48,-1,-1,50,-1,-1,52,-1,54,56,58,60,62,-1,-1,-1,-1,-1,-1,-1,-1,-1,-1,-1,-1,-1,-1,-1,-1],"split_conditions":[-3.6598212E-1,4.9447984E-1,1.0360378E-1,1.4482929E-1,-1.0113801E-1,7.1916126E-2,7.0254087E0,-8.652843E-1,6.2811475E0,-9.774991E-2,3.2582876E-1,3.300162E-1,-1.9253887E-1,-3.4183794E-1,-8.035984E-1,-9.686061E-2,-3.0813557E-1,-1.0195134E-1,-8.385892E-3,-5.654991E-1,-9.531262E-1,-7.155803E-2,-2.915735E-1,1.363613E-2,-9.6376844E-2,-7.4252665E-2,-7.747402E-2,1.2029202E-1,-1.18885994E-1,3.4774687E-2,9.8981863E-1,-7.719693E-2,8.6151654E-1,4.3286346E-3,2.9142623E0,3.8713876E-2,-9.07648E-2,-1.0113801E-1,-6.426316E-2,-6.2330015E-2,4.849573E-1,2.5450272E-2,6.2811475E0,7.0254087E0,1.0442765E-1,-3.606205E-2,2.5628886E0,9.708676E-2,1.3688276E-2,-1.8508503E-2,1.0724204E-1,6.546611E-2,-2.2317266E-2,-6.0746986E-2,-9.8139845E-2,-4.6273928E-2,7.010164E-2,5.154368E-2,-3.7961286E-2,1.0110785E-1,3.407439E-2,3.3099917E-3,7.8957744E-2],"split_indices":[2,3,0,11,0,0,26,24,27,0,22,16,22,21,24,0,15,0,0,15,15,0,15,0,0,24,0,0,0,0,5,15,22,0,21,0,0,0,0,0,16,0,27,26,15,0,14,0,0,0,0,0,0,0,0,0,0,0,0,0,0,0,0],"split_type":[0,0,0,0,0,0,0,0,0,0,0,0,0,0,0,0,0,0,0,0,0,0,0,0,0,0,0,0,0,0,0,0,0,0,0,0,0,0,0,0,0,0,0,0,0,0,0,0,0,0,0,0,0,0,0,0,0,0,0,0,0,0,0],"sum_hessian":[1.9059668E3,1.0469392E3,8.590276E2,8.480183E2,1.9892091E2,2.1984582E0,8.458198E2,9.1723335E1,1.07197586E2,8.213008E2,2.4519049E1,3.5457623E1,5.6265717E1,9.259191E1,1.4605672E1,1.2382042E1,1.2137007E1,3.436296E1,1.094662E0,4.547936E0,5.1717777E1,7.74552E1,1.5136712E1,1.0823591E0,1.3523313E1,7.881876E0,4.255131E0,1.1288962E0,3.4190397E0,1.8924811E0,4.98253E1,4.743595E1,3.0019249E1,1.0117956E0,1.4124916E1,1.1220272E0,6.7598486E0,2.7375164E0,1.5176146E0,1.1433878E0,2.275652E0,1.4941038E0,4.8331196E1,3.1167751E1,1.6268198E1,6.3210573E0,2.369819E1,1.3085708E1,1.0392091E0,1.3656684E0,1.3718479E0,1.2479331E0,1.0277188E0,3.365128E1,1.4679914E1,3.0045496E1,1.1222556E0,1.1857897E1,4.4103017E0,4.9046755E0,1.416382E0,2.0600815E1,3.0973756E0],"tree_param":{"num_deleted":"0","num_feature":"30","num_nodes":"63","size_leaf_vector":"1"}},{"base_weights":[2.7045773E-3,-8.295689E-1,1.0322549E-1,-9.558789E-1,-3.1174278E-1,7.020328E-2,-9.6119446E-1,-7.1704066E-1,2.6300088E-2,-9.679377E-2,-7.10053E-1,-9.8334646E-1,-5.403251E-1,1.6644396E-1,-8.6113536E-1,-9.579899E-2,-4.1252333E-1,-1.0112405E-1,-7.97933E-3,3.831928E-1,-6.3173145E-1,3.161454E-2,8.405992E-1,1.2927057E-2,-9.507244E-2,-6.7760193E-1,8.581039E-2,1.1234894E-1,-7.0123345E-2,3.180404E-2,-6.7703116E-1,-3.885761E-2,8.7268226E-2,2.6057732E-1,9.4798046E-1,3.5954516E-2,-8.944132E-2,5.133333E-1,-6.2570326E-2,-4.6583723E-2,4.1889574E-2,2.3873067E-2,-7.1172404E-1,8.4254734E-2,-9.904106E-2,6.417382E-2,-3.7139934E-2,2.8575376E-2,9.904264E-2,-1.7617002E-2,9.529407E-2,-5.7681363E-2,-9.713828E-2,9.7433664E-2,-1.4304656E-2],"categories":[],"categories_nodes":[],"categories_segments":[],"categories_sizes":[],"default_left":[0,0,0,0,0,0,0,0,0,0,0,0,0,0,0,0,0,0,0,0,0,0,0,0,0,0,0,0,0,0,0,0,0,0,0,0,0,0,0,0,0,0,0,0,0,0,0,0,0,0,0,0,0,0,0],"id":27,"left_children":[1,3,-1,5,7,-1,9,11,13,-1,15,17,19,21,23,-1,25,-1,-1,27,29,31,33,-1,-1,35,37,-1,39,-1,41,43,-1,45,47,-1,-1,49,-1,-1,-1,-1,51,-1,53,-1,-1,-1,-1,-1,-1,-1,-1,-1,-1],"loss_changes":[1.4970304E3,6.2891968E1,0E0,7.5150146E0,2.6177883E1,0E0,6.2371826E-1,3.556488E0,1.3210406E1,0E0,1.3749084E0,7.618408E-1,4.837162E0,8.29731E0,1.4087067E0,0E0,1.7309151E0,0E0,0E0,1.932879E0,2.3626442E0,4.6187377E0,7.011452E-1,0E0,0E0,2.205622E0,1.9287076E0,0E0,1.0403738E0,0E0,1.6935215E0,3.9202473E0,0E0,1.1433867E0,6.73933E-2,0E0,0E0,1.3349826E0,0E0,0E0,0E0,0E0,1.0671349E0,0E0,3.3797302E0,0E0,0E0,0E0,0E0,0E0,0E0,0E0,0E0,0E0,0E0],"parents":[2147483647,0,0,1,1,3,3,4,4,6,6,7,7,8,8,10,10,11,11,12,12,13,13,14,14,16,16,19,19,20,20,21,21,22,22,25,25,26,26,28,28,30,30,31,31,33,33,34,34,37,37,42,42,44,44],"right_children":[2,4,-1,6,8,-1,10,12,14,-1,16,18,20,22,24,-1,26,-1,-1,28,30,32,34,-1,-1,36,38,-1,40,-1,42,44,-1,46,48,-1,-1,50,-1,-1,-1,-1,52,-1,54,-1,-1,-1,-1,-1,-1,-1,-1,-1,-1],"split_conditions":[-3.6598212E-1,4.9447984E-1,1.0322549E-1,1.4482929E-1,-1.0113801E-1,7.020328E-2,7.0254087E0,-8.652843E-1,6.2811475E0,-9.679377E-2,3.2582876E-1,3.300162E-1,-1.9253887E-1,-3.4183794E-1,-8.035984E-1,-9.579899E-2,-3.0813557E-1,-1.0112405E-1,-7.97933E-3,-5.654991E-1,-9.531262E-1,2.5628886E0,3.864299E-1,1.2927057E-2,-9.507244E-2,-7.4252665E-2,-7.747402E-2,1.1234894E-1,-3.8268244E-1,3.180404E-2,9.8981863E-1,1.4482929E-1,8.7268226E-2,6.0920036E-1,-7.719693E-2,3.5954516E-2,-8.944132E-2,-1.0113801E-1,-6.2570326E-2,-4.6583723E-2,4.1889574E-2,2.3873067E-2,6.2811475E0,8.4254734E-2,9.8981863E-1,6.417382E-2,-3.7139934E-2,2.8575376E-2,9.904264E-2,-1.7617002E-2,9.529407E-2,-5.7681363E-2,-9.713828E-2,9.7433664E-2,-1.4304656E-2],"split_indices":[2,3,0,11,0,0,26,24,27,0,22,16,22,21,24,0,15,0,0,15,15,14,1,0,0,24,0,0,24,0,5,11,0,6,15,0,0,0,0,0,0,0,27,0,5,0,0,0,0,0,0,0,0,0,0],"split_type":[0,0,0,0,0,0,0,0,0,0,0,0,0,0,0,0,0,0,0,0,0,0,0,0,0,0,0,0,0,0,0,0,0,0,0,0,0,0,0,0,0,0,0,0,0,0,0,0,0,0,0,0,0,0,0],"sum_hessian":[1.7450973E3,9.651104E2,7.799869E2,7.751798E2,1.8993056E2,2.0585203E0,7.7312134E2,8.586327E1,1.0406728E2,7.50126E2,2.2995325E1,3.2429012E1,5.3434265E1,9.0575966E1,1.3491319E1,1.1332194E1,1.1663132E1,3.134225E1,1.0867609E0,4.5249114E0,4.8909355E1,7.635253E1,1.4223429E1,1.0824049E0,1.2408914E1,7.3785334E0,4.2845984E0,1.157027E0,3.3678846E0,1.9524628E0,4.6956894E1,7.13297E1,5.022838E0,2.757172E0,1.1466257E1,1.1619327E0,6.216601E0,2.850418E0,1.4341803E0,1.8877352E0,1.4801493E0,1.4993173E0,4.5457577E1,3.728278E0,6.760142E1,1.7102385E0,1.0469335E0,1.1564168E0,1.030984E1,1.3430943E0,1.5073237E0,3.203476E1,1.3422814E1,1.8297237E0,6.577169E1],"tree_param":{"num_deleted":"0","num_feature":"30","num_nodes":"55","size_leaf_vector":"1"}},{"base_weights":[2.9464473E-3,-8.129705E-1,1.0288321E-1,-9.455104E-1,-2.9333255E-1,6.8511985E-2,-9.509233E-1,-6.9158447E-1,2.775878E-2,-9.582135E-2,-6.8758774E-1,-8.509675E-1,-3.8655576E-1,1.5845072E-1,-8.4316516E-1,-9.473379E-2,-3.8995588E-1,2.1488328E-2,-8.843802E-1,-4.6998078E-1,6.754714E-2,3.252328E-2,8.173177E-1,1.2515067E-2,-9.3750276E-2,-6.5475434E-1,7.797587E-2,-9.1839796E-1,1.0452363E-2,-5.34213E-1,5.8166068E-2,-3.287855E-2,8.576266E-2,2.4403584E-1,9.3091565E-1,3.340067E-2,-8.810143E-2,4.6736714E-1,-6.092158E-2,-9.349323E-1,-1.245425E-2,3.0414352E-2,-5.885686E-1,8.2483254E-2,-8.855839E-2,6.090201E-2,-3.5211895E-2,2.7264802E-2,9.765404E-2,-1.676671E-2,8.492866E-2,-6.612738E-2,-9.858753E-2,-4.4352014E-2,-8.988736E-2,-1.3270492E-2,9.280526E-2],"categories":[],"categories_nodes":[],"categories_segments":[],"categories_sizes":[],"default_left":[0,0,0,0,0,0,0,0,0,0,0,0,0,0,0,0,0,0,0,0,0,0,0,0,0,0,0,0,0,0,0,0,0,0,0,0,0,0,0,0,0,0,0,0,0,0,0,0,0,0,0,0,0,0,0,0,0],"id":28,"left_children":[1,3,-1,5,7,-1,9,11,13,-1,15,17,19,21,23,-1,25,-1,27,29,-1,31,33,-1,-1,35,37,39,-1,41,-1,43,-1,45,47,-1,-1,49,-1,51,-1,-1,53,-1,55,-1,-1,-1,-1,-1,-1,-1,-1,-1,-1,-1,-1],"loss_changes":[1.3396329E3,6.1119324E1,0E0,6.91687E0,2.3371323E1,0E0,7.001953E-1,3.6358452E0,1.1750789E1,0E0,1.3785982E0,2.067974E0,2.9595594E0,7.4065046E0,1.3483057E0,0E0,1.5672556E0,0E0,1.8225708E0,2.2182202E0,0E0,4.1431355E0,7.062931E-1,0E0,0E0,2.0662923E0,1.7071359E0,5.361824E-1,0E0,1.4155011E0,0E0,3.4932806E0,0E0,1.0251434E0,8.237362E-2,0E0,0E0,1.1025648E0,0E0,2.4929047E-2,0E0,0E0,7.635975E-1,0E0,3.1819165E0,0E0,0E0,0E0,0E0,0E0,0E0,0E0,0E0,0E0,0E0,0E0,0E0],"parents":[2147483647,0,0,1,1,3,3,4,4,6,6,7,7,8,8,10,10,11,11,12,12,13,13,14,14,16,16,18,18,19,19,21,21,22,22,25,25,26,26,27,27,29,29,31,31,33,33,34,34,37,37,39,39,42,42,44,44],"right_children":[2,4,-1,6,8,-1,10,12,14,-1,16,18,20,22,24,-1,26,-1,28,30,-1,32,34,-1,-1,36,38,40,-1,42,-1,44,-1,46,48,-1,-1,50,-1,52,-1,-1,54,-1,56,-1,-1,-1,-1,-1,-1,-1,-1,-1,-1,-1,-1],"split_conditions":[-3.6598212E-1,4.9447984E-1,1.0288321E-1,1.4482929E-1,-1.0113801E-1,6.8511985E-2,7.0254087E0,-1.18885994E-1,6.2811475E0,-9.582135E-2,3.2582876E-1,9.8981863E-1,8.9758873E-1,-3.4183794E-1,-4.284321E-2,-9.473379E-2,-3.0813557E-1,2.1488328E-2,5.3529245E-1,2.5628886E0,6.754714E-2,2.5628886E0,3.864299E-1,1.2515067E-2,-9.3750276E-2,-7.4252665E-2,-7.747402E-2,1.9813209E0,1.0452363E-2,-2.9927665E-1,5.8166068E-2,1.4482929E-1,8.576266E-2,6.0920036E-1,-7.719693E-2,3.340067E-2,-8.810143E-2,-1.0113801E-1,-6.092158E-2,-9.531262E-1,-1.245425E-2,3.0414352E-2,6.2811475E0,8.2483254E-2,1.6175891E0,6.090201E-2,-3.5211895E-2,2.7264802E-2,9.765404E-2,-1.676671E-2,8.492866E-2,-6.612738E-2,-9.858753E-2,-4.4352014E-2,-8.988736E-2,-1.3270492E-2,9.280526E-2],"split_indices":[2,3,0,11,0,0,26,0,27,0,22,5,21,21,22,0,15,0,16,14,0,14,1,0,0,24,0,21,0,16,0,11,0,6,15,0,0,0,0,15,0,0,27,0,3,0,0,0,0,0,0,0,0,0,0,0,0],"split_type":[0,0,0,0,0,0,0,0,0,0,0,0,0,0,0,0,0,0,0,0,0,0,0,0,0,0,0,0,0,0,0,0,0,0,0,0,0,0,0,0,0,0,0,0,0,0,0,0,0,0,0,0,0,0,0,0,0],"sum_hessian":[1.5984464E3,8.904516E2,7.0799475E2,7.0883514E2,1.8161647E2,1.9297491E0,7.069054E2,8.0552605E1,1.0106386E2,6.8529486E2,2.161054E1,5.1731937E1,2.8820671E1,8.858826E1,1.24756E1,1.0373999E1,1.1236543E1,1.4073343E0,5.0324604E1,2.7238483E1,1.5821862E0,7.525445E1,1.3333815E1,1.078531E0,1.1397069E1,6.9208455E0,4.315697E0,4.871996E1,1.6046414E0,2.6134274E1,1.1042114E0,7.061713E1,4.637316E0,2.7258446E0,1.060797E1,1.2001139E0,5.7207317E0,2.958932E0,1.3567653E0,4.7551846E1,1.1681154E0,1.3114597E0,2.4822813E1,3.4626987E0,6.715443E1,1.677343E0,1.0485016E0,1.1397454E0,9.468225E0,1.3219148E0,1.6370171E0,9.65692E0,3.7894924E1,1.8571217E1,6.251597E0,6.519288E1,1.9615496E0],"tree_param":{"num_deleted":"0","num_feature":"30","num_nodes":"57","size_leaf_vector":"1"}},{"base_weights":[3.1787239E-3,-7.961171E-1,1.0257278E-1,-9.348645E-1,-2.7591518E-1,6.6843756E-2,-9.403805E-1,-9.500759E-2,-9.674028E-1,-9.482464E-2,-6.652535E-1,-2.917422E-1,4.706347E-1,-1.0105389E-1,-5.321348E-1,-9.365868E-2,-3.6874205E-1,-5.260951E-1,6.394405E-2,9.6637726E-2,1.625662E-1,1.648776E-2,-7.369072E-2,-6.320013E-1,6.9706306E-2,-5.786842E-1,9.602138E-2,1.6985509E-1,-6.26615E-1,-1.6064482E-2,6.1047107E-1,3.1036912E-2,-8.674204E-2,4.253921E-1,-5.9316553E-2,6.633235E-2,-6.221163E-1,-1.030339E-1,4.0154448E-1,-1.6807105E-1,-9.758731E-2,3.2237068E-1,-4.7335246E-1,1.1209675E-2,7.292212E-1,-1.595596E-2,7.591256E-2,3.976179E-2,-6.6619575E-2,5.097015E-2,-4.8526764E-2,-5.333795E-2,5.637602E-2,-4.634474E-2,1.4607071E-2,-1.0322678E-3,6.677301E-2,-7.9281434E-2,6.670926E-2,9.433325E-2,2.2610685E-2],"categories":[],"categories_nodes":[],"categories_segments":[],"categories_sizes":[],"default_left":[0,0,0,0,0,0,0,0,0,0,0,0,0,0,0,0,0,0,0,0,0,0,0,0,0,0,0,0,0,0,0,0,0,0,0,0,0,0,0,0,0,0,0,0,0,0,0,0,0,0,0,0,0,0,0,0,0,0,0,0,0],"id":29,"left_children":[1,3,-1,5,7,-1,9,11,13,-1,15,17,19,-1,21,-1,23,25,27,-1,29,-1,-1,31,33,35,-1,37,39,41,43,-1,-1,45,-1,-1,47,49,51,53,-1,55,57,-1,59,-1,-1,-1,-1,-1,-1,-1,-1,-1,-1,-1,-1,-1,-1,-1,-1],"loss_changes":[1.1987274E3,5.915753E1,0E0,6.3721924E0,2.1768425E1,0E0,7.7075195E-1,1.5674494E1,1.405983E-1,0E0,1.3724909E0,8.720039E0,5.4038963E0,0E0,8.879415E-1,0E0,1.4120834E0,5.474268E0,3.198795E0,0E0,1.9027711E0,0E0,0E0,1.9341884E0,1.5130558E0,3.7247944E0,0E0,2.4088917E0,7.705622E-1,2.9210052E0,3.1898355E-1,0E0,0E0,9.1415536E-1,0E0,0E0,2.9547482E0,4.4607177E0,3.4030082E0,4.1390797E-1,0E0,1.256402E0,3.4483452E0,0E0,3.5618305E-1,0E0,0E0,0E0,0E0,0E0,0E0,0E0,0E0,0E0,0E0,0E0,0E0,0E0,0E0,0E0,0E0],"parents":[2147483647,0,0,1,1,3,3,4,4,6,6,7,7,8,8,10,10,11,11,12,12,14,14,16,16,17,17,18,18,20,20,23,23,24,24,25,25,27,27,28,28,29,29,30,30,33,33,36,36,37,37,38,38,39,39,41,41,42,42,44,44],"right_children":[2,4,-1,6,8,-1,10,12,14,-1,16,18,20,-1,22,-1,24,26,28,-1,30,-1,-1,32,34,36,-1,38,40,42,44,-1,-1,46,-1,-1,48,50,52,54,-1,56,58,-1,60,-1,-1,-1,-1,-1,-1,-1,-1,-1,-1,-1,-1,-1,-1,-1,-1],"split_conditions":[-3.6598212E-1,4.9447984E-1,1.0257278E-1,1.4482929E-1,6.2811475E0,6.6843756E-2,7.0254087E0,6.8248117E-1,-7.155803E-2,-9.482464E-2,3.2582876E-1,-2.4467863E-1,8.6151654E-1,-1.0105389E-1,4.7428727E-1,-9.365868E-2,-3.0813557E-1,7.0254087E0,3.4303468E-1,9.6637726E-2,1.3732674E0,1.648776E-2,-7.369072E-2,-7.4252665E-2,-7.747402E-2,1.4482929E-1,9.602138E-2,8.070608E-1,9.3528074E-1,8.8121706E-1,9.298951E-1,3.1036912E-2,-8.674204E-2,-1.0113801E-1,-5.9316553E-2,6.633235E-2,9.8981863E-1,-1.6186823E-1,-3.8268244E-1,-1.5796033E-1,-9.758731E-2,6.5501964E-1,1.5392779E-1,1.1209675E-2,1.1838446E-1,-1.595596E-2,7.591256E-2,3.976179E-2,-6.6619575E-2,5.097015E-2,-4.8526764E-2,-5.333795E-2,5.637602E-2,-4.634474E-2,1.4607071E-2,-1.0322678E-3,6.677301E-2,-7.9281434E-2,6.670926E-2,9.433325E-2,2.2610685E-2],"split_indices":[2,3,0,11,27,0,26,1,0,0,22,15,22,0,22,0,15,26,24,0,1,0,0,24,0,11,0,16,16,16,16,0,0,0,0,0,5,15,24,15,0,16,15,0,15,0,0,0,0,0,0,0,0,0,0,0,0,0,0,0,0],"split_type":[0,0,0,0,0,0,0,0,0,0,0,0,0,0,0,0,0,0,0,0,0,0,0,0,0,0,0,0,0,0,0,0,0,0,0,0,0,0,0,0,0,0,0,0,0,0,0,0,0,0,0,0,0,0,0,0,0,0,0,0,0],"sum_hessian":[1.4646583E3,8.221948E2,6.4246356E2,6.484455E2,1.7374937E2,1.8112173E0,6.466343E2,1.386207E2,3.5128666E1,6.2628217E2,2.035209E1,1.0320831E2,3.541239E1,3.0758753E1,4.3699145E0,9.500048E0,1.0852042E1,6.1927025E1,4.128129E1,1.2753163E1,2.265923E1,1.0365363E0,3.3333783E0,6.504856E0,4.347186E0,6.0400566E1,1.5264583E0,3.6445652E1,4.8356366E0,1.6888138E1,5.7710905E0,1.2365686E0,5.2682877E0,3.0622783E0,1.2849076E0,1.558557E0,5.8842007E1,1.6989882E1,1.945577E1,2.7311323E0,2.1045043E0,9.8748665E0,7.013272E0,1.4845703E0,4.28652E0,1.3020332E0,1.7602451E0,2.1058052E0,5.6736202E1,6.3988295E0,1.0591051E1,2.5382988E0,1.691747E1,1.1626513E0,1.5684808E0,5.5237813E0,4.3510857E0,5.716722E0,1.2965498E0,2.3930988E0,1.8934213E0],"tree_param":{"num_deleted":"0","num_feature":"30","num_nodes":"61","size_leaf_vector":"1"}},{"base_weights":[3.3339327E-3,-7.787133E-1,1.0229055E-1,-9.238656E-1,-2.5940645E-1,6.5199934E-2,-9.2949003E-1,-8.659693E-2,-9.5717025E-1,-9.3795985E-2,-6.430877E-1,-6.952777E-1,8.27237E-2,-1.0037555E-1,-5.102908E-1,-9.256809E-2,-3.488518E-1,-9.56611E-2,-3.8774404E-1,9.368728E-2,-5.0408003E-4,1.5645318E-2,-7.155842E-2,-6.094013E-1,6.1280183E-2,8.584039E-2,-6.1559004E-1,-6.8965524E-2,8.991494E-2,2.8848812E-2,-8.536097E-2,6.930019E-2,-3.1438816E-1,2.3615746E-2,-7.324534E-1,-1.1751893E-1,1.07025735E-1,-7.0656136E-2,4.0130984E-2,-8.77239E-2,2.4042312E-2,-2.8071204E-2,1.670078E-2],"categories":[],"categories_nodes":[],"categories_segments":[],"categories_sizes":[],"default_left":[0,0,0,0,0,0,0,0,0,0,0,0,0,0,0,0,0,0,0,0,0,0,0,0,0,0,0,0,0,0,0,0,0,0,0,0,0,0,0,0,0,0,0],"id":30,"left_children":[1,3,-1,5,7,-1,9,11,13,-1,15,17,19,-1,21,-1,23,-1,25,-1,27,-1,-1,29,31,-1,33,35,-1,-1,-1,-1,37,-1,39,41,-1,-1,-1,-1,-1,-1,-1],"loss_changes":[1.0724625E3,5.7137085E1,0E0,5.875305E0,2.0135002E1,0E0,8.3477783E-1,1.4021228E1,1.7860603E-1,0E0,1.3573914E0,2.0074596E0,7.5995107E0,0E0,8.1917286E-1,0E0,1.266772E0,0E0,4.865899E0,0E0,6.122825E0,0E0,0E0,1.808986E0,1.4942081E0,0E0,1.5164933E0,5.235237E0,0E0,0E0,0E0,0E0,1.4232421E0,0E0,1.9171066E0,4.2025433E0,0E0,0E0,0E0,0E0,0E0,0E0,0E0],"parents":[2147483647,0,0,1,1,3,3,4,4,6,6,7,7,8,8,10,10,11,11,12,12,14,14,16,16,18,18,20,20,23,23,24,24,26,26,27,27,32,32,34,34,35,35],"right_children":[2,4,-1,6,8,-1,10,12,14,-1,16,18,20,-1,22,-1,24,-1,26,-1,28,-1,-1,30,32,-1,34,36,-1,-1,-1,-1,38,-1,40,42,-1,-1,-1,-1,-1,-1,-1],"split_conditions":[-3.6598212E-1,4.9447984E-1,1.0229055E-1,1.4482929E-1,6.2811475E0,6.5199934E-2,7.0254087E0,-1.18885994E-1,-7.155803E-2,-9.3795985E-2,3.2582876E-1,-8.652843E-1,1.4482929E-1,-1.0037555E-1,4.7428727E-1,-9.256809E-2,-3.0813557E-1,-9.56611E-2,-6.0874456E-1,9.368728E-2,2.5628886E0,1.5645318E-2,-7.155842E-2,-7.4252665E-2,5.7527053E-1,8.584039E-2,-8.3477247E-1,7.0254087E0,8.991494E-2,2.8848812E-2,-8.536097E-2,6.930019E-2,1.0384368E0,2.3615746E-2,4.3710783E-1,-7.719693E-2,1.07025735E-1,-7.0656136E-2,4.0130984E-2,-8.77239E-2,2.4042312E-2,-2.8071204E-2,1.670078E-2],"split_indices":[2,3,0,11,27,0,26,0,0,0,22,24,11,0,22,0,15,0,16,0,14,0,0,24,16,0,15,26,0,0,0,0,16,0,16,15,0,0,0,0,0,0,0],"split_type":[0,0,0,0,0,0,0,0,0,0,0,0,0,0,0,0,0,0,0,0,0,0,0,0,0,0,0,0,0,0,0,0,0,0,0,0,0,0,0,0,0,0,0],"sum_hessian":[1.3430293E3,7.601804E2,5.828489E2,5.935087E2,1.6667168E2,1.7020453E0,5.918067E2,1.3448817E2,3.2183495E1,5.725982E2,1.9208473E1,2.8593348E1,1.0589483E2,2.801673E1,4.1667666E0,8.703404E0,1.0505068E1,1.4316775E1,1.4276572E1,8.491511E0,9.740331E1,1.0369396E0,3.1298273E0,6.126895E0,4.3781734E0,1.7790453E0,1.2497527E1,9.137337E1,6.029949E0,1.2713091E0,4.8555856E0,1.31767E0,3.0605032E0,1.3846728E0,1.1112854E1,8.849843E1,2.8749394E0,1.9853686E0,1.0751346E0,9.758828E0,1.354026E0,5.6249424E1,3.2249004E1],"tree_param":{"num_deleted":"0","num_feature":"30","num_nodes":"43","size_leaf_vector":"1"}},{"base_weights":[3.5077084E-3,-7.6090586E-1,1.0203327E-1,-9.124162E-1,-2.4379627E-1,6.358257E-2,-9.181542E-1,-7.8917384E-2,-9.467386E-1,-9.272804E-1,-6.199444E-1,-6.7158586E-1,7.910811E-2,-9.97048E-2,-4.8888856E-1,-9.347026E-2,-7.370371E-1,-9.145722E-2,-3.2742494E-1,-9.457967E-2,-3.6243573E-1,9.244542E-2,1.5960503E-3,1.4845978E-2,-6.94138E-2,-2.1399121E-1,-7.930103E-2,-5.8701843E-1,6.0893238E-2,7.7935226E-2,-5.8886844E-1,-6.1785605E-2,8.849251E-2,-6.456657E-2,4.674094E-2,2.6822835E-2,-8.3956935E-2,3.8411087E-1,-5.7611283E-2,2.1947427E-2,-7.083894E-1,-1.07091494E-1,1.0298931E-1,-1.608141E-2,6.886157E-2,-8.593055E-2,2.2366878E-2,-1.9990807E-2,3.36037E-2],"categories":[],"categories_nodes":[],"categories_segments":[],"categories_sizes":[],"default_left":[0,0,0,0,0,0,0,0,0,0,0,0,0,0,0,0,0,0,0,0,0,0,0,0,0,0,0,0,0,0,0,0,0,0,0,0,0,0,0,0,0,0,0,0,0,0,0,0,0],"id":31,"left_children":[1,3,-1,5,7,-1,9,11,13,15,17,19,21,-1,23,-1,25,-1,27,-1,29,-1,31,-1,-1,33,-1,35,37,-1,39,41,-1,-1,-1,-1,-1,43,-1,-1,45,47,-1,-1,-1,-1,-1,-1,-1],"loss_changes":[9.5930634E2,5.4976868E1,0E0,5.4212036E0,1.8587055E1,0E0,9.0270996E-1,1.2370384E1,2.1511078E-1,5.2093506E-2,1.3500462E0,2.0130367E0,6.860571E0,0E0,7.5474024E-1,0E0,5.4564476E-1,0E0,1.160891E0,0E0,4.255335E0,0E0,5.481517E0,0E0,0E0,1.3994118E0,0E0,1.6904016E0,1.3285867E0,0E0,1.3944077E0,4.6296973E0,0E0,0E0,0E0,0E0,0E0,8.0230176E-1,0E0,0E0,1.796915E0,3.7129369E0,0E0,0E0,0E0,0E0,0E0,0E0,0E0],"parents":[2147483647,0,0,1,1,3,3,4,4,6,6,7,7,8,8,9,9,10,10,11,11,12,12,14,14,16,16,18,18,20,20,22,22,25,25,27,27,28,28,30,30,31,31,37,37,40,40,41,41],"right_children":[2,4,-1,6,8,-1,10,12,14,16,18,20,22,-1,24,-1,26,-1,28,-1,30,-1,32,-1,-1,34,-1,36,38,-1,40,42,-1,-1,-1,-1,-1,44,-1,-1,46,48,-1,-1,-1,-1,-1,-1,-1],"split_conditions":[-3.6598212E-1,4.9447984E-1,1.0203327E-1,1.4482929E-1,6.2811475E0,6.358257E-2,7.0254087E0,-1.18885994E-1,-7.155803E-2,1.2722517E0,3.2582876E-1,-8.652843E-1,1.4482929E-1,-9.97048E-2,4.7428727E-1,-9.347026E-2,-5.4130733E-1,-9.145722E-2,-3.0813557E-1,-9.457967E-2,-6.0874456E-1,9.244542E-2,2.5628886E0,1.4845978E-2,-6.94138E-2,3.3395186E-1,-7.930103E-2,-7.4252665E-2,-7.747402E-2,7.7935226E-2,-8.3477247E-1,7.0254087E0,8.849251E-2,-6.456657E-2,4.674094E-2,2.6822835E-2,-8.3956935E-2,-1.0113801E-1,-5.7611283E-2,2.1947427E-2,4.3710783E-1,1.2474092E0,1.0298931E-1,-1.608141E-2,6.886157E-2,-8.593055E-2,2.2366878E-2,-1.9990807E-2,3.36037E-2],"split_indices":[2,3,0,11,27,0,26,0,0,22,22,24,11,0,22,0,15,0,15,0,16,0,14,0,0,16,0,24,0,0,15,26,0,0,0,0,0,0,0,0,16,4,0,0,0,0,0,0,0],"split_type":[0,0,0,0,0,0,0,0,0,0,0,0,0,0,0,0,0,0,0,0,0,0,0,0,0,0,0,0,0,0,0,0,0,0,0,0,0,0,0,0,0,0,0,0,0,0,0,0,0],"sum_hessian":[1.2321932E3,7.035446E2,5.286486E2,5.43529E2,1.6001562E2,1.601461E0,5.4192755E2,1.3051491E2,2.9500704E1,5.237883E2,1.8139202E1,2.6790043E1,1.0372487E2,2.551896E1,3.9817443E0,5.003543E2,2.3434044E1,7.977584E0,1.0161618E1,1.3105948E1,1.3684094E1,7.7942495E0,9.5930626E1,1.0373162E0,2.944428E0,2.731589E0,2.0702456E1,5.783568E0,4.378051E0,1.8605238E0,1.182357E1,9.0375916E1,5.554704E0,1.7043248E0,1.0272644E0,1.3043606E0,4.479207E0,3.167741E0,1.2103097E0,1.4153061E0,1.0408264E1,8.764063E1,2.7352827E0,1.3047376E0,1.8630035E0,9.025017E0,1.3832475E0,7.291658E1,1.4724052E1],"tree_param":{"num_deleted":"0","num_feature":"30","num_nodes":"49","size_leaf_vector":"1"}},{"base_weights":[3.5801635E-3,-7.424723E-1,1.01797976E-1,-9.00524E-1,-2.2847776E-1,6.1993E-2,-9.063784E-1,-7.1466096E-2,-9.3604594E-1,-9.161647E-1,-5.981246E-1,-2.4575232E-1,4.2000628E-1,-9.903627E-2,-4.6797124E-1,-9.241601E-2,-7.1576303E-1,-9.0321966E-2,-3.099237E-1,-7.592189E-1,-1.12191185E-1,9.229286E-2,1.4418058E-1,1.4087506E-2,-6.726174E-2,-2.0152305E-1,-7.739406E-2,-5.6491935E-1,5.2557927E-2,-8.049024E-1,3.8034802E-3,5.793219E-1,-1.9789793E-1,-1.0117681E-2,5.539915E-1,-6.3719414E-2,4.6837833E-2,2.4946457E-2,-8.252945E-2,6.242865E-2,-3.0467445E-1,-9.354735E-2,-4.2324698E-1,9.2072326E-1,1.8143633E-1,-3.4218988E-1,1.6240326E-1,3.3503357E-1,-4.8336464E-1,8.358438E-3,6.6939086E-1,-6.930923E-2,3.6904614E-2,1.690962E-2,-7.493028E-2,1.0461181E-1,2.8861403E-2,-3.0602226E-2,6.655758E-2,9.0953566E-2,-4.0493008E-2,3.6796886E-2,-3.4345016E-2,-3.9842683E-3,7.13483E-2,-7.555835E-2,4.4776313E-2,8.898919E-2,1.6950544E-2],"categories":[],"categories_nodes":[],"categories_segments":[],"categories_sizes":[],"default_left":[0,0,0,0,0,0,0,0,0,0,0,0,0,0,0,0,0,0,0,0,0,0,0,0,0,0,0,0,0,0,0,0,0,0,0,0,0,0,0,0,0,0,0,0,0,0,0,0,0,0,0,0,0,0,0,0,0,0,0,0,0,0,0,0,0,0,0,0,0],"id":32,"left_children":[1,3,-1,5,7,-1,9,11,13,15,17,19,21,-1,23,-1,25,-1,27,29,31,-1,33,-1,-1,35,-1,37,39,41,-1,43,45,47,49,-1,-1,-1,-1,-1,51,-1,53,55,57,59,61,63,65,-1,67,-1,-1,-1,-1,-1,-1,-1,-1,-1,-1,-1,-1,-1,-1,-1,-1,-1,-1],"loss_changes":[8.5788837E2,5.285785E1,0E0,5.005707E0,1.714827E1,0E0,9.534912E-1,1.1058618E1,2.49897E-1,1.0845947E-1,1.3200202E0,6.4330997E0,4.5627327E0,0E0,6.944754E-1,0E0,5.282593E-1,0E0,1.0352911E0,7.388849E-1,4.6545787E0,0E0,1.4629102E0,0E0,0E0,1.3714614E0,0E0,1.5781851E0,1.2946717E0,5.2287483E-1,0E0,1.014971E0,3.637545E0,3.0571427E0,2.8722382E-1,0E0,0E0,0E0,0E0,0E0,1.3025732E0,0E0,1.3871619E0,4.983282E-2,1.4459357E0,4.2571874E0,2.2456536E0,1.5663395E0,2.3368435E0,0E0,3.9298034E-1,0E0,0E0,0E0,0E0,0E0,0E0,0E0,0E0,0E0,0E0,0E0,0E0,0E0,0E0,0E0,0E0,0E0,0E0],"parents":[2147483647,0,0,1,1,3,3,4,4,6,6,7,7,8,8,9,9,10,10,11,11,12,12,14,14,16,16,18,18,19,19,20,20,22,22,25,25,27,27,28,28,29,29,31,31,32,32,33,33,34,34,40,40,42,42,43,43,44,44,45,45,46,46,47,47,48,48,50,50],"right_children":[2,4,-1,6,8,-1,10,12,14,16,18,20,22,-1,24,-1,26,-1,28,30,32,-1,34,-1,-1,36,-1,38,40,42,-1,44,46,48,50,-1,-1,-1,-1,-1,52,-1,54,56,58,60,62,64,66,-1,68,-1,-1,-1,-1,-1,-1,-1,-1,-1,-1,-1,-1,-1,-1,-1,-1,-1,-1],"split_conditions":[-3.6598212E-1,4.9447984E-1,1.01797976E-1,1.4482929E-1,6.2811475E0,6.1993E-2,7.0254087E0,-7.155803E-2,-7.155803E-2,1.2722517E0,3.2582876E-1,-7.4554104E-1,8.6151654E-1,-9.903627E-2,4.7428727E-1,-9.241601E-2,-5.4130733E-1,-9.0321966E-2,-3.0813557E-1,2.534368E0,3.2623198E-2,9.229286E-2,1.3732674E0,1.4087506E-2,-6.726174E-2,3.4720886E-1,-7.739406E-2,-7.4252665E-2,5.7527053E-1,-8.652843E-1,3.8034802E-3,4.849573E-1,-7.719693E-2,8.8121706E-1,9.298951E-1,-6.3719414E-2,4.6837833E-2,2.4946457E-2,-8.252945E-2,6.242865E-2,1.0384368E0,-9.354735E-2,-4.2314667E-1,-1.946202E-1,-9.522201E-2,-9.311675E-1,1.0442765E-1,6.5501964E-1,1.5392779E-1,8.358438E-3,1.1838446E-1,-6.930923E-2,3.6904614E-2,1.690962E-2,-7.493028E-2,1.0461181E-1,2.8861403E-2,-3.0602226E-2,6.655758E-2,9.0953566E-2,-4.0493008E-2,3.6796886E-2,-3.4345016E-2,-3.9842683E-3,7.13483E-2,-7.555835E-2,4.4776313E-2,8.898919E-2,1.6950544E-2],"split_indices":[2,3,0,11,27,0,26,0,0,22,22,24,22,0,22,0,15,0,15,13,22,0,1,0,0,16,0,24,16,24,0,16,15,16,16,0,0,0,0,0,16,0,16,15,0,15,15,16,15,0,15,0,0,0,0,0,0,0,0,0,0,0,0,0,0,0,0,0,0],"split_type":[0,0,0,0,0,0,0,0,0,0,0,0,0,0,0,0,0,0,0,0,0,0,0,0,0,0,0,0,0,0,0,0,0,0,0,0,0,0,0,0,0,0,0,0,0,0,0,0,0,0,0,0,0,0,0,0,0,0,0,0,0,0,0,0,0,0,0,0,0],"sum_hessian":[1.1315818E3,6.521893E2,4.793925E2,4.982324E2,1.539569E2,1.5087113E0,4.967237E2,1.26898674E2,2.7058226E1,4.7952768E2,1.7196E1,9.404747E1,3.2851204E1,2.3244986E1,3.81324E0,4.5765704E2,2.187065E1,7.3165584E0,9.879441E0,1.844655E1,7.560092E1,1.0804655E1,2.2046547E1,1.0376691E0,2.7755709E0,2.6765094E0,1.9194141E1,5.471745E0,4.407696E0,1.7437754E1,1.0087963E0,7.701673E0,6.789925E1,1.6724792E1,5.3217545E0,1.6513659E0,1.0251434E0,1.3357571E0,4.1359878E0,1.4075053E0,3.0001905E0,1.1911517E1,5.526237E0,3.4378357E0,4.2638373E0,4.851887E1,1.9380373E1,9.840162E0,6.884631E0,1.3880193E0,3.9337351E0,1.8848E0,1.1153905E0,2.1328654E0,3.3933716E0,2.322204E0,1.1156315E0,2.3079598E0,1.9558778E0,1.6716198E0,4.684725E1,1.39742E1,5.406172E0,5.392901E0,4.4472613E0,5.4730825E0,1.4115481E0,2.1882846E0,1.7454506E0],"tree_param":{"num_deleted":"0","num_feature":"30","num_nodes":"69","size_leaf_vector":"1"}},{"base_weights":[3.7372217E-3,-7.2282565E-1,1.0158204E-1,-8.8805276E-1,-2.1276967E-1,6.043297E-2,-8.9402735E-1,-6.38098E-2,-9.2503554E-1,-9.045254E-1,-5.7537806E-1,-6.305647E-1,7.693893E-2,-9.83649E-2,-4.4757906E-1,-9.131267E-2,-6.9398123E-1,-8.9158975E-2,-2.9088727E-1,-9.236252E-2,-3.3092594E-1,9.0675965E-2,6.8946253E-3,1.3367827E-2,-6.510776E-2,-1.8974543E-1,-7.5423114E-2,-5.431712E-1,5.1542617E-2,6.7384414E-2,-5.521976E-1,-5.0816193E-2,8.668196E-2,-6.21578E-2,4.3414734E-2,2.320805E-2,-8.107882E-2,3.4656373E-1,-5.5992205E-2,-6.7522466E-1,2.2749852E-2,-9.3051344E-2,9.886434E-2,-1.6194088E-2,6.2578246E-2,1.8653622E-2,-8.3578855E-2,-1.30005E-2,9.048311E-2],"categories":[],"categories_nodes":[],"categories_segments":[],"categories_sizes":[],"default_left":[0,0,0,0,0,0,0,0,0,0,0,0,0,0,0,0,0,0,0,0,0,0,0,0,0,0,0,0,0,0,0,0,0,0,0,0,0,0,0,0,0,0,0,0,0,0,0,0,0],"id":33,"left_children":[1,3,-1,5,7,-1,9,11,13,15,17,19,21,-1,23,-1,25,-1,27,-1,29,-1,31,-1,-1,33,-1,35,37,-1,39,41,-1,-1,-1,-1,-1,43,-1,45,-1,47,-1,-1,-1,-1,-1,-1,-1],"loss_changes":[7.6659595E2,5.0953735E1,0E0,4.6244507E0,1.5834516E1,0E0,1.0070801E0,1.001686E1,2.827568E-1,1.637268E-1,1.2980375E0,1.8869028E0,5.863998E0,0E0,6.382153E-1,0E0,5.0850964E-1,0E0,9.435028E-1,0E0,3.4633532E0,0E0,4.7159953E0,0E0,0E0,1.2466204E0,0E0,1.4721097E0,1.1697817E0,0E0,1.2993586E0,4.006504E0,0E0,0E0,0E0,0E0,0E0,7.070729E-1,0E0,1.618248E0,0E0,3.3109605E0,0E0,0E0,0E0,0E0,0E0,0E0,0E0],"parents":[2147483647,0,0,1,1,3,3,4,4,6,6,7,7,8,8,9,9,10,10,11,11,12,12,14,14,16,16,18,18,20,20,22,22,25,25,27,27,28,28,30,30,31,31,37,37,39,39,41,41],"right_children":[2,4,-1,6,8,-1,10,12,14,16,18,20,22,-1,24,-1,26,-1,28,-1,30,-1,32,-1,-1,34,-1,36,38,-1,40,42,-1,-1,-1,-1,-1,44,-1,46,-1,48,-1,-1,-1,-1,-1,-1,-1],"split_conditions":[-3.6598212E-1,4.9447984E-1,1.0158204E-1,1.4482929E-1,6.2811475E0,6.043297E-2,7.0254087E0,-1.18885994E-1,-7.155803E-2,1.2722517E0,3.2582876E-1,-8.652843E-1,1.4482929E-1,-9.83649E-2,4.7428727E-1,-9.131267E-2,-5.4130733E-1,-8.9158975E-2,-3.0813557E-1,-9.236252E-2,-6.0874456E-1,9.0675965E-2,2.5628886E0,1.3367827E-2,-6.510776E-2,3.4720886E-1,-7.5423114E-2,-7.4252665E-2,-7.747402E-2,6.7384414E-2,4.3710783E-1,7.0254087E0,8.668196E-2,-6.21578E-2,4.3414734E-2,2.320805E-2,-8.107882E-2,-1.0113801E-1,-5.5992205E-2,-8.3477247E-1,2.2749852E-2,1.6175891E0,9.886434E-2,-1.6194088E-2,6.2578246E-2,1.8653622E-2,-8.3578855E-2,-1.30005E-2,9.048311E-2],"split_indices":[2,3,0,11,27,0,26,0,0,22,22,24,11,0,22,0,15,0,15,0,16,0,14,0,0,16,0,24,0,0,16,26,0,0,0,0,0,0,0,15,0,3,0,0,0,0,0,0,0],"split_type":[0,0,0,0,0,0,0,0,0,0,0,0,0,0,0,0,0,0,0,0,0,0,0,0,0,0,0,0,0,0,0,0,0,0,0,0,0,0,0,0,0,0,0,0,0,0,0,0,0],"sum_hessian":[1.040504E3,6.0585406E2,4.3464987E2,4.5705496E2,1.4879912E2,1.4231333E0,4.5563184E2,1.2396356E2,2.483556E1,4.3931967E2,1.6312155E1,2.3968637E1,9.999492E1,2.1175795E1,3.6597662E0,4.1887076E2,2.0448904E1,6.7147365E0,9.597419E0,1.106454E1,1.2904097E1,6.853649E0,9.314127E1,1.038001E0,2.6217654E0,2.62547E0,1.7823435E1,5.188548E0,4.4088707E0,1.9597522E0,1.0944344E1,8.8165276E1,4.975994E0,1.5537436E0,1.0717264E0,1.365541E0,3.823007E0,3.2662063E0,1.1426643E0,9.56853E0,1.375814E0,8.559776E1,2.567513E0,1.3066311E0,1.959575E0,1.4774053E0,8.091125E0,8.337976E1,2.2180068E0],"tree_param":{"num_deleted":"0","num_feature":"30","num_nodes":"49","size_leaf_vector":"1"}},{"base_weights":[3.875437E-3,-7.0308214E-1,1.0138305E-1,-8.7499887E-1,-1.9820052E-1,5.890403E-2,-8.810962E-1,-5.6722455E-2,-9.1365623E-1,-8.9230037E-1,-5.541833E-1,-6.064807E-1,7.454092E-2,-9.7685896E-2,-4.2774868E-1,-9.0153754E-2,-6.717793E-1,-8.7965615E-2,-2.757432E-1,-9.1144726E-2,-3.0831042E-1,8.9386255E-2,9.380882E-3,1.2684922E-2,-6.29578E-2,-1.79208E-1,-7.338956E-2,-3.894649E-1,3.3896215E-2,6.14163E-2,-5.261254E-1,-4.4075437E-2,8.521555E-2,-6.2366337E-2,4.7816772E-2,-5.377671E-1,3.3932503E-2,-6.507807E-1,2.1169707E-2,-8.350245E-2,9.540976E-2,-8.311286E-3,-6.932778E-2,1.7352339E-2,-8.168694E-2,-3.6510006E-2,5.241104E-3],"categories":[],"categories_nodes":[],"categories_segments":[],"categories_sizes":[],"default_left":[0,0,0,0,0,0,0,0,0,0,0,0,0,0,0,0,0,0,0,0,0,0,0,0,0,0,0,0,0,0,0,0,0,0,0,0,0,0,0,0,0,0,0,0,0,0,0],"id":34,"left_children":[1,3,-1,5,7,-1,9,11,13,15,17,19,21,-1,23,-1,25,-1,27,-1,29,-1,31,-1,-1,33,-1,35,-1,-1,37,39,-1,-1,-1,41,-1,43,-1,45,-1,-1,-1,-1,-1,-1,-1],"loss_changes":[6.849706E2,4.880902E1,0E0,4.2743835E0,1.4588915E1,0E0,1.0414734E0,8.8366375E0,3.134842E-1,2.1691895E-1,1.2559032E0,1.8641682E0,5.2895384E0,0E0,5.857977E-1,0E0,4.8526573E-1,0E0,8.567833E-1,0E0,3.0235243E0,0E0,4.2244782E0,0E0,0E0,1.3443515E0,0E0,1.1783997E0,0E0,0E0,1.1872783E0,3.5564306E0,0E0,0E0,0E0,5.110779E-1,0E0,1.511807E0,0E0,3.3070164E0,0E0,0E0,0E0,0E0,0E0,0E0,0E0],"parents":[2147483647,0,0,1,1,3,3,4,4,6,6,7,7,8,8,9,9,10,10,11,11,12,12,14,14,16,16,18,18,20,20,22,22,25,25,27,27,30,30,31,31,35,35,37,37,39,39],"right_children":[2,4,-1,6,8,-1,10,12,14,16,18,20,22,-1,24,-1,26,-1,28,-1,30,-1,32,-1,-1,34,-1,36,-1,-1,38,40,-1,-1,-1,42,-1,44,-1,46,-1,-1,-1,-1,-1,-1,-1],"split_conditions":[-3.6598212E-1,4.9447984E-1,1.0138305E-1,1.4482929E-1,6.2811475E0,5.890403E-2,7.0254087E0,-1.18885994E-1,-7.155803E-2,1.2722517E0,3.2582876E-1,-8.652843E-1,1.4482929E-1,-9.7685896E-2,4.7428727E-1,-9.0153754E-2,-5.4130733E-1,-8.7965615E-2,1.0384368E0,-9.1144726E-2,-6.0874456E-1,8.9386255E-2,2.5628886E0,1.2684922E-2,-6.29578E-2,3.7620854E-1,-7.338956E-2,1.2474092E0,3.3896215E-2,6.14163E-2,4.3710783E-1,7.0254087E0,8.521555E-2,-6.2366337E-2,4.7816772E-2,7.1712E-2,3.3932503E-2,-8.3477247E-1,2.1169707E-2,-3.1055474E-1,9.540976E-2,-8.311286E-3,-6.932778E-2,1.7352339E-2,-8.168694E-2,-3.6510006E-2,5.241104E-3],"split_indices":[2,3,0,11,27,0,26,0,0,22,22,24,11,0,22,0,15,0,16,0,16,0,14,0,0,16,0,4,0,0,16,26,0,0,0,16,0,15,0,15,0,0,0,0,0,0,0],"split_type":[0,0,0,0,0,0,0,0,0,0,0,0,0,0,0,0,0,0,0,0,0,0,0,0,0,0,0,0,0,0,0,0,0,0,0,0,0,0,0,0,0,0,0,0,0,0,0],"sum_hessian":[9.5735046E2,5.6332965E2,3.9402078E2,4.1968875E2,1.4364091E2,1.3441122E0,4.1834464E2,1.2082717E2,2.2813734E1,4.028098E2,1.5534817E1,2.2591007E1,9.823617E1,1.9293785E1,3.519948E0,3.8365128E2,1.9158545E1,6.1669483E0,9.367868E0,1.0151413E1,1.2439594E1,6.3001533E0,9.193601E1,1.0383137E0,2.4816344E0,2.5805213E0,1.6578022E1,8.214576E0,1.1532929E0,2.0285935E0,1.0411001E1,8.7343605E1,4.592412E0,1.5701902E0,1.0103312E0,7.043414E0,1.1711618E0,9.007202E0,1.4037987E0,8.490622E1,2.4373815E0,2.1862118E0,4.8572025E0,1.5029986E0,7.504204E0,2.709081E1,5.781541E1],"tree_param":{"num_deleted":"0","num_feature":"30","num_nodes":"47","size_leaf_vector":"1"}},{"base_weights":[3.946143E-3,-6.8279403E-1,1.01198845E-1,-8.612109E-1,-1.8504365E-1,5.7407536E-2,-8.674333E-1,-5.1133703E-2,-9.018626E-1,-8.794289E-1,-5.3080046E-1,-6.9916457E-1,5.089046E-2,-9.6994705E-2,-4.085116E-1,-8.893318E-2,-6.4911294E-1,-8.673999E-2,-2.564615E-1,-8.5281245E-2,-4.071067E-1,-3.901506E-2,6.5348697E-1,1.2036913E-2,-6.0817983E-2,-1.6856387E-1,-7.1295924E-2,-5.079701E-1,6.3644744E-2,2.030256E-2,-6.1122674E-1,-8.272793E-2,8.090989E-2,3.0413577E-1,8.600385E-2,-6.082849E-2,4.4329833E-2,2.3390632E-2,-7.9147995E-2,6.0598176E-2,-2.8986922E-1,-7.80409E-2,-1.3890833E-2,7.162499E-1,-1.22708194E-1,6.782944E-1,-1.060486E-1,-6.694928E-2,3.158123E-2,2.018355E-2,1.0169386E-1,-1.5776709E-2,8.75394E-2,-5.0113164E-3,9.888097E-2,3.3598777E-2,-5.3341635E-2],"categories":[],"categories_nodes":[],"categories_segments":[],"categories_sizes":[],"default_left":[0,0,0,0,0,0,0,0,0,0,0,0,0,0,0,0,0,0,0,0,0,0,0,0,0,0,0,0,0,0,0,0,0,0,0,0,0,0,0,0,0,0,0,0,0,0,0,0,0,0,0,0,0,0,0,0,0],"id":35,"left_children":[1,3,-1,5,7,-1,9,11,13,15,17,19,21,-1,23,-1,25,